<?xml version="1.0" encoding="UTF-8" standalone="yes"?>
<PMML xmlns="http://www.dmg.org/PMML-4_4" xmlns:data="http://jpmml.org/jpmml-model/InlineTable" version="4.4">
	<Header>
		<Application name="JPMML-SkLearn" version="1.6.26"/>
		<Timestamp>2021-08-25T21:28:28Z</Timestamp>
	</Header>
	<MiningBuildTask>
		<Extension name="repr">PMMLPipeline(steps=[('classifier', DecisionTreeClassifier(max_depth=8, min_samples_leaf=4, min_samples_split=5,
                       random_state=42))])</Extension>
	</MiningBuildTask>
	<DataDictionary>
		<DataField name="label" optype="categorical" dataType="integer">
			<Value value="0"/>
			<Value value="1"/>
			<Value value="2"/>
			<Value value="3"/>
			<Value value="4"/>
			<Value value="5"/>
			<Value value="6"/>
			<Value value="7"/>
		</DataField>
		<DataField name="trackLifetime" optype="continuous" dataType="float"/>
		<DataField name="xCenter" optype="continuous" dataType="float"/>
		<DataField name="yCenter" optype="continuous" dataType="float"/>
		<DataField name="heading" optype="continuous" dataType="float"/>
		<DataField name="width" optype="continuous" dataType="float"/>
		<DataField name="xVelocity" optype="continuous" dataType="float"/>
		<DataField name="yVelocity" optype="continuous" dataType="float"/>
		<DataField name="xAcceleration" optype="continuous" dataType="float"/>
		<DataField name="yAcceleration" optype="continuous" dataType="float"/>
		<DataField name="lonVelocity" optype="continuous" dataType="float"/>
		<DataField name="latVelocity" optype="continuous" dataType="float"/>
		<DataField name="lonAcceleration" optype="continuous" dataType="float"/>
		<DataField name="latAcceleration" optype="continuous" dataType="float"/>
		<DataField name="1_yVelocity" optype="continuous" dataType="float"/>
		<DataField name="1_xVelocity" optype="continuous" dataType="float"/>
		<DataField name="1_xAcceleration" optype="continuous" dataType="float"/>
		<DataField name="1_xCenter" optype="continuous" dataType="float"/>
		<DataField name="1_yCenter" optype="continuous" dataType="float"/>
		<DataField name="2_yVelocity" optype="continuous" dataType="float"/>
		<DataField name="2_yAcceleration" optype="continuous" dataType="float"/>
		<DataField name="2_xAcceleration" optype="continuous" dataType="float"/>
		<DataField name="2_xCenter" optype="continuous" dataType="float"/>
		<DataField name="2_yCenter" optype="continuous" dataType="float"/>
		<DataField name="3_yVelocity" optype="continuous" dataType="float"/>
		<DataField name="3_xVelocity" optype="continuous" dataType="float"/>
		<DataField name="3_yAcceleration" optype="continuous" dataType="float"/>
		<DataField name="3_xAcceleration" optype="continuous" dataType="float"/>
		<DataField name="3_xCenter" optype="continuous" dataType="float"/>
		<DataField name="3_yCenter" optype="continuous" dataType="float"/>
		<DataField name="3_distance" optype="continuous" dataType="float"/>
		<DataField name="2_distance" optype="continuous" dataType="float"/>
		<DataField name="1_distance" optype="continuous" dataType="float"/>
	</DataDictionary>
	<TreeModel functionName="classification" algorithmName="sklearn.tree._classes.DecisionTreeClassifier" missingValueStrategy="nullPrediction">
		<MiningSchema>
			<MiningField name="label" usageType="target"/>
			<MiningField name="lonAcceleration"/>
			<MiningField name="latAcceleration"/>
			<MiningField name="latVelocity"/>
			<MiningField name="xCenter"/>
			<MiningField name="trackLifetime"/>
			<MiningField name="2_yCenter"/>
			<MiningField name="lonVelocity"/>
			<MiningField name="3_distance"/>
			<MiningField name="1_xCenter"/>
			<MiningField name="3_xVelocity"/>
			<MiningField name="1_xAcceleration"/>
			<MiningField name="3_xAcceleration"/>
			<MiningField name="heading"/>
			<MiningField name="yAcceleration"/>
			<MiningField name="3_yVelocity"/>
			<MiningField name="2_distance"/>
			<MiningField name="3_xCenter"/>
			<MiningField name="1_distance"/>
			<MiningField name="xVelocity"/>
			<MiningField name="3_yCenter"/>
			<MiningField name="width"/>
			<MiningField name="xAcceleration"/>
			<MiningField name="2_yAcceleration"/>
			<MiningField name="1_xVelocity"/>
			<MiningField name="1_yCenter"/>
			<MiningField name="1_yVelocity"/>
			<MiningField name="2_yVelocity"/>
			<MiningField name="yCenter"/>
			<MiningField name="3_yAcceleration"/>
			<MiningField name="2_xCenter"/>
			<MiningField name="2_xAcceleration"/>
			<MiningField name="yVelocity"/>
		</MiningSchema>
		<Output>
			<OutputField name="probability(0)" optype="continuous" dataType="double" feature="probability" value="0"/>
			<OutputField name="probability(1)" optype="continuous" dataType="double" feature="probability" value="1"/>
			<OutputField name="probability(2)" optype="continuous" dataType="double" feature="probability" value="2"/>
			<OutputField name="probability(3)" optype="continuous" dataType="double" feature="probability" value="3"/>
			<OutputField name="probability(4)" optype="continuous" dataType="double" feature="probability" value="4"/>
			<OutputField name="probability(5)" optype="continuous" dataType="double" feature="probability" value="5"/>
			<OutputField name="probability(6)" optype="continuous" dataType="double" feature="probability" value="6"/>
			<OutputField name="probability(7)" optype="continuous" dataType="double" feature="probability" value="7"/>
		</Output>
		<LocalTransformations>
			<DerivedField name="double(lonAcceleration)" optype="continuous" dataType="double">
				<FieldRef field="lonAcceleration"/>
			</DerivedField>
			<DerivedField name="double(latAcceleration)" optype="continuous" dataType="double">
				<FieldRef field="latAcceleration"/>
			</DerivedField>
			<DerivedField name="double(latVelocity)" optype="continuous" dataType="double">
				<FieldRef field="latVelocity"/>
			</DerivedField>
			<DerivedField name="double(xCenter)" optype="continuous" dataType="double">
				<FieldRef field="xCenter"/>
			</DerivedField>
			<DerivedField name="double(trackLifetime)" optype="continuous" dataType="double">
				<FieldRef field="trackLifetime"/>
			</DerivedField>
			<DerivedField name="double(2_yCenter)" optype="continuous" dataType="double">
				<FieldRef field="2_yCenter"/>
			</DerivedField>
			<DerivedField name="double(lonVelocity)" optype="continuous" dataType="double">
				<FieldRef field="lonVelocity"/>
			</DerivedField>
			<DerivedField name="double(3_distance)" optype="continuous" dataType="double">
				<FieldRef field="3_distance"/>
			</DerivedField>
			<DerivedField name="double(1_xCenter)" optype="continuous" dataType="double">
				<FieldRef field="1_xCenter"/>
			</DerivedField>
			<DerivedField name="double(3_xVelocity)" optype="continuous" dataType="double">
				<FieldRef field="3_xVelocity"/>
			</DerivedField>
			<DerivedField name="double(1_xAcceleration)" optype="continuous" dataType="double">
				<FieldRef field="1_xAcceleration"/>
			</DerivedField>
			<DerivedField name="double(3_xAcceleration)" optype="continuous" dataType="double">
				<FieldRef field="3_xAcceleration"/>
			</DerivedField>
			<DerivedField name="double(heading)" optype="continuous" dataType="double">
				<FieldRef field="heading"/>
			</DerivedField>
			<DerivedField name="double(yAcceleration)" optype="continuous" dataType="double">
				<FieldRef field="yAcceleration"/>
			</DerivedField>
			<DerivedField name="double(3_yVelocity)" optype="continuous" dataType="double">
				<FieldRef field="3_yVelocity"/>
			</DerivedField>
			<DerivedField name="double(2_distance)" optype="continuous" dataType="double">
				<FieldRef field="2_distance"/>
			</DerivedField>
			<DerivedField name="double(3_xCenter)" optype="continuous" dataType="double">
				<FieldRef field="3_xCenter"/>
			</DerivedField>
			<DerivedField name="double(1_distance)" optype="continuous" dataType="double">
				<FieldRef field="1_distance"/>
			</DerivedField>
			<DerivedField name="double(xVelocity)" optype="continuous" dataType="double">
				<FieldRef field="xVelocity"/>
			</DerivedField>
			<DerivedField name="double(3_yCenter)" optype="continuous" dataType="double">
				<FieldRef field="3_yCenter"/>
			</DerivedField>
			<DerivedField name="double(width)" optype="continuous" dataType="double">
				<FieldRef field="width"/>
			</DerivedField>
			<DerivedField name="double(xAcceleration)" optype="continuous" dataType="double">
				<FieldRef field="xAcceleration"/>
			</DerivedField>
			<DerivedField name="double(2_yAcceleration)" optype="continuous" dataType="double">
				<FieldRef field="2_yAcceleration"/>
			</DerivedField>
			<DerivedField name="double(1_xVelocity)" optype="continuous" dataType="double">
				<FieldRef field="1_xVelocity"/>
			</DerivedField>
			<DerivedField name="double(1_yCenter)" optype="continuous" dataType="double">
				<FieldRef field="1_yCenter"/>
			</DerivedField>
			<DerivedField name="double(1_yVelocity)" optype="continuous" dataType="double">
				<FieldRef field="1_yVelocity"/>
			</DerivedField>
			<DerivedField name="double(2_yVelocity)" optype="continuous" dataType="double">
				<FieldRef field="2_yVelocity"/>
			</DerivedField>
			<DerivedField name="double(yCenter)" optype="continuous" dataType="double">
				<FieldRef field="yCenter"/>
			</DerivedField>
			<DerivedField name="double(3_yAcceleration)" optype="continuous" dataType="double">
				<FieldRef field="3_yAcceleration"/>
			</DerivedField>
			<DerivedField name="double(2_xCenter)" optype="continuous" dataType="double">
				<FieldRef field="2_xCenter"/>
			</DerivedField>
			<DerivedField name="double(2_xAcceleration)" optype="continuous" dataType="double">
				<FieldRef field="2_xAcceleration"/>
			</DerivedField>
			<DerivedField name="double(yVelocity)" optype="continuous" dataType="double">
				<FieldRef field="yVelocity"/>
			</DerivedField>
		</LocalTransformations>
		<Node>
			<True/>
			<Node>
				<SimplePredicate field="double(lonAcceleration)" operator="lessOrEqual" value="0.0027799999807029963"/>
				<Node>
					<SimplePredicate field="double(latAcceleration)" operator="lessOrEqual" value="0.9752150177955627"/>
					<Node>
						<SimplePredicate field="double(lonAcceleration)" operator="lessOrEqual" value="-0.08086999878287315"/>
						<Node>
							<SimplePredicate field="double(latAcceleration)" operator="lessOrEqual" value="-0.8831650018692017"/>
							<Node>
								<SimplePredicate field="double(latAcceleration)" operator="lessOrEqual" value="-1.5260649919509888"/>
								<Node score="1" recordCount="5">
									<SimplePredicate field="double(latVelocity)" operator="lessOrEqual" value="-0.7013300061225891"/>
									<ScoreDistribution value="0" recordCount="0"/>
									<ScoreDistribution value="1" recordCount="4"/>
									<ScoreDistribution value="2" recordCount="0"/>
									<ScoreDistribution value="3" recordCount="0"/>
									<ScoreDistribution value="4" recordCount="0"/>
									<ScoreDistribution value="5" recordCount="0"/>
									<ScoreDistribution value="6" recordCount="1"/>
									<ScoreDistribution value="7" recordCount="0"/>
								</Node>
								<Node>
									<SimplePredicate field="double(xCenter)" operator="lessOrEqual" value="57.43861389160156"/>
									<Node score="1" recordCount="4">
										<SimplePredicate field="double(trackLifetime)" operator="lessOrEqual" value="62.5"/>
										<ScoreDistribution value="0" recordCount="1"/>
										<ScoreDistribution value="1" recordCount="2"/>
										<ScoreDistribution value="2" recordCount="0"/>
										<ScoreDistribution value="3" recordCount="1"/>
										<ScoreDistribution value="4" recordCount="0"/>
										<ScoreDistribution value="5" recordCount="0"/>
										<ScoreDistribution value="6" recordCount="0"/>
										<ScoreDistribution value="7" recordCount="0"/>
									</Node>
									<Node score="3" recordCount="97">
										<True/>
										<ScoreDistribution value="0" recordCount="1"/>
										<ScoreDistribution value="1" recordCount="3"/>
										<ScoreDistribution value="2" recordCount="0"/>
										<ScoreDistribution value="3" recordCount="83"/>
										<ScoreDistribution value="4" recordCount="0"/>
										<ScoreDistribution value="5" recordCount="0"/>
										<ScoreDistribution value="6" recordCount="10"/>
										<ScoreDistribution value="7" recordCount="0"/>
									</Node>
								</Node>
								<Node score="3" recordCount="12">
									<SimplePredicate field="double(2_yCenter)" operator="lessOrEqual" value="-25.957815170288086"/>
									<ScoreDistribution value="0" recordCount="1"/>
									<ScoreDistribution value="1" recordCount="2"/>
									<ScoreDistribution value="2" recordCount="0"/>
									<ScoreDistribution value="3" recordCount="9"/>
									<ScoreDistribution value="4" recordCount="0"/>
									<ScoreDistribution value="5" recordCount="0"/>
									<ScoreDistribution value="6" recordCount="0"/>
									<ScoreDistribution value="7" recordCount="0"/>
								</Node>
								<Node score="6" recordCount="13">
									<True/>
									<ScoreDistribution value="0" recordCount="0"/>
									<ScoreDistribution value="1" recordCount="0"/>
									<ScoreDistribution value="2" recordCount="0"/>
									<ScoreDistribution value="3" recordCount="4"/>
									<ScoreDistribution value="4" recordCount="0"/>
									<ScoreDistribution value="5" recordCount="0"/>
									<ScoreDistribution value="6" recordCount="9"/>
									<ScoreDistribution value="7" recordCount="0"/>
								</Node>
							</Node>
							<Node>
								<SimplePredicate field="double(lonVelocity)" operator="lessOrEqual" value="3.171454906463623"/>
								<Node score="6" recordCount="6">
									<SimplePredicate field="double(3_distance)" operator="lessOrEqual" value="3.018496063305065E-4"/>
									<ScoreDistribution value="0" recordCount="1"/>
									<ScoreDistribution value="1" recordCount="2"/>
									<ScoreDistribution value="2" recordCount="0"/>
									<ScoreDistribution value="3" recordCount="0"/>
									<ScoreDistribution value="4" recordCount="0"/>
									<ScoreDistribution value="5" recordCount="0"/>
									<ScoreDistribution value="6" recordCount="3"/>
									<ScoreDistribution value="7" recordCount="0"/>
								</Node>
								<Node score="1" recordCount="7">
									<SimplePredicate field="double(1_xCenter)" operator="lessOrEqual" value="43.11244010925293"/>
									<ScoreDistribution value="0" recordCount="0"/>
									<ScoreDistribution value="1" recordCount="3"/>
									<ScoreDistribution value="2" recordCount="0"/>
									<ScoreDistribution value="3" recordCount="2"/>
									<ScoreDistribution value="4" recordCount="0"/>
									<ScoreDistribution value="5" recordCount="0"/>
									<ScoreDistribution value="6" recordCount="2"/>
									<ScoreDistribution value="7" recordCount="0"/>
								</Node>
								<Node score="3" recordCount="34">
									<True/>
									<ScoreDistribution value="0" recordCount="0"/>
									<ScoreDistribution value="1" recordCount="3"/>
									<ScoreDistribution value="2" recordCount="0"/>
									<ScoreDistribution value="3" recordCount="30"/>
									<ScoreDistribution value="4" recordCount="0"/>
									<ScoreDistribution value="5" recordCount="0"/>
									<ScoreDistribution value="6" recordCount="1"/>
									<ScoreDistribution value="7" recordCount="0"/>
								</Node>
							</Node>
							<Node>
								<SimplePredicate field="double(lonAcceleration)" operator="lessOrEqual" value="-0.16596999764442444"/>
								<Node score="1" recordCount="70">
									<SimplePredicate field="double(3_xVelocity)" operator="lessOrEqual" value="2.980720043182373"/>
									<ScoreDistribution value="0" recordCount="4"/>
									<ScoreDistribution value="1" recordCount="51"/>
									<ScoreDistribution value="2" recordCount="0"/>
									<ScoreDistribution value="3" recordCount="15"/>
									<ScoreDistribution value="4" recordCount="0"/>
									<ScoreDistribution value="5" recordCount="0"/>
									<ScoreDistribution value="6" recordCount="0"/>
									<ScoreDistribution value="7" recordCount="0"/>
								</Node>
								<Node score="3" recordCount="7">
									<True/>
									<ScoreDistribution value="0" recordCount="1"/>
									<ScoreDistribution value="1" recordCount="0"/>
									<ScoreDistribution value="2" recordCount="0"/>
									<ScoreDistribution value="3" recordCount="6"/>
									<ScoreDistribution value="4" recordCount="0"/>
									<ScoreDistribution value="5" recordCount="0"/>
									<ScoreDistribution value="6" recordCount="0"/>
									<ScoreDistribution value="7" recordCount="0"/>
								</Node>
							</Node>
							<Node score="3" recordCount="10">
								<SimplePredicate field="double(2_yCenter)" operator="lessOrEqual" value="-29.992924690246582"/>
								<ScoreDistribution value="0" recordCount="0"/>
								<ScoreDistribution value="1" recordCount="2"/>
								<ScoreDistribution value="2" recordCount="0"/>
								<ScoreDistribution value="3" recordCount="8"/>
								<ScoreDistribution value="4" recordCount="0"/>
								<ScoreDistribution value="5" recordCount="0"/>
								<ScoreDistribution value="6" recordCount="0"/>
								<ScoreDistribution value="7" recordCount="0"/>
							</Node>
							<Node score="0" recordCount="20">
								<True/>
								<ScoreDistribution value="0" recordCount="10"/>
								<ScoreDistribution value="1" recordCount="7"/>
								<ScoreDistribution value="2" recordCount="0"/>
								<ScoreDistribution value="3" recordCount="3"/>
								<ScoreDistribution value="4" recordCount="0"/>
								<ScoreDistribution value="5" recordCount="0"/>
								<ScoreDistribution value="6" recordCount="0"/>
								<ScoreDistribution value="7" recordCount="0"/>
							</Node>
						</Node>
						<Node>
							<SimplePredicate field="double(lonVelocity)" operator="lessOrEqual" value="0.00992499990388751"/>
							<Node>
								<SimplePredicate field="double(1_xAcceleration)" operator="lessOrEqual" value="0.21995999664068222"/>
								<Node>
									<SimplePredicate field="double(3_xAcceleration)" operator="lessOrEqual" value="0.055184999480843544"/>
									<Node score="0" recordCount="42">
										<SimplePredicate field="double(heading)" operator="lessOrEqual" value="222.2557830810547"/>
										<ScoreDistribution value="0" recordCount="29"/>
										<ScoreDistribution value="1" recordCount="13"/>
										<ScoreDistribution value="2" recordCount="0"/>
										<ScoreDistribution value="3" recordCount="0"/>
										<ScoreDistribution value="4" recordCount="0"/>
										<ScoreDistribution value="5" recordCount="0"/>
										<ScoreDistribution value="6" recordCount="0"/>
										<ScoreDistribution value="7" recordCount="0"/>
									</Node>
									<Node score="1" recordCount="31">
										<True/>
										<ScoreDistribution value="0" recordCount="9"/>
										<ScoreDistribution value="1" recordCount="20"/>
										<ScoreDistribution value="2" recordCount="0"/>
										<ScoreDistribution value="3" recordCount="0"/>
										<ScoreDistribution value="4" recordCount="1"/>
										<ScoreDistribution value="5" recordCount="0"/>
										<ScoreDistribution value="6" recordCount="1"/>
										<ScoreDistribution value="7" recordCount="0"/>
									</Node>
								</Node>
								<Node score="0" recordCount="11">
									<True/>
									<ScoreDistribution value="0" recordCount="11"/>
									<ScoreDistribution value="1" recordCount="0"/>
									<ScoreDistribution value="2" recordCount="0"/>
									<ScoreDistribution value="3" recordCount="0"/>
									<ScoreDistribution value="4" recordCount="0"/>
									<ScoreDistribution value="5" recordCount="0"/>
									<ScoreDistribution value="6" recordCount="0"/>
									<ScoreDistribution value="7" recordCount="0"/>
								</Node>
							</Node>
							<Node score="0" recordCount="4">
								<SimplePredicate field="double(yAcceleration)" operator="lessOrEqual" value="-0.08001499995589256"/>
								<ScoreDistribution value="0" recordCount="2"/>
								<ScoreDistribution value="1" recordCount="1"/>
								<ScoreDistribution value="2" recordCount="0"/>
								<ScoreDistribution value="3" recordCount="0"/>
								<ScoreDistribution value="4" recordCount="0"/>
								<ScoreDistribution value="5" recordCount="0"/>
								<ScoreDistribution value="6" recordCount="1"/>
								<ScoreDistribution value="7" recordCount="0"/>
							</Node>
							<Node score="0" recordCount="18">
								<True/>
								<ScoreDistribution value="0" recordCount="18"/>
								<ScoreDistribution value="1" recordCount="0"/>
								<ScoreDistribution value="2" recordCount="0"/>
								<ScoreDistribution value="3" recordCount="0"/>
								<ScoreDistribution value="4" recordCount="0"/>
								<ScoreDistribution value="5" recordCount="0"/>
								<ScoreDistribution value="6" recordCount="0"/>
								<ScoreDistribution value="7" recordCount="0"/>
							</Node>
						</Node>
						<Node>
							<SimplePredicate field="double(lonAcceleration)" operator="lessOrEqual" value="-0.19666500389575958"/>
							<Node>
								<SimplePredicate field="double(latAcceleration)" operator="lessOrEqual" value="-0.5350250005722046"/>
								<Node score="3" recordCount="37">
									<SimplePredicate field="double(lonVelocity)" operator="lessOrEqual" value="2.4735699892044067"/>
									<ScoreDistribution value="0" recordCount="1"/>
									<ScoreDistribution value="1" recordCount="14"/>
									<ScoreDistribution value="2" recordCount="0"/>
									<ScoreDistribution value="3" recordCount="19"/>
									<ScoreDistribution value="4" recordCount="0"/>
									<ScoreDistribution value="5" recordCount="0"/>
									<ScoreDistribution value="6" recordCount="3"/>
									<ScoreDistribution value="7" recordCount="0"/>
								</Node>
								<Node score="1" recordCount="110">
									<True/>
									<ScoreDistribution value="0" recordCount="5"/>
									<ScoreDistribution value="1" recordCount="88"/>
									<ScoreDistribution value="2" recordCount="0"/>
									<ScoreDistribution value="3" recordCount="17"/>
									<ScoreDistribution value="4" recordCount="0"/>
									<ScoreDistribution value="5" recordCount="0"/>
									<ScoreDistribution value="6" recordCount="0"/>
									<ScoreDistribution value="7" recordCount="0"/>
								</Node>
							</Node>
							<Node score="1" recordCount="4182">
								<SimplePredicate field="double(latAcceleration)" operator="lessOrEqual" value="0.5438649952411652"/>
								<ScoreDistribution value="0" recordCount="188"/>
								<ScoreDistribution value="1" recordCount="3934"/>
								<ScoreDistribution value="2" recordCount="17"/>
								<ScoreDistribution value="3" recordCount="36"/>
								<ScoreDistribution value="4" recordCount="1"/>
								<ScoreDistribution value="5" recordCount="0"/>
								<ScoreDistribution value="6" recordCount="6"/>
								<ScoreDistribution value="7" recordCount="0"/>
							</Node>
							<Node score="1" recordCount="417">
								<True/>
								<ScoreDistribution value="0" recordCount="12"/>
								<ScoreDistribution value="1" recordCount="354"/>
								<ScoreDistribution value="2" recordCount="47"/>
								<ScoreDistribution value="3" recordCount="0"/>
								<ScoreDistribution value="4" recordCount="4"/>
								<ScoreDistribution value="5" recordCount="0"/>
								<ScoreDistribution value="6" recordCount="0"/>
								<ScoreDistribution value="7" recordCount="0"/>
							</Node>
						</Node>
						<Node>
							<SimplePredicate field="double(lonVelocity)" operator="lessOrEqual" value="3.3578799962997437"/>
							<Node score="1" recordCount="122">
								<SimplePredicate field="double(latAcceleration)" operator="lessOrEqual" value="-0.2368749976158142"/>
								<ScoreDistribution value="0" recordCount="39"/>
								<ScoreDistribution value="1" recordCount="59"/>
								<ScoreDistribution value="2" recordCount="0"/>
								<ScoreDistribution value="3" recordCount="21"/>
								<ScoreDistribution value="4" recordCount="0"/>
								<ScoreDistribution value="5" recordCount="0"/>
								<ScoreDistribution value="6" recordCount="3"/>
								<ScoreDistribution value="7" recordCount="0"/>
							</Node>
							<Node score="1" recordCount="506">
								<True/>
								<ScoreDistribution value="0" recordCount="108"/>
								<ScoreDistribution value="1" recordCount="377"/>
								<ScoreDistribution value="2" recordCount="16"/>
								<ScoreDistribution value="3" recordCount="3"/>
								<ScoreDistribution value="4" recordCount="1"/>
								<ScoreDistribution value="5" recordCount="0"/>
								<ScoreDistribution value="6" recordCount="1"/>
								<ScoreDistribution value="7" recordCount="0"/>
							</Node>
						</Node>
						<Node score="1" recordCount="290">
							<SimplePredicate field="double(trackLifetime)" operator="lessOrEqual" value="37.5"/>
							<ScoreDistribution value="0" recordCount="8"/>
							<ScoreDistribution value="1" recordCount="281"/>
							<ScoreDistribution value="2" recordCount="1"/>
							<ScoreDistribution value="3" recordCount="0"/>
							<ScoreDistribution value="4" recordCount="0"/>
							<ScoreDistribution value="5" recordCount="0"/>
							<ScoreDistribution value="6" recordCount="0"/>
							<ScoreDistribution value="7" recordCount="0"/>
						</Node>
						<Node score="1" recordCount="1734">
							<True/>
							<ScoreDistribution value="0" recordCount="256"/>
							<ScoreDistribution value="1" recordCount="1468"/>
							<ScoreDistribution value="2" recordCount="8"/>
							<ScoreDistribution value="3" recordCount="2"/>
							<ScoreDistribution value="4" recordCount="0"/>
							<ScoreDistribution value="5" recordCount="0"/>
							<ScoreDistribution value="6" recordCount="0"/>
							<ScoreDistribution value="7" recordCount="0"/>
						</Node>
					</Node>
					<Node>
						<SimplePredicate field="double(xCenter)" operator="lessOrEqual" value="169.12920379638672"/>
						<Node>
							<SimplePredicate field="double(lonVelocity)" operator="lessOrEqual" value="-0.01209999993443489"/>
							<Node>
								<SimplePredicate field="double(3_yVelocity)" operator="lessOrEqual" value="4.911255121231079"/>
								<Node>
									<SimplePredicate field="double(2_distance)" operator="lessOrEqual" value="0.001636456639971584"/>
									<Node score="0" recordCount="60">
										<SimplePredicate field="double(3_xCenter)" operator="lessOrEqual" value="70.74608993530273"/>
										<ScoreDistribution value="0" recordCount="60"/>
										<ScoreDistribution value="1" recordCount="0"/>
										<ScoreDistribution value="2" recordCount="0"/>
										<ScoreDistribution value="3" recordCount="0"/>
										<ScoreDistribution value="4" recordCount="0"/>
										<ScoreDistribution value="5" recordCount="0"/>
										<ScoreDistribution value="6" recordCount="0"/>
										<ScoreDistribution value="7" recordCount="0"/>
									</Node>
									<Node score="0" recordCount="21">
										<True/>
										<ScoreDistribution value="0" recordCount="17"/>
										<ScoreDistribution value="1" recordCount="4"/>
										<ScoreDistribution value="2" recordCount="0"/>
										<ScoreDistribution value="3" recordCount="0"/>
										<ScoreDistribution value="4" recordCount="0"/>
										<ScoreDistribution value="5" recordCount="0"/>
										<ScoreDistribution value="6" recordCount="0"/>
										<ScoreDistribution value="7" recordCount="0"/>
									</Node>
								</Node>
								<Node score="0" recordCount="17">
									<SimplePredicate field="double(1_distance)" operator="lessOrEqual" value="0.0014397460618056357"/>
									<ScoreDistribution value="0" recordCount="9"/>
									<ScoreDistribution value="1" recordCount="8"/>
									<ScoreDistribution value="2" recordCount="0"/>
									<ScoreDistribution value="3" recordCount="0"/>
									<ScoreDistribution value="4" recordCount="0"/>
									<ScoreDistribution value="5" recordCount="0"/>
									<ScoreDistribution value="6" recordCount="0"/>
									<ScoreDistribution value="7" recordCount="0"/>
								</Node>
								<Node score="0" recordCount="11">
									<True/>
									<ScoreDistribution value="0" recordCount="11"/>
									<ScoreDistribution value="1" recordCount="0"/>
									<ScoreDistribution value="2" recordCount="0"/>
									<ScoreDistribution value="3" recordCount="0"/>
									<ScoreDistribution value="4" recordCount="0"/>
									<ScoreDistribution value="5" recordCount="0"/>
									<ScoreDistribution value="6" recordCount="0"/>
									<ScoreDistribution value="7" recordCount="0"/>
								</Node>
							</Node>
							<Node score="1" recordCount="4">
								<True/>
								<ScoreDistribution value="0" recordCount="1"/>
								<ScoreDistribution value="1" recordCount="3"/>
								<ScoreDistribution value="2" recordCount="0"/>
								<ScoreDistribution value="3" recordCount="0"/>
								<ScoreDistribution value="4" recordCount="0"/>
								<ScoreDistribution value="5" recordCount="0"/>
								<ScoreDistribution value="6" recordCount="0"/>
								<ScoreDistribution value="7" recordCount="0"/>
							</Node>
						</Node>
						<Node>
							<SimplePredicate field="double(latAcceleration)" operator="lessOrEqual" value="-1.3608049750328064"/>
							<Node>
								<SimplePredicate field="double(xVelocity)" operator="lessOrEqual" value="4.840364933013916"/>
								<Node score="3" recordCount="39">
									<SimplePredicate field="double(latVelocity)" operator="lessOrEqual" value="0.4121299982070923"/>
									<ScoreDistribution value="0" recordCount="1"/>
									<ScoreDistribution value="1" recordCount="0"/>
									<ScoreDistribution value="2" recordCount="0"/>
									<ScoreDistribution value="3" recordCount="36"/>
									<ScoreDistribution value="4" recordCount="0"/>
									<ScoreDistribution value="5" recordCount="0"/>
									<ScoreDistribution value="6" recordCount="2"/>
									<ScoreDistribution value="7" recordCount="0"/>
								</Node>
								<Node score="3" recordCount="8">
									<True/>
									<ScoreDistribution value="0" recordCount="1"/>
									<ScoreDistribution value="1" recordCount="0"/>
									<ScoreDistribution value="2" recordCount="0"/>
									<ScoreDistribution value="3" recordCount="4"/>
									<ScoreDistribution value="4" recordCount="0"/>
									<ScoreDistribution value="5" recordCount="0"/>
									<ScoreDistribution value="6" recordCount="3"/>
									<ScoreDistribution value="7" recordCount="0"/>
								</Node>
							</Node>
							<Node score="0" recordCount="6">
								<True/>
								<ScoreDistribution value="0" recordCount="3"/>
								<ScoreDistribution value="1" recordCount="1"/>
								<ScoreDistribution value="2" recordCount="0"/>
								<ScoreDistribution value="3" recordCount="2"/>
								<ScoreDistribution value="4" recordCount="0"/>
								<ScoreDistribution value="5" recordCount="0"/>
								<ScoreDistribution value="6" recordCount="0"/>
								<ScoreDistribution value="7" recordCount="0"/>
							</Node>
						</Node>
						<Node>
							<SimplePredicate field="double(trackLifetime)" operator="lessOrEqual" value="37.5"/>
							<Node score="0" recordCount="5">
								<SimplePredicate field="double(3_yCenter)" operator="lessOrEqual" value="-57.27898025512695"/>
								<ScoreDistribution value="0" recordCount="4"/>
								<ScoreDistribution value="1" recordCount="1"/>
								<ScoreDistribution value="2" recordCount="0"/>
								<ScoreDistribution value="3" recordCount="0"/>
								<ScoreDistribution value="4" recordCount="0"/>
								<ScoreDistribution value="5" recordCount="0"/>
								<ScoreDistribution value="6" recordCount="0"/>
								<ScoreDistribution value="7" recordCount="0"/>
							</Node>
							<Node score="1" recordCount="320">
								<True/>
								<ScoreDistribution value="0" recordCount="25"/>
								<ScoreDistribution value="1" recordCount="293"/>
								<ScoreDistribution value="2" recordCount="2"/>
								<ScoreDistribution value="3" recordCount="0"/>
								<ScoreDistribution value="4" recordCount="0"/>
								<ScoreDistribution value="5" recordCount="0"/>
								<ScoreDistribution value="6" recordCount="0"/>
								<ScoreDistribution value="7" recordCount="0"/>
							</Node>
						</Node>
						<Node score="1" recordCount="2708">
							<SimplePredicate field="double(width)" operator="lessOrEqual" value="0.8685899972915649"/>
							<ScoreDistribution value="0" recordCount="971"/>
							<ScoreDistribution value="1" recordCount="1677"/>
							<ScoreDistribution value="2" recordCount="21"/>
							<ScoreDistribution value="3" recordCount="35"/>
							<ScoreDistribution value="4" recordCount="1"/>
							<ScoreDistribution value="5" recordCount="2"/>
							<ScoreDistribution value="6" recordCount="1"/>
							<ScoreDistribution value="7" recordCount="0"/>
						</Node>
						<Node score="5" recordCount="12">
							<True/>
							<ScoreDistribution value="0" recordCount="0"/>
							<ScoreDistribution value="1" recordCount="0"/>
							<ScoreDistribution value="2" recordCount="0"/>
							<ScoreDistribution value="3" recordCount="0"/>
							<ScoreDistribution value="4" recordCount="0"/>
							<ScoreDistribution value="5" recordCount="12"/>
							<ScoreDistribution value="6" recordCount="0"/>
							<ScoreDistribution value="7" recordCount="0"/>
						</Node>
					</Node>
					<Node score="7" recordCount="65">
						<True/>
						<ScoreDistribution value="0" recordCount="0"/>
						<ScoreDistribution value="1" recordCount="0"/>
						<ScoreDistribution value="2" recordCount="0"/>
						<ScoreDistribution value="3" recordCount="0"/>
						<ScoreDistribution value="4" recordCount="0"/>
						<ScoreDistribution value="5" recordCount="0"/>
						<ScoreDistribution value="6" recordCount="0"/>
						<ScoreDistribution value="7" recordCount="65"/>
					</Node>
				</Node>
				<Node>
					<SimplePredicate field="double(xVelocity)" operator="lessOrEqual" value="2.51911997795105"/>
					<Node>
						<SimplePredicate field="double(latVelocity)" operator="lessOrEqual" value="0.15350499749183655"/>
						<Node>
							<SimplePredicate field="double(xAcceleration)" operator="lessOrEqual" value="-2.9133050441741943"/>
							<Node score="4" recordCount="4">
								<SimplePredicate field="double(1_distance)" operator="lessOrEqual" value="0.001027327758492902"/>
								<ScoreDistribution value="0" recordCount="0"/>
								<ScoreDistribution value="1" recordCount="0"/>
								<ScoreDistribution value="2" recordCount="0"/>
								<ScoreDistribution value="3" recordCount="0"/>
								<ScoreDistribution value="4" recordCount="4"/>
								<ScoreDistribution value="5" recordCount="0"/>
								<ScoreDistribution value="6" recordCount="0"/>
								<ScoreDistribution value="7" recordCount="0"/>
							</Node>
							<Node score="4" recordCount="4">
								<True/>
								<ScoreDistribution value="0" recordCount="0"/>
								<ScoreDistribution value="1" recordCount="0"/>
								<ScoreDistribution value="2" recordCount="1"/>
								<ScoreDistribution value="3" recordCount="0"/>
								<ScoreDistribution value="4" recordCount="3"/>
								<ScoreDistribution value="5" recordCount="0"/>
								<ScoreDistribution value="6" recordCount="0"/>
								<ScoreDistribution value="7" recordCount="0"/>
							</Node>
						</Node>
						<Node>
							<SimplePredicate field="double(latAcceleration)" operator="lessOrEqual" value="1.2318350076675415"/>
							<Node>
								<SimplePredicate field="double(lonAcceleration)" operator="lessOrEqual" value="-0.8483500182628632"/>
								<Node score="1" recordCount="7">
									<SimplePredicate field="double(2_yAcceleration)" operator="lessOrEqual" value="0.025514999870210886"/>
									<ScoreDistribution value="0" recordCount="0"/>
									<ScoreDistribution value="1" recordCount="4"/>
									<ScoreDistribution value="2" recordCount="3"/>
									<ScoreDistribution value="3" recordCount="0"/>
									<ScoreDistribution value="4" recordCount="0"/>
									<ScoreDistribution value="5" recordCount="0"/>
									<ScoreDistribution value="6" recordCount="0"/>
									<ScoreDistribution value="7" recordCount="0"/>
								</Node>
								<Node score="1" recordCount="6">
									<True/>
									<ScoreDistribution value="0" recordCount="0"/>
									<ScoreDistribution value="1" recordCount="6"/>
									<ScoreDistribution value="2" recordCount="0"/>
									<ScoreDistribution value="3" recordCount="0"/>
									<ScoreDistribution value="4" recordCount="0"/>
									<ScoreDistribution value="5" recordCount="0"/>
									<ScoreDistribution value="6" recordCount="0"/>
									<ScoreDistribution value="7" recordCount="0"/>
								</Node>
							</Node>
							<Node score="1" recordCount="17">
								<SimplePredicate field="double(1_xVelocity)" operator="lessOrEqual" value="-0.507534995675087"/>
								<ScoreDistribution value="0" recordCount="0"/>
								<ScoreDistribution value="1" recordCount="9"/>
								<ScoreDistribution value="2" recordCount="8"/>
								<ScoreDistribution value="3" recordCount="0"/>
								<ScoreDistribution value="4" recordCount="0"/>
								<ScoreDistribution value="5" recordCount="0"/>
								<ScoreDistribution value="6" recordCount="0"/>
								<ScoreDistribution value="7" recordCount="0"/>
							</Node>
							<Node score="2" recordCount="57">
								<True/>
								<ScoreDistribution value="0" recordCount="2"/>
								<ScoreDistribution value="1" recordCount="7"/>
								<ScoreDistribution value="2" recordCount="47"/>
								<ScoreDistribution value="3" recordCount="0"/>
								<ScoreDistribution value="4" recordCount="1"/>
								<ScoreDistribution value="5" recordCount="0"/>
								<ScoreDistribution value="6" recordCount="0"/>
								<ScoreDistribution value="7" recordCount="0"/>
							</Node>
						</Node>
						<Node score="4" recordCount="4">
							<SimplePredicate field="double(lonVelocity)" operator="lessOrEqual" value="2.2778400182724"/>
							<ScoreDistribution value="0" recordCount="0"/>
							<ScoreDistribution value="1" recordCount="0"/>
							<ScoreDistribution value="2" recordCount="1"/>
							<ScoreDistribution value="3" recordCount="0"/>
							<ScoreDistribution value="4" recordCount="3"/>
							<ScoreDistribution value="5" recordCount="0"/>
							<ScoreDistribution value="6" recordCount="0"/>
							<ScoreDistribution value="7" recordCount="0"/>
						</Node>
						<Node score="2" recordCount="289">
							<SimplePredicate field="double(xAcceleration)" operator="lessOrEqual" value="4.091714978218079"/>
							<ScoreDistribution value="0" recordCount="2"/>
							<ScoreDistribution value="1" recordCount="13"/>
							<ScoreDistribution value="2" recordCount="269"/>
							<ScoreDistribution value="3" recordCount="0"/>
							<ScoreDistribution value="4" recordCount="5"/>
							<ScoreDistribution value="5" recordCount="0"/>
							<ScoreDistribution value="6" recordCount="0"/>
							<ScoreDistribution value="7" recordCount="0"/>
						</Node>
						<Node score="4" recordCount="4">
							<True/>
							<ScoreDistribution value="0" recordCount="0"/>
							<ScoreDistribution value="1" recordCount="0"/>
							<ScoreDistribution value="2" recordCount="1"/>
							<ScoreDistribution value="3" recordCount="0"/>
							<ScoreDistribution value="4" recordCount="3"/>
							<ScoreDistribution value="5" recordCount="0"/>
							<ScoreDistribution value="6" recordCount="0"/>
							<ScoreDistribution value="7" recordCount="0"/>
						</Node>
					</Node>
					<Node>
						<SimplePredicate field="double(xVelocity)" operator="lessOrEqual" value="-3.0173699855804443"/>
						<Node>
							<SimplePredicate field="double(yAcceleration)" operator="lessOrEqual" value="1.7988850474357605"/>
							<Node>
								<SimplePredicate field="double(lonAcceleration)" operator="lessOrEqual" value="-0.16396000236272812"/>
								<Node score="0" recordCount="4">
									<SimplePredicate field="double(1_yCenter)" operator="lessOrEqual" value="-25.943084716796875"/>
									<ScoreDistribution value="0" recordCount="2"/>
									<ScoreDistribution value="1" recordCount="1"/>
									<ScoreDistribution value="2" recordCount="1"/>
									<ScoreDistribution value="3" recordCount="0"/>
									<ScoreDistribution value="4" recordCount="0"/>
									<ScoreDistribution value="5" recordCount="0"/>
									<ScoreDistribution value="6" recordCount="0"/>
									<ScoreDistribution value="7" recordCount="0"/>
								</Node>
								<Node score="1" recordCount="5">
									<True/>
									<ScoreDistribution value="0" recordCount="0"/>
									<ScoreDistribution value="1" recordCount="5"/>
									<ScoreDistribution value="2" recordCount="0"/>
									<ScoreDistribution value="3" recordCount="0"/>
									<ScoreDistribution value="4" recordCount="0"/>
									<ScoreDistribution value="5" recordCount="0"/>
									<ScoreDistribution value="6" recordCount="0"/>
									<ScoreDistribution value="7" recordCount="0"/>
								</Node>
							</Node>
							<Node score="0" recordCount="30">
								<SimplePredicate field="double(3_distance)" operator="lessOrEqual" value="0.006209834944456816"/>
								<ScoreDistribution value="0" recordCount="27"/>
								<ScoreDistribution value="1" recordCount="3"/>
								<ScoreDistribution value="2" recordCount="0"/>
								<ScoreDistribution value="3" recordCount="0"/>
								<ScoreDistribution value="4" recordCount="0"/>
								<ScoreDistribution value="5" recordCount="0"/>
								<ScoreDistribution value="6" recordCount="0"/>
								<ScoreDistribution value="7" recordCount="0"/>
							</Node>
							<Node score="2" recordCount="4">
								<True/>
								<ScoreDistribution value="0" recordCount="1"/>
								<ScoreDistribution value="1" recordCount="1"/>
								<ScoreDistribution value="2" recordCount="2"/>
								<ScoreDistribution value="3" recordCount="0"/>
								<ScoreDistribution value="4" recordCount="0"/>
								<ScoreDistribution value="5" recordCount="0"/>
								<ScoreDistribution value="6" recordCount="0"/>
								<ScoreDistribution value="7" recordCount="0"/>
							</Node>
						</Node>
						<Node>
							<SimplePredicate field="double(3_distance)" operator="lessOrEqual" value="0.0023056240752339363"/>
							<Node score="1" recordCount="5">
								<SimplePredicate field="double(lonAcceleration)" operator="lessOrEqual" value="-0.2471349984407425"/>
								<ScoreDistribution value="0" recordCount="0"/>
								<ScoreDistribution value="1" recordCount="5"/>
								<ScoreDistribution value="2" recordCount="0"/>
								<ScoreDistribution value="3" recordCount="0"/>
								<ScoreDistribution value="4" recordCount="0"/>
								<ScoreDistribution value="5" recordCount="0"/>
								<ScoreDistribution value="6" recordCount="0"/>
								<ScoreDistribution value="7" recordCount="0"/>
							</Node>
							<Node score="0" recordCount="4">
								<True/>
								<ScoreDistribution value="0" recordCount="2"/>
								<ScoreDistribution value="1" recordCount="0"/>
								<ScoreDistribution value="2" recordCount="2"/>
								<ScoreDistribution value="3" recordCount="0"/>
								<ScoreDistribution value="4" recordCount="0"/>
								<ScoreDistribution value="5" recordCount="0"/>
								<ScoreDistribution value="6" recordCount="0"/>
								<ScoreDistribution value="7" recordCount="0"/>
							</Node>
						</Node>
						<Node score="2" recordCount="14">
							<SimplePredicate field="double(3_yCenter)" operator="lessOrEqual" value="-18.484095573425293"/>
							<ScoreDistribution value="0" recordCount="1"/>
							<ScoreDistribution value="1" recordCount="0"/>
							<ScoreDistribution value="2" recordCount="13"/>
							<ScoreDistribution value="3" recordCount="0"/>
							<ScoreDistribution value="4" recordCount="0"/>
							<ScoreDistribution value="5" recordCount="0"/>
							<ScoreDistribution value="6" recordCount="0"/>
							<ScoreDistribution value="7" recordCount="0"/>
						</Node>
						<Node score="1" recordCount="4">
							<True/>
							<ScoreDistribution value="0" recordCount="0"/>
							<ScoreDistribution value="1" recordCount="2"/>
							<ScoreDistribution value="2" recordCount="2"/>
							<ScoreDistribution value="3" recordCount="0"/>
							<ScoreDistribution value="4" recordCount="0"/>
							<ScoreDistribution value="5" recordCount="0"/>
							<ScoreDistribution value="6" recordCount="0"/>
							<ScoreDistribution value="7" recordCount="0"/>
						</Node>
					</Node>
					<Node>
						<SimplePredicate field="double(latVelocity)" operator="lessOrEqual" value="0.18990500271320343"/>
						<Node score="4" recordCount="6">
							<SimplePredicate field="double(xCenter)" operator="lessOrEqual" value="41.55970573425293"/>
							<ScoreDistribution value="0" recordCount="0"/>
							<ScoreDistribution value="1" recordCount="0"/>
							<ScoreDistribution value="2" recordCount="2"/>
							<ScoreDistribution value="3" recordCount="0"/>
							<ScoreDistribution value="4" recordCount="4"/>
							<ScoreDistribution value="5" recordCount="0"/>
							<ScoreDistribution value="6" recordCount="0"/>
							<ScoreDistribution value="7" recordCount="0"/>
						</Node>
						<Node score="0" recordCount="7">
							<True/>
							<ScoreDistribution value="0" recordCount="3"/>
							<ScoreDistribution value="1" recordCount="2"/>
							<ScoreDistribution value="2" recordCount="2"/>
							<ScoreDistribution value="3" recordCount="0"/>
							<ScoreDistribution value="4" recordCount="0"/>
							<ScoreDistribution value="5" recordCount="0"/>
							<ScoreDistribution value="6" recordCount="0"/>
							<ScoreDistribution value="7" recordCount="0"/>
						</Node>
					</Node>
					<Node>
						<SimplePredicate field="double(heading)" operator="lessOrEqual" value="295.96717834472656"/>
						<Node score="2" recordCount="31">
							<SimplePredicate field="double(1_yVelocity)" operator="lessOrEqual" value="0.3890550136566162"/>
							<ScoreDistribution value="0" recordCount="0"/>
							<ScoreDistribution value="1" recordCount="0"/>
							<ScoreDistribution value="2" recordCount="31"/>
							<ScoreDistribution value="3" recordCount="0"/>
							<ScoreDistribution value="4" recordCount="0"/>
							<ScoreDistribution value="5" recordCount="0"/>
							<ScoreDistribution value="6" recordCount="0"/>
							<ScoreDistribution value="7" recordCount="0"/>
						</Node>
						<Node score="2" recordCount="14">
							<True/>
							<ScoreDistribution value="0" recordCount="0"/>
							<ScoreDistribution value="1" recordCount="2"/>
							<ScoreDistribution value="2" recordCount="10"/>
							<ScoreDistribution value="3" recordCount="0"/>
							<ScoreDistribution value="4" recordCount="2"/>
							<ScoreDistribution value="5" recordCount="0"/>
							<ScoreDistribution value="6" recordCount="0"/>
							<ScoreDistribution value="7" recordCount="0"/>
						</Node>
					</Node>
					<Node score="1" recordCount="4">
						<True/>
						<ScoreDistribution value="0" recordCount="0"/>
						<ScoreDistribution value="1" recordCount="3"/>
						<ScoreDistribution value="2" recordCount="1"/>
						<ScoreDistribution value="3" recordCount="0"/>
						<ScoreDistribution value="4" recordCount="0"/>
						<ScoreDistribution value="5" recordCount="0"/>
						<ScoreDistribution value="6" recordCount="0"/>
						<ScoreDistribution value="7" recordCount="0"/>
					</Node>
				</Node>
				<Node>
					<SimplePredicate field="double(latAcceleration)" operator="lessOrEqual" value="1.329384982585907"/>
					<Node>
						<SimplePredicate field="double(lonVelocity)" operator="lessOrEqual" value="3.424589991569519"/>
						<Node score="1" recordCount="4">
							<SimplePredicate field="double(2_yVelocity)" operator="lessOrEqual" value="-0.017159998416900635"/>
							<ScoreDistribution value="0" recordCount="0"/>
							<ScoreDistribution value="1" recordCount="2"/>
							<ScoreDistribution value="2" recordCount="0"/>
							<ScoreDistribution value="3" recordCount="0"/>
							<ScoreDistribution value="4" recordCount="2"/>
							<ScoreDistribution value="5" recordCount="0"/>
							<ScoreDistribution value="6" recordCount="0"/>
							<ScoreDistribution value="7" recordCount="0"/>
						</Node>
						<Node score="2" recordCount="4">
							<True/>
							<ScoreDistribution value="0" recordCount="0"/>
							<ScoreDistribution value="1" recordCount="0"/>
							<ScoreDistribution value="2" recordCount="4"/>
							<ScoreDistribution value="3" recordCount="0"/>
							<ScoreDistribution value="4" recordCount="0"/>
							<ScoreDistribution value="5" recordCount="0"/>
							<ScoreDistribution value="6" recordCount="0"/>
							<ScoreDistribution value="7" recordCount="0"/>
						</Node>
					</Node>
					<Node>
						<SimplePredicate field="double(lonAcceleration)" operator="lessOrEqual" value="-0.15486499667167664"/>
						<Node score="1" recordCount="31">
							<SimplePredicate field="double(3_xCenter)" operator="lessOrEqual" value="70.67197036743164"/>
							<ScoreDistribution value="0" recordCount="0"/>
							<ScoreDistribution value="1" recordCount="31"/>
							<ScoreDistribution value="2" recordCount="0"/>
							<ScoreDistribution value="3" recordCount="0"/>
							<ScoreDistribution value="4" recordCount="0"/>
							<ScoreDistribution value="5" recordCount="0"/>
							<ScoreDistribution value="6" recordCount="0"/>
							<ScoreDistribution value="7" recordCount="0"/>
						</Node>
						<Node score="1" recordCount="12">
							<SimplePredicate field="double(1_yCenter)" operator="lessOrEqual" value="-19.36181926727295"/>
							<ScoreDistribution value="0" recordCount="0"/>
							<ScoreDistribution value="1" recordCount="6"/>
							<ScoreDistribution value="2" recordCount="6"/>
							<ScoreDistribution value="3" recordCount="0"/>
							<ScoreDistribution value="4" recordCount="0"/>
							<ScoreDistribution value="5" recordCount="0"/>
							<ScoreDistribution value="6" recordCount="0"/>
							<ScoreDistribution value="7" recordCount="0"/>
						</Node>
						<Node score="1" recordCount="10">
							<True/>
							<ScoreDistribution value="0" recordCount="0"/>
							<ScoreDistribution value="1" recordCount="10"/>
							<ScoreDistribution value="2" recordCount="0"/>
							<ScoreDistribution value="3" recordCount="0"/>
							<ScoreDistribution value="4" recordCount="0"/>
							<ScoreDistribution value="5" recordCount="0"/>
							<ScoreDistribution value="6" recordCount="0"/>
							<ScoreDistribution value="7" recordCount="0"/>
						</Node>
					</Node>
					<Node score="2" recordCount="7">
						<True/>
						<ScoreDistribution value="0" recordCount="0"/>
						<ScoreDistribution value="1" recordCount="3"/>
						<ScoreDistribution value="2" recordCount="4"/>
						<ScoreDistribution value="3" recordCount="0"/>
						<ScoreDistribution value="4" recordCount="0"/>
						<ScoreDistribution value="5" recordCount="0"/>
						<ScoreDistribution value="6" recordCount="0"/>
						<ScoreDistribution value="7" recordCount="0"/>
					</Node>
				</Node>
				<Node>
					<SimplePredicate field="double(xVelocity)" operator="lessOrEqual" value="4.834065198898315"/>
					<Node>
						<SimplePredicate field="double(2_yAcceleration)" operator="lessOrEqual" value="0.27741000056266785"/>
						<Node>
							<SimplePredicate field="double(yAcceleration)" operator="lessOrEqual" value="-0.5758000016212463"/>
							<Node score="2" recordCount="21">
								<SimplePredicate field="double(latVelocity)" operator="lessOrEqual" value="0.5523250102996826"/>
								<ScoreDistribution value="0" recordCount="0"/>
								<ScoreDistribution value="1" recordCount="0"/>
								<ScoreDistribution value="2" recordCount="21"/>
								<ScoreDistribution value="3" recordCount="0"/>
								<ScoreDistribution value="4" recordCount="0"/>
								<ScoreDistribution value="5" recordCount="0"/>
								<ScoreDistribution value="6" recordCount="0"/>
								<ScoreDistribution value="7" recordCount="0"/>
							</Node>
							<Node score="2" recordCount="6">
								<True/>
								<ScoreDistribution value="0" recordCount="1"/>
								<ScoreDistribution value="1" recordCount="1"/>
								<ScoreDistribution value="2" recordCount="4"/>
								<ScoreDistribution value="3" recordCount="0"/>
								<ScoreDistribution value="4" recordCount="0"/>
								<ScoreDistribution value="5" recordCount="0"/>
								<ScoreDistribution value="6" recordCount="0"/>
								<ScoreDistribution value="7" recordCount="0"/>
							</Node>
						</Node>
						<Node score="1" recordCount="4">
							<SimplePredicate field="double(yAcceleration)" operator="lessOrEqual" value="-0.328125"/>
							<ScoreDistribution value="0" recordCount="0"/>
							<ScoreDistribution value="1" recordCount="3"/>
							<ScoreDistribution value="2" recordCount="0"/>
							<ScoreDistribution value="3" recordCount="0"/>
							<ScoreDistribution value="4" recordCount="1"/>
							<ScoreDistribution value="5" recordCount="0"/>
							<ScoreDistribution value="6" recordCount="0"/>
							<ScoreDistribution value="7" recordCount="0"/>
						</Node>
						<Node score="2" recordCount="5">
							<True/>
							<ScoreDistribution value="0" recordCount="0"/>
							<ScoreDistribution value="1" recordCount="0"/>
							<ScoreDistribution value="2" recordCount="5"/>
							<ScoreDistribution value="3" recordCount="0"/>
							<ScoreDistribution value="4" recordCount="0"/>
							<ScoreDistribution value="5" recordCount="0"/>
							<ScoreDistribution value="6" recordCount="0"/>
							<ScoreDistribution value="7" recordCount="0"/>
						</Node>
					</Node>
					<Node score="1" recordCount="5">
						<True/>
						<ScoreDistribution value="0" recordCount="0"/>
						<ScoreDistribution value="1" recordCount="4"/>
						<ScoreDistribution value="2" recordCount="1"/>
						<ScoreDistribution value="3" recordCount="0"/>
						<ScoreDistribution value="4" recordCount="0"/>
						<ScoreDistribution value="5" recordCount="0"/>
						<ScoreDistribution value="6" recordCount="0"/>
						<ScoreDistribution value="7" recordCount="0"/>
					</Node>
				</Node>
				<Node score="2" recordCount="4">
					<SimplePredicate field="double(trackLifetime)" operator="lessOrEqual" value="87.5"/>
					<ScoreDistribution value="0" recordCount="0"/>
					<ScoreDistribution value="1" recordCount="0"/>
					<ScoreDistribution value="2" recordCount="4"/>
					<ScoreDistribution value="3" recordCount="0"/>
					<ScoreDistribution value="4" recordCount="0"/>
					<ScoreDistribution value="5" recordCount="0"/>
					<ScoreDistribution value="6" recordCount="0"/>
					<ScoreDistribution value="7" recordCount="0"/>
				</Node>
				<Node score="1" recordCount="4">
					<SimplePredicate field="double(1_xAcceleration)" operator="lessOrEqual" value="0.07507999986410141"/>
					<ScoreDistribution value="0" recordCount="1"/>
					<ScoreDistribution value="1" recordCount="3"/>
					<ScoreDistribution value="2" recordCount="0"/>
					<ScoreDistribution value="3" recordCount="0"/>
					<ScoreDistribution value="4" recordCount="0"/>
					<ScoreDistribution value="5" recordCount="0"/>
					<ScoreDistribution value="6" recordCount="0"/>
					<ScoreDistribution value="7" recordCount="0"/>
				</Node>
				<Node score="1" recordCount="6">
					<True/>
					<ScoreDistribution value="0" recordCount="0"/>
					<ScoreDistribution value="1" recordCount="6"/>
					<ScoreDistribution value="2" recordCount="0"/>
					<ScoreDistribution value="3" recordCount="0"/>
					<ScoreDistribution value="4" recordCount="0"/>
					<ScoreDistribution value="5" recordCount="0"/>
					<ScoreDistribution value="6" recordCount="0"/>
					<ScoreDistribution value="7" recordCount="0"/>
				</Node>
			</Node>
			<Node>
				<SimplePredicate field="double(latAcceleration)" operator="lessOrEqual" value="-1.0124350190162659"/>
				<Node>
					<SimplePredicate field="double(heading)" operator="lessOrEqual" value="349.9841613769531"/>
					<Node>
						<SimplePredicate field="double(latAcceleration)" operator="lessOrEqual" value="-1.391759991645813"/>
						<Node>
							<SimplePredicate field="double(yCenter)" operator="lessOrEqual" value="-36.66588020324707"/>
							<Node>
								<SimplePredicate field="double(xVelocity)" operator="lessOrEqual" value="1.0206550359725952"/>
								<Node score="0" recordCount="4">
									<SimplePredicate field="double(3_yAcceleration)" operator="lessOrEqual" value="-0.013779999688267708"/>
									<ScoreDistribution value="0" recordCount="1"/>
									<ScoreDistribution value="1" recordCount="1"/>
									<ScoreDistribution value="2" recordCount="0"/>
									<ScoreDistribution value="3" recordCount="1"/>
									<ScoreDistribution value="4" recordCount="0"/>
									<ScoreDistribution value="5" recordCount="0"/>
									<ScoreDistribution value="6" recordCount="1"/>
									<ScoreDistribution value="7" recordCount="0"/>
								</Node>
								<Node score="3" recordCount="5">
									<True/>
									<ScoreDistribution value="0" recordCount="0"/>
									<ScoreDistribution value="1" recordCount="0"/>
									<ScoreDistribution value="2" recordCount="0"/>
									<ScoreDistribution value="3" recordCount="5"/>
									<ScoreDistribution value="4" recordCount="0"/>
									<ScoreDistribution value="5" recordCount="0"/>
									<ScoreDistribution value="6" recordCount="0"/>
									<ScoreDistribution value="7" recordCount="0"/>
								</Node>
							</Node>
							<Node score="0" recordCount="4">
								<SimplePredicate field="double(2_xCenter)" operator="lessOrEqual" value="55.98539352416992"/>
								<ScoreDistribution value="0" recordCount="3"/>
								<ScoreDistribution value="1" recordCount="0"/>
								<ScoreDistribution value="2" recordCount="0"/>
								<ScoreDistribution value="3" recordCount="1"/>
								<ScoreDistribution value="4" recordCount="0"/>
								<ScoreDistribution value="5" recordCount="0"/>
								<ScoreDistribution value="6" recordCount="0"/>
								<ScoreDistribution value="7" recordCount="0"/>
							</Node>
							<Node score="0" recordCount="10">
								<True/>
								<ScoreDistribution value="0" recordCount="10"/>
								<ScoreDistribution value="1" recordCount="0"/>
								<ScoreDistribution value="2" recordCount="0"/>
								<ScoreDistribution value="3" recordCount="0"/>
								<ScoreDistribution value="4" recordCount="0"/>
								<ScoreDistribution value="5" recordCount="0"/>
								<ScoreDistribution value="6" recordCount="0"/>
								<ScoreDistribution value="7" recordCount="0"/>
							</Node>
						</Node>
						<Node>
							<SimplePredicate field="double(xVelocity)" operator="lessOrEqual" value="5.320595026016235"/>
							<Node>
								<SimplePredicate field="double(xVelocity)" operator="lessOrEqual" value="-1.8373599648475647"/>
								<Node score="0" recordCount="13">
									<SimplePredicate field="double(latVelocity)" operator="lessOrEqual" value="-0.27048999071121216"/>
									<ScoreDistribution value="0" recordCount="9"/>
									<ScoreDistribution value="1" recordCount="0"/>
									<ScoreDistribution value="2" recordCount="0"/>
									<ScoreDistribution value="3" recordCount="4"/>
									<ScoreDistribution value="4" recordCount="0"/>
									<ScoreDistribution value="5" recordCount="0"/>
									<ScoreDistribution value="6" recordCount="0"/>
									<ScoreDistribution value="7" recordCount="0"/>
								</Node>
								<Node score="3" recordCount="25">
									<True/>
									<ScoreDistribution value="0" recordCount="1"/>
									<ScoreDistribution value="1" recordCount="1"/>
									<ScoreDistribution value="2" recordCount="0"/>
									<ScoreDistribution value="3" recordCount="17"/>
									<ScoreDistribution value="4" recordCount="0"/>
									<ScoreDistribution value="5" recordCount="0"/>
									<ScoreDistribution value="6" recordCount="6"/>
									<ScoreDistribution value="7" recordCount="0"/>
								</Node>
							</Node>
							<Node score="3" recordCount="15">
								<SimplePredicate field="double(lonAcceleration)" operator="lessOrEqual" value="0.03206000104546547"/>
								<ScoreDistribution value="0" recordCount="0"/>
								<ScoreDistribution value="1" recordCount="1"/>
								<ScoreDistribution value="2" recordCount="0"/>
								<ScoreDistribution value="3" recordCount="8"/>
								<ScoreDistribution value="4" recordCount="0"/>
								<ScoreDistribution value="5" recordCount="0"/>
								<ScoreDistribution value="6" recordCount="6"/>
								<ScoreDistribution value="7" recordCount="0"/>
							</Node>
							<Node score="3" recordCount="341">
								<True/>
								<ScoreDistribution value="0" recordCount="18"/>
								<ScoreDistribution value="1" recordCount="2"/>
								<ScoreDistribution value="2" recordCount="0"/>
								<ScoreDistribution value="3" recordCount="306"/>
								<ScoreDistribution value="4" recordCount="0"/>
								<ScoreDistribution value="5" recordCount="0"/>
								<ScoreDistribution value="6" recordCount="15"/>
								<ScoreDistribution value="7" recordCount="0"/>
							</Node>
						</Node>
						<Node>
							<SimplePredicate field="double(yAcceleration)" operator="lessOrEqual" value="1.9032949805259705"/>
							<Node score="0" recordCount="5">
								<SimplePredicate field="double(1_yCenter)" operator="lessOrEqual" value="-24.112455368041992"/>
								<ScoreDistribution value="0" recordCount="5"/>
								<ScoreDistribution value="1" recordCount="0"/>
								<ScoreDistribution value="2" recordCount="0"/>
								<ScoreDistribution value="3" recordCount="0"/>
								<ScoreDistribution value="4" recordCount="0"/>
								<ScoreDistribution value="5" recordCount="0"/>
								<ScoreDistribution value="6" recordCount="0"/>
								<ScoreDistribution value="7" recordCount="0"/>
							</Node>
							<Node score="0" recordCount="4">
								<True/>
								<ScoreDistribution value="0" recordCount="3"/>
								<ScoreDistribution value="1" recordCount="0"/>
								<ScoreDistribution value="2" recordCount="0"/>
								<ScoreDistribution value="3" recordCount="1"/>
								<ScoreDistribution value="4" recordCount="0"/>
								<ScoreDistribution value="5" recordCount="0"/>
								<ScoreDistribution value="6" recordCount="0"/>
								<ScoreDistribution value="7" recordCount="0"/>
							</Node>
						</Node>
						<Node score="3" recordCount="11">
							<SimplePredicate field="double(2_yAcceleration)" operator="lessOrEqual" value="0.5272549986839294"/>
							<ScoreDistribution value="0" recordCount="0"/>
							<ScoreDistribution value="1" recordCount="0"/>
							<ScoreDistribution value="2" recordCount="0"/>
							<ScoreDistribution value="3" recordCount="11"/>
							<ScoreDistribution value="4" recordCount="0"/>
							<ScoreDistribution value="5" recordCount="0"/>
							<ScoreDistribution value="6" recordCount="0"/>
							<ScoreDistribution value="7" recordCount="0"/>
						</Node>
						<Node score="0" recordCount="4">
							<True/>
							<ScoreDistribution value="0" recordCount="3"/>
							<ScoreDistribution value="1" recordCount="0"/>
							<ScoreDistribution value="2" recordCount="0"/>
							<ScoreDistribution value="3" recordCount="1"/>
							<ScoreDistribution value="4" recordCount="0"/>
							<ScoreDistribution value="5" recordCount="0"/>
							<ScoreDistribution value="6" recordCount="0"/>
							<ScoreDistribution value="7" recordCount="0"/>
						</Node>
					</Node>
					<Node>
						<SimplePredicate field="double(lonVelocity)" operator="lessOrEqual" value="3.9626249074935913"/>
						<Node>
							<SimplePredicate field="double(xCenter)" operator="lessOrEqual" value="50.72873497009277"/>
							<Node>
								<SimplePredicate field="double(2_distance)" operator="lessOrEqual" value="6.735562637913972E-4"/>
								<Node score="3" recordCount="27">
									<SimplePredicate field="double(2_yCenter)" operator="lessOrEqual" value="-26.731064796447754"/>
									<ScoreDistribution value="0" recordCount="4"/>
									<ScoreDistribution value="1" recordCount="0"/>
									<ScoreDistribution value="2" recordCount="0"/>
									<ScoreDistribution value="3" recordCount="23"/>
									<ScoreDistribution value="4" recordCount="0"/>
									<ScoreDistribution value="5" recordCount="0"/>
									<ScoreDistribution value="6" recordCount="0"/>
									<ScoreDistribution value="7" recordCount="0"/>
								</Node>
								<Node score="0" recordCount="13">
									<True/>
									<ScoreDistribution value="0" recordCount="8"/>
									<ScoreDistribution value="1" recordCount="0"/>
									<ScoreDistribution value="2" recordCount="0"/>
									<ScoreDistribution value="3" recordCount="5"/>
									<ScoreDistribution value="4" recordCount="0"/>
									<ScoreDistribution value="5" recordCount="0"/>
									<ScoreDistribution value="6" recordCount="0"/>
									<ScoreDistribution value="7" recordCount="0"/>
								</Node>
							</Node>
							<Node score="0" recordCount="4">
								<SimplePredicate field="double(heading)" operator="lessOrEqual" value="34.299354553222656"/>
								<ScoreDistribution value="0" recordCount="2"/>
								<ScoreDistribution value="1" recordCount="0"/>
								<ScoreDistribution value="2" recordCount="0"/>
								<ScoreDistribution value="3" recordCount="2"/>
								<ScoreDistribution value="4" recordCount="0"/>
								<ScoreDistribution value="5" recordCount="0"/>
								<ScoreDistribution value="6" recordCount="0"/>
								<ScoreDistribution value="7" recordCount="0"/>
							</Node>
							<Node score="3" recordCount="90">
								<True/>
								<ScoreDistribution value="0" recordCount="3"/>
								<ScoreDistribution value="1" recordCount="1"/>
								<ScoreDistribution value="2" recordCount="0"/>
								<ScoreDistribution value="3" recordCount="85"/>
								<ScoreDistribution value="4" recordCount="0"/>
								<ScoreDistribution value="5" recordCount="0"/>
								<ScoreDistribution value="6" recordCount="1"/>
								<ScoreDistribution value="7" recordCount="0"/>
							</Node>
						</Node>
						<Node>
							<SimplePredicate field="double(1_xCenter)" operator="lessOrEqual" value="56.615854263305664"/>
							<Node score="0" recordCount="17">
								<SimplePredicate field="double(lonAcceleration)" operator="lessOrEqual" value="0.5476049929857254"/>
								<ScoreDistribution value="0" recordCount="14"/>
								<ScoreDistribution value="1" recordCount="1"/>
								<ScoreDistribution value="2" recordCount="0"/>
								<ScoreDistribution value="3" recordCount="2"/>
								<ScoreDistribution value="4" recordCount="0"/>
								<ScoreDistribution value="5" recordCount="0"/>
								<ScoreDistribution value="6" recordCount="0"/>
								<ScoreDistribution value="7" recordCount="0"/>
							</Node>
							<Node score="3" recordCount="5">
								<True/>
								<ScoreDistribution value="0" recordCount="1"/>
								<ScoreDistribution value="1" recordCount="1"/>
								<ScoreDistribution value="2" recordCount="0"/>
								<ScoreDistribution value="3" recordCount="3"/>
								<ScoreDistribution value="4" recordCount="0"/>
								<ScoreDistribution value="5" recordCount="0"/>
								<ScoreDistribution value="6" recordCount="0"/>
								<ScoreDistribution value="7" recordCount="0"/>
							</Node>
						</Node>
						<Node score="0" recordCount="13">
							<SimplePredicate field="double(xVelocity)" operator="lessOrEqual" value="-1.4608150124549866"/>
							<ScoreDistribution value="0" recordCount="6"/>
							<ScoreDistribution value="1" recordCount="1"/>
							<ScoreDistribution value="2" recordCount="0"/>
							<ScoreDistribution value="3" recordCount="4"/>
							<ScoreDistribution value="4" recordCount="0"/>
							<ScoreDistribution value="5" recordCount="0"/>
							<ScoreDistribution value="6" recordCount="2"/>
							<ScoreDistribution value="7" recordCount="0"/>
						</Node>
						<Node score="3" recordCount="35">
							<True/>
							<ScoreDistribution value="0" recordCount="4"/>
							<ScoreDistribution value="1" recordCount="0"/>
							<ScoreDistribution value="2" recordCount="0"/>
							<ScoreDistribution value="3" recordCount="30"/>
							<ScoreDistribution value="4" recordCount="0"/>
							<ScoreDistribution value="5" recordCount="0"/>
							<ScoreDistribution value="6" recordCount="1"/>
							<ScoreDistribution value="7" recordCount="0"/>
						</Node>
					</Node>
					<Node>
						<SimplePredicate field="double(3_distance)" operator="lessOrEqual" value="0.002328339498490095"/>
						<Node>
							<SimplePredicate field="double(3_yAcceleration)" operator="lessOrEqual" value="0.8661800026893616"/>
							<Node score="0" recordCount="56">
								<SimplePredicate field="double(latVelocity)" operator="lessOrEqual" value="0.5369599759578705"/>
								<ScoreDistribution value="0" recordCount="53"/>
								<ScoreDistribution value="1" recordCount="2"/>
								<ScoreDistribution value="2" recordCount="0"/>
								<ScoreDistribution value="3" recordCount="1"/>
								<ScoreDistribution value="4" recordCount="0"/>
								<ScoreDistribution value="5" recordCount="0"/>
								<ScoreDistribution value="6" recordCount="0"/>
								<ScoreDistribution value="7" recordCount="0"/>
							</Node>
							<Node score="0" recordCount="4">
								<True/>
								<ScoreDistribution value="0" recordCount="2"/>
								<ScoreDistribution value="1" recordCount="0"/>
								<ScoreDistribution value="2" recordCount="0"/>
								<ScoreDistribution value="3" recordCount="2"/>
								<ScoreDistribution value="4" recordCount="0"/>
								<ScoreDistribution value="5" recordCount="0"/>
								<ScoreDistribution value="6" recordCount="0"/>
								<ScoreDistribution value="7" recordCount="0"/>
							</Node>
						</Node>
						<Node score="3" recordCount="4">
							<True/>
							<ScoreDistribution value="0" recordCount="1"/>
							<ScoreDistribution value="1" recordCount="1"/>
							<ScoreDistribution value="2" recordCount="0"/>
							<ScoreDistribution value="3" recordCount="2"/>
							<ScoreDistribution value="4" recordCount="0"/>
							<ScoreDistribution value="5" recordCount="0"/>
							<ScoreDistribution value="6" recordCount="0"/>
							<ScoreDistribution value="7" recordCount="0"/>
						</Node>
					</Node>
					<Node>
						<SimplePredicate field="double(latVelocity)" operator="lessOrEqual" value="0.10015000030398369"/>
						<Node score="0" recordCount="22">
							<SimplePredicate field="double(3_xCenter)" operator="lessOrEqual" value="60.13747596740723"/>
							<ScoreDistribution value="0" recordCount="10"/>
							<ScoreDistribution value="1" recordCount="3"/>
							<ScoreDistribution value="2" recordCount="0"/>
							<ScoreDistribution value="3" recordCount="9"/>
							<ScoreDistribution value="4" recordCount="0"/>
							<ScoreDistribution value="5" recordCount="0"/>
							<ScoreDistribution value="6" recordCount="0"/>
							<ScoreDistribution value="7" recordCount="0"/>
						</Node>
						<Node score="0" recordCount="14">
							<True/>
							<ScoreDistribution value="0" recordCount="13"/>
							<ScoreDistribution value="1" recordCount="0"/>
							<ScoreDistribution value="2" recordCount="0"/>
							<ScoreDistribution value="3" recordCount="1"/>
							<ScoreDistribution value="4" recordCount="0"/>
							<ScoreDistribution value="5" recordCount="0"/>
							<ScoreDistribution value="6" recordCount="0"/>
							<ScoreDistribution value="7" recordCount="0"/>
						</Node>
					</Node>
					<Node score="3" recordCount="11">
						<SimplePredicate field="double(2_yVelocity)" operator="lessOrEqual" value="0.3043750114738941"/>
						<ScoreDistribution value="0" recordCount="0"/>
						<ScoreDistribution value="1" recordCount="0"/>
						<ScoreDistribution value="2" recordCount="0"/>
						<ScoreDistribution value="3" recordCount="11"/>
						<ScoreDistribution value="4" recordCount="0"/>
						<ScoreDistribution value="5" recordCount="0"/>
						<ScoreDistribution value="6" recordCount="0"/>
						<ScoreDistribution value="7" recordCount="0"/>
					</Node>
					<Node score="3" recordCount="4">
						<True/>
						<ScoreDistribution value="0" recordCount="1"/>
						<ScoreDistribution value="1" recordCount="1"/>
						<ScoreDistribution value="2" recordCount="0"/>
						<ScoreDistribution value="3" recordCount="2"/>
						<ScoreDistribution value="4" recordCount="0"/>
						<ScoreDistribution value="5" recordCount="0"/>
						<ScoreDistribution value="6" recordCount="0"/>
						<ScoreDistribution value="7" recordCount="0"/>
					</Node>
				</Node>
				<Node>
					<SimplePredicate field="double(yAcceleration)" operator="lessOrEqual" value="2.384005069732666"/>
					<Node score="3" recordCount="5">
						<SimplePredicate field="double(lonVelocity)" operator="lessOrEqual" value="3.297855019569397"/>
						<ScoreDistribution value="0" recordCount="2"/>
						<ScoreDistribution value="1" recordCount="0"/>
						<ScoreDistribution value="2" recordCount="0"/>
						<ScoreDistribution value="3" recordCount="3"/>
						<ScoreDistribution value="4" recordCount="0"/>
						<ScoreDistribution value="5" recordCount="0"/>
						<ScoreDistribution value="6" recordCount="0"/>
						<ScoreDistribution value="7" recordCount="0"/>
					</Node>
					<Node>
						<SimplePredicate field="double(lonAcceleration)" operator="lessOrEqual" value="0.13078000023961067"/>
						<Node score="0" recordCount="4">
							<SimplePredicate field="double(1_xAcceleration)" operator="lessOrEqual" value="0.015874999575316906"/>
							<ScoreDistribution value="0" recordCount="4"/>
							<ScoreDistribution value="1" recordCount="0"/>
							<ScoreDistribution value="2" recordCount="0"/>
							<ScoreDistribution value="3" recordCount="0"/>
							<ScoreDistribution value="4" recordCount="0"/>
							<ScoreDistribution value="5" recordCount="0"/>
							<ScoreDistribution value="6" recordCount="0"/>
							<ScoreDistribution value="7" recordCount="0"/>
						</Node>
						<Node score="3" recordCount="4">
							<True/>
							<ScoreDistribution value="0" recordCount="1"/>
							<ScoreDistribution value="1" recordCount="1"/>
							<ScoreDistribution value="2" recordCount="0"/>
							<ScoreDistribution value="3" recordCount="2"/>
							<ScoreDistribution value="4" recordCount="0"/>
							<ScoreDistribution value="5" recordCount="0"/>
							<ScoreDistribution value="6" recordCount="0"/>
							<ScoreDistribution value="7" recordCount="0"/>
						</Node>
					</Node>
					<Node score="0" recordCount="51">
						<True/>
						<ScoreDistribution value="0" recordCount="51"/>
						<ScoreDistribution value="1" recordCount="0"/>
						<ScoreDistribution value="2" recordCount="0"/>
						<ScoreDistribution value="3" recordCount="0"/>
						<ScoreDistribution value="4" recordCount="0"/>
						<ScoreDistribution value="5" recordCount="0"/>
						<ScoreDistribution value="6" recordCount="0"/>
						<ScoreDistribution value="7" recordCount="0"/>
					</Node>
				</Node>
				<Node score="3" recordCount="5">
					<True/>
					<ScoreDistribution value="0" recordCount="0"/>
					<ScoreDistribution value="1" recordCount="0"/>
					<ScoreDistribution value="2" recordCount="0"/>
					<ScoreDistribution value="3" recordCount="5"/>
					<ScoreDistribution value="4" recordCount="0"/>
					<ScoreDistribution value="5" recordCount="0"/>
					<ScoreDistribution value="6" recordCount="0"/>
					<ScoreDistribution value="7" recordCount="0"/>
				</Node>
			</Node>
			<Node>
				<SimplePredicate field="double(lonAcceleration)" operator="lessOrEqual" value="0.11899499967694283"/>
				<Node>
					<SimplePredicate field="double(trackLifetime)" operator="lessOrEqual" value="37.5"/>
					<Node>
						<SimplePredicate field="double(lonVelocity)" operator="lessOrEqual" value="3.944635033607483"/>
						<Node>
							<SimplePredicate field="double(2_distance)" operator="lessOrEqual" value="0.0020571189234033227"/>
							<Node>
								<SimplePredicate field="double(lonAcceleration)" operator="lessOrEqual" value="0.08659499883651733"/>
								<Node score="1" recordCount="26">
									<SimplePredicate field="double(trackLifetime)" operator="lessOrEqual" value="12.5"/>
									<ScoreDistribution value="0" recordCount="5"/>
									<ScoreDistribution value="1" recordCount="21"/>
									<ScoreDistribution value="2" recordCount="0"/>
									<ScoreDistribution value="3" recordCount="0"/>
									<ScoreDistribution value="4" recordCount="0"/>
									<ScoreDistribution value="5" recordCount="0"/>
									<ScoreDistribution value="6" recordCount="0"/>
									<ScoreDistribution value="7" recordCount="0"/>
								</Node>
								<Node score="0" recordCount="28">
									<True/>
									<ScoreDistribution value="0" recordCount="16"/>
									<ScoreDistribution value="1" recordCount="8"/>
									<ScoreDistribution value="2" recordCount="2"/>
									<ScoreDistribution value="3" recordCount="2"/>
									<ScoreDistribution value="4" recordCount="0"/>
									<ScoreDistribution value="5" recordCount="0"/>
									<ScoreDistribution value="6" recordCount="0"/>
									<ScoreDistribution value="7" recordCount="0"/>
								</Node>
							</Node>
							<Node score="0" recordCount="14">
								<SimplePredicate field="double(latVelocity)" operator="lessOrEqual" value="0.027065000496804714"/>
								<ScoreDistribution value="0" recordCount="14"/>
								<ScoreDistribution value="1" recordCount="0"/>
								<ScoreDistribution value="2" recordCount="0"/>
								<ScoreDistribution value="3" recordCount="0"/>
								<ScoreDistribution value="4" recordCount="0"/>
								<ScoreDistribution value="5" recordCount="0"/>
								<ScoreDistribution value="6" recordCount="0"/>
								<ScoreDistribution value="7" recordCount="0"/>
							</Node>
							<Node score="0" recordCount="4">
								<True/>
								<ScoreDistribution value="0" recordCount="2"/>
								<ScoreDistribution value="1" recordCount="2"/>
								<ScoreDistribution value="2" recordCount="0"/>
								<ScoreDistribution value="3" recordCount="0"/>
								<ScoreDistribution value="4" recordCount="0"/>
								<ScoreDistribution value="5" recordCount="0"/>
								<ScoreDistribution value="6" recordCount="0"/>
								<ScoreDistribution value="7" recordCount="0"/>
							</Node>
						</Node>
						<Node score="1" recordCount="19">
							<SimplePredicate field="double(latAcceleration)" operator="lessOrEqual" value="0.24268000572919846"/>
							<ScoreDistribution value="0" recordCount="0"/>
							<ScoreDistribution value="1" recordCount="19"/>
							<ScoreDistribution value="2" recordCount="0"/>
							<ScoreDistribution value="3" recordCount="0"/>
							<ScoreDistribution value="4" recordCount="0"/>
							<ScoreDistribution value="5" recordCount="0"/>
							<ScoreDistribution value="6" recordCount="0"/>
							<ScoreDistribution value="7" recordCount="0"/>
						</Node>
						<Node score="1" recordCount="4">
							<True/>
							<ScoreDistribution value="0" recordCount="0"/>
							<ScoreDistribution value="1" recordCount="2"/>
							<ScoreDistribution value="2" recordCount="2"/>
							<ScoreDistribution value="3" recordCount="0"/>
							<ScoreDistribution value="4" recordCount="0"/>
							<ScoreDistribution value="5" recordCount="0"/>
							<ScoreDistribution value="6" recordCount="0"/>
							<ScoreDistribution value="7" recordCount="0"/>
						</Node>
					</Node>
					<Node>
						<SimplePredicate field="double(trackLifetime)" operator="lessOrEqual" value="12.5"/>
						<Node>
							<SimplePredicate field="double(lonAcceleration)" operator="lessOrEqual" value="0.10698500275611877"/>
							<Node score="1" recordCount="127">
								<SimplePredicate field="double(2_xAcceleration)" operator="lessOrEqual" value="0.5628799796104431"/>
								<ScoreDistribution value="0" recordCount="1"/>
								<ScoreDistribution value="1" recordCount="126"/>
								<ScoreDistribution value="2" recordCount="0"/>
								<ScoreDistribution value="3" recordCount="0"/>
								<ScoreDistribution value="4" recordCount="0"/>
								<ScoreDistribution value="5" recordCount="0"/>
								<ScoreDistribution value="6" recordCount="0"/>
								<ScoreDistribution value="7" recordCount="0"/>
							</Node>
							<Node score="1" recordCount="4">
								<True/>
								<ScoreDistribution value="0" recordCount="1"/>
								<ScoreDistribution value="1" recordCount="3"/>
								<ScoreDistribution value="2" recordCount="0"/>
								<ScoreDistribution value="3" recordCount="0"/>
								<ScoreDistribution value="4" recordCount="0"/>
								<ScoreDistribution value="5" recordCount="0"/>
								<ScoreDistribution value="6" recordCount="0"/>
								<ScoreDistribution value="7" recordCount="0"/>
							</Node>
						</Node>
						<Node score="0" recordCount="6">
							<SimplePredicate field="double(lonAcceleration)" operator="lessOrEqual" value="0.11350999772548676"/>
							<ScoreDistribution value="0" recordCount="5"/>
							<ScoreDistribution value="1" recordCount="1"/>
							<ScoreDistribution value="2" recordCount="0"/>
							<ScoreDistribution value="3" recordCount="0"/>
							<ScoreDistribution value="4" recordCount="0"/>
							<ScoreDistribution value="5" recordCount="0"/>
							<ScoreDistribution value="6" recordCount="0"/>
							<ScoreDistribution value="7" recordCount="0"/>
						</Node>
						<Node score="1" recordCount="8">
							<True/>
							<ScoreDistribution value="0" recordCount="0"/>
							<ScoreDistribution value="1" recordCount="8"/>
							<ScoreDistribution value="2" recordCount="0"/>
							<ScoreDistribution value="3" recordCount="0"/>
							<ScoreDistribution value="4" recordCount="0"/>
							<ScoreDistribution value="5" recordCount="0"/>
							<ScoreDistribution value="6" recordCount="0"/>
							<ScoreDistribution value="7" recordCount="0"/>
						</Node>
					</Node>
					<Node>
						<SimplePredicate field="double(2_xCenter)" operator="lessOrEqual" value="21.508790016174316"/>
						<Node score="1" recordCount="4">
							<SimplePredicate field="double(xAcceleration)" operator="lessOrEqual" value="0.06846500188112259"/>
							<ScoreDistribution value="0" recordCount="1"/>
							<ScoreDistribution value="1" recordCount="3"/>
							<ScoreDistribution value="2" recordCount="0"/>
							<ScoreDistribution value="3" recordCount="0"/>
							<ScoreDistribution value="4" recordCount="0"/>
							<ScoreDistribution value="5" recordCount="0"/>
							<ScoreDistribution value="6" recordCount="0"/>
							<ScoreDistribution value="7" recordCount="0"/>
						</Node>
						<Node score="0" recordCount="7">
							<True/>
							<ScoreDistribution value="0" recordCount="7"/>
							<ScoreDistribution value="1" recordCount="0"/>
							<ScoreDistribution value="2" recordCount="0"/>
							<ScoreDistribution value="3" recordCount="0"/>
							<ScoreDistribution value="4" recordCount="0"/>
							<ScoreDistribution value="5" recordCount="0"/>
							<ScoreDistribution value="6" recordCount="0"/>
							<ScoreDistribution value="7" recordCount="0"/>
						</Node>
					</Node>
					<Node score="1" recordCount="223">
						<SimplePredicate field="double(latAcceleration)" operator="lessOrEqual" value="0.9045949876308441"/>
						<ScoreDistribution value="0" recordCount="46"/>
						<ScoreDistribution value="1" recordCount="177"/>
						<ScoreDistribution value="2" recordCount="0"/>
						<ScoreDistribution value="3" recordCount="0"/>
						<ScoreDistribution value="4" recordCount="0"/>
						<ScoreDistribution value="5" recordCount="0"/>
						<ScoreDistribution value="6" recordCount="0"/>
						<ScoreDistribution value="7" recordCount="0"/>
					</Node>
					<Node score="0" recordCount="4">
						<True/>
						<ScoreDistribution value="0" recordCount="2"/>
						<ScoreDistribution value="1" recordCount="0"/>
						<ScoreDistribution value="2" recordCount="2"/>
						<ScoreDistribution value="3" recordCount="0"/>
						<ScoreDistribution value="4" recordCount="0"/>
						<ScoreDistribution value="5" recordCount="0"/>
						<ScoreDistribution value="6" recordCount="0"/>
						<ScoreDistribution value="7" recordCount="0"/>
					</Node>
				</Node>
				<Node>
					<SimplePredicate field="double(latAcceleration)" operator="lessOrEqual" value="0.8842799961566925"/>
					<Node>
						<SimplePredicate field="double(lonAcceleration)" operator="lessOrEqual" value="0.0426000002771616"/>
						<Node>
							<SimplePredicate field="double(lonVelocity)" operator="lessOrEqual" value="7.900000200606883E-4"/>
							<Node score="1" recordCount="4">
								<SimplePredicate field="double(1_distance)" operator="lessOrEqual" value="2.4260846203105757E-6"/>
								<ScoreDistribution value="0" recordCount="1"/>
								<ScoreDistribution value="1" recordCount="3"/>
								<ScoreDistribution value="2" recordCount="0"/>
								<ScoreDistribution value="3" recordCount="0"/>
								<ScoreDistribution value="4" recordCount="0"/>
								<ScoreDistribution value="5" recordCount="0"/>
								<ScoreDistribution value="6" recordCount="0"/>
								<ScoreDistribution value="7" recordCount="0"/>
							</Node>
							<Node score="0" recordCount="140">
								<True/>
								<ScoreDistribution value="0" recordCount="129"/>
								<ScoreDistribution value="1" recordCount="11"/>
								<ScoreDistribution value="2" recordCount="0"/>
								<ScoreDistribution value="3" recordCount="0"/>
								<ScoreDistribution value="4" recordCount="0"/>
								<ScoreDistribution value="5" recordCount="0"/>
								<ScoreDistribution value="6" recordCount="0"/>
								<ScoreDistribution value="7" recordCount="0"/>
							</Node>
						</Node>
						<Node score="1" recordCount="118">
							<SimplePredicate field="double(lonVelocity)" operator="lessOrEqual" value="0.14378999918699265"/>
							<ScoreDistribution value="0" recordCount="45"/>
							<ScoreDistribution value="1" recordCount="73"/>
							<ScoreDistribution value="2" recordCount="0"/>
							<ScoreDistribution value="3" recordCount="0"/>
							<ScoreDistribution value="4" recordCount="0"/>
							<ScoreDistribution value="5" recordCount="0"/>
							<ScoreDistribution value="6" recordCount="0"/>
							<ScoreDistribution value="7" recordCount="0"/>
						</Node>
						<Node score="0" recordCount="1204">
							<True/>
							<ScoreDistribution value="0" recordCount="729"/>
							<ScoreDistribution value="1" recordCount="456"/>
							<ScoreDistribution value="2" recordCount="6"/>
							<ScoreDistribution value="3" recordCount="7"/>
							<ScoreDistribution value="4" recordCount="0"/>
							<ScoreDistribution value="5" recordCount="5"/>
							<ScoreDistribution value="6" recordCount="1"/>
							<ScoreDistribution value="7" recordCount="0"/>
						</Node>
					</Node>
					<Node>
						<SimplePredicate field="double(xAcceleration)" operator="lessOrEqual" value="0.4454699903726578"/>
						<Node score="0" recordCount="995">
							<SimplePredicate field="double(yVelocity)" operator="lessOrEqual" value="-0.006400000071153045"/>
							<ScoreDistribution value="0" recordCount="689"/>
							<ScoreDistribution value="1" recordCount="287"/>
							<ScoreDistribution value="2" recordCount="10"/>
							<ScoreDistribution value="3" recordCount="7"/>
							<ScoreDistribution value="4" recordCount="1"/>
							<ScoreDistribution value="5" recordCount="0"/>
							<ScoreDistribution value="6" recordCount="1"/>
							<ScoreDistribution value="7" recordCount="0"/>
						</Node>
						<Node score="0" recordCount="1155">
							<True/>
							<ScoreDistribution value="0" recordCount="927"/>
							<ScoreDistribution value="1" recordCount="216"/>
							<ScoreDistribution value="2" recordCount="3"/>
							<ScoreDistribution value="3" recordCount="8"/>
							<ScoreDistribution value="4" recordCount="0"/>
							<ScoreDistribution value="5" recordCount="0"/>
							<ScoreDistribution value="6" recordCount="1"/>
							<ScoreDistribution value="7" recordCount="0"/>
						</Node>
					</Node>
					<Node score="3" recordCount="30">
						<SimplePredicate field="double(latAcceleration)" operator="lessOrEqual" value="-0.7128400206565857"/>
						<ScoreDistribution value="0" recordCount="5"/>
						<ScoreDistribution value="1" recordCount="1"/>
						<ScoreDistribution value="2" recordCount="0"/>
						<ScoreDistribution value="3" recordCount="23"/>
						<ScoreDistribution value="4" recordCount="0"/>
						<ScoreDistribution value="5" recordCount="0"/>
						<ScoreDistribution value="6" recordCount="1"/>
						<ScoreDistribution value="7" recordCount="0"/>
					</Node>
					<Node score="0" recordCount="18">
						<True/>
						<ScoreDistribution value="0" recordCount="9"/>
						<ScoreDistribution value="1" recordCount="7"/>
						<ScoreDistribution value="2" recordCount="1"/>
						<ScoreDistribution value="3" recordCount="1"/>
						<ScoreDistribution value="4" recordCount="0"/>
						<ScoreDistribution value="5" recordCount="0"/>
						<ScoreDistribution value="6" recordCount="0"/>
						<ScoreDistribution value="7" recordCount="0"/>
					</Node>
				</Node>
				<Node>
					<SimplePredicate field="double(latVelocity)" operator="lessOrEqual" value="0.21547500044107437"/>
					<Node>
						<SimplePredicate field="double(latAcceleration)" operator="lessOrEqual" value="1.4225849509239197"/>
						<Node score="0" recordCount="17">
							<SimplePredicate field="double(yCenter)" operator="lessOrEqual" value="-29.508164405822754"/>
							<ScoreDistribution value="0" recordCount="8"/>
							<ScoreDistribution value="1" recordCount="6"/>
							<ScoreDistribution value="2" recordCount="3"/>
							<ScoreDistribution value="3" recordCount="0"/>
							<ScoreDistribution value="4" recordCount="0"/>
							<ScoreDistribution value="5" recordCount="0"/>
							<ScoreDistribution value="6" recordCount="0"/>
							<ScoreDistribution value="7" recordCount="0"/>
						</Node>
						<Node score="2" recordCount="45">
							<True/>
							<ScoreDistribution value="0" recordCount="7"/>
							<ScoreDistribution value="1" recordCount="5"/>
							<ScoreDistribution value="2" recordCount="33"/>
							<ScoreDistribution value="3" recordCount="0"/>
							<ScoreDistribution value="4" recordCount="0"/>
							<ScoreDistribution value="5" recordCount="0"/>
							<ScoreDistribution value="6" recordCount="0"/>
							<ScoreDistribution value="7" recordCount="0"/>
						</Node>
					</Node>
					<Node score="2" recordCount="16">
						<SimplePredicate field="double(heading)" operator="lessOrEqual" value="162.0053253173828"/>
						<ScoreDistribution value="0" recordCount="4"/>
						<ScoreDistribution value="1" recordCount="0"/>
						<ScoreDistribution value="2" recordCount="11"/>
						<ScoreDistribution value="3" recordCount="0"/>
						<ScoreDistribution value="4" recordCount="1"/>
						<ScoreDistribution value="5" recordCount="0"/>
						<ScoreDistribution value="6" recordCount="0"/>
						<ScoreDistribution value="7" recordCount="0"/>
					</Node>
					<Node score="2" recordCount="68">
						<True/>
						<ScoreDistribution value="0" recordCount="1"/>
						<ScoreDistribution value="1" recordCount="0"/>
						<ScoreDistribution value="2" recordCount="67"/>
						<ScoreDistribution value="3" recordCount="0"/>
						<ScoreDistribution value="4" recordCount="0"/>
						<ScoreDistribution value="5" recordCount="0"/>
						<ScoreDistribution value="6" recordCount="0"/>
						<ScoreDistribution value="7" recordCount="0"/>
					</Node>
				</Node>
				<Node>
					<SimplePredicate field="double(xCenter)" operator="lessOrEqual" value="55.3859748840332"/>
					<Node score="2" recordCount="7">
						<SimplePredicate field="double(xAcceleration)" operator="lessOrEqual" value="-0.8557649850845337"/>
						<ScoreDistribution value="0" recordCount="0"/>
						<ScoreDistribution value="1" recordCount="0"/>
						<ScoreDistribution value="2" recordCount="7"/>
						<ScoreDistribution value="3" recordCount="0"/>
						<ScoreDistribution value="4" recordCount="0"/>
						<ScoreDistribution value="5" recordCount="0"/>
						<ScoreDistribution value="6" recordCount="0"/>
						<ScoreDistribution value="7" recordCount="0"/>
					</Node>
					<Node score="0" recordCount="48">
						<True/>
						<ScoreDistribution value="0" recordCount="42"/>
						<ScoreDistribution value="1" recordCount="1"/>
						<ScoreDistribution value="2" recordCount="5"/>
						<ScoreDistribution value="3" recordCount="0"/>
						<ScoreDistribution value="4" recordCount="0"/>
						<ScoreDistribution value="5" recordCount="0"/>
						<ScoreDistribution value="6" recordCount="0"/>
						<ScoreDistribution value="7" recordCount="0"/>
					</Node>
				</Node>
				<Node score="2" recordCount="4">
					<SimplePredicate field="double(yVelocity)" operator="lessOrEqual" value="2.2839399576187134"/>
					<ScoreDistribution value="0" recordCount="1"/>
					<ScoreDistribution value="1" recordCount="0"/>
					<ScoreDistribution value="2" recordCount="3"/>
					<ScoreDistribution value="3" recordCount="0"/>
					<ScoreDistribution value="4" recordCount="0"/>
					<ScoreDistribution value="5" recordCount="0"/>
					<ScoreDistribution value="6" recordCount="0"/>
					<ScoreDistribution value="7" recordCount="0"/>
				</Node>
				<Node score="2" recordCount="12">
					<True/>
					<ScoreDistribution value="0" recordCount="0"/>
					<ScoreDistribution value="1" recordCount="0"/>
					<ScoreDistribution value="2" recordCount="12"/>
					<ScoreDistribution value="3" recordCount="0"/>
					<ScoreDistribution value="4" recordCount="0"/>
					<ScoreDistribution value="5" recordCount="0"/>
					<ScoreDistribution value="6" recordCount="0"/>
					<ScoreDistribution value="7" recordCount="0"/>
				</Node>
			</Node>
			<Node>
				<SimplePredicate field="double(latAcceleration)" operator="lessOrEqual" value="1.0048649907112122"/>
				<Node>
					<SimplePredicate field="double(latAcceleration)" operator="lessOrEqual" value="-0.6466500163078308"/>
					<Node>
						<SimplePredicate field="double(lonVelocity)" operator="lessOrEqual" value="3.3130449056625366"/>
						<Node>
							<SimplePredicate field="double(yVelocity)" operator="lessOrEqual" value="-0.7101700007915497"/>
							<Node score="0" recordCount="45">
								<SimplePredicate field="double(latVelocity)" operator="lessOrEqual" value="-0.02354499977082014"/>
								<ScoreDistribution value="0" recordCount="23"/>
								<ScoreDistribution value="1" recordCount="0"/>
								<ScoreDistribution value="2" recordCount="0"/>
								<ScoreDistribution value="3" recordCount="22"/>
								<ScoreDistribution value="4" recordCount="0"/>
								<ScoreDistribution value="5" recordCount="0"/>
								<ScoreDistribution value="6" recordCount="0"/>
								<ScoreDistribution value="7" recordCount="0"/>
							</Node>
							<Node score="3" recordCount="93">
								<True/>
								<ScoreDistribution value="0" recordCount="20"/>
								<ScoreDistribution value="1" recordCount="0"/>
								<ScoreDistribution value="2" recordCount="0"/>
								<ScoreDistribution value="3" recordCount="73"/>
								<ScoreDistribution value="4" recordCount="0"/>
								<ScoreDistribution value="5" recordCount="0"/>
								<ScoreDistribution value="6" recordCount="0"/>
								<ScoreDistribution value="7" recordCount="0"/>
							</Node>
						</Node>
						<Node score="3" recordCount="25">
							<SimplePredicate field="double(lonVelocity)" operator="lessOrEqual" value="2.278975009918213"/>
							<ScoreDistribution value="0" recordCount="9"/>
							<ScoreDistribution value="1" recordCount="0"/>
							<ScoreDistribution value="2" recordCount="0"/>
							<ScoreDistribution value="3" recordCount="12"/>
							<ScoreDistribution value="4" recordCount="0"/>
							<ScoreDistribution value="5" recordCount="0"/>
							<ScoreDistribution value="6" recordCount="4"/>
							<ScoreDistribution value="7" recordCount="0"/>
						</Node>
						<Node score="0" recordCount="40">
							<True/>
							<ScoreDistribution value="0" recordCount="34"/>
							<ScoreDistribution value="1" recordCount="0"/>
							<ScoreDistribution value="2" recordCount="0"/>
							<ScoreDistribution value="3" recordCount="6"/>
							<ScoreDistribution value="4" recordCount="0"/>
							<ScoreDistribution value="5" recordCount="0"/>
							<ScoreDistribution value="6" recordCount="0"/>
							<ScoreDistribution value="7" recordCount="0"/>
						</Node>
					</Node>
					<Node>
						<SimplePredicate field="double(latVelocity)" operator="lessOrEqual" value="0.21872500330209732"/>
						<Node score="1" recordCount="4">
							<SimplePredicate field="double(2_xCenter)" operator="lessOrEqual" value="29.83533477783203"/>
							<ScoreDistribution value="0" recordCount="1"/>
							<ScoreDistribution value="1" recordCount="3"/>
							<ScoreDistribution value="2" recordCount="0"/>
							<ScoreDistribution value="3" recordCount="0"/>
							<ScoreDistribution value="4" recordCount="0"/>
							<ScoreDistribution value="5" recordCount="0"/>
							<ScoreDistribution value="6" recordCount="0"/>
							<ScoreDistribution value="7" recordCount="0"/>
						</Node>
						<Node score="0" recordCount="209">
							<True/>
							<ScoreDistribution value="0" recordCount="195"/>
							<ScoreDistribution value="1" recordCount="9"/>
							<ScoreDistribution value="2" recordCount="0"/>
							<ScoreDistribution value="3" recordCount="4"/>
							<ScoreDistribution value="4" recordCount="0"/>
							<ScoreDistribution value="5" recordCount="0"/>
							<ScoreDistribution value="6" recordCount="1"/>
							<ScoreDistribution value="7" recordCount="0"/>
						</Node>
					</Node>
					<Node score="3" recordCount="4">
						<SimplePredicate field="double(1_xVelocity)" operator="lessOrEqual" value="-1.4526050090789795"/>
						<ScoreDistribution value="0" recordCount="0"/>
						<ScoreDistribution value="1" recordCount="0"/>
						<ScoreDistribution value="2" recordCount="0"/>
						<ScoreDistribution value="3" recordCount="4"/>
						<ScoreDistribution value="4" recordCount="0"/>
						<ScoreDistribution value="5" recordCount="0"/>
						<ScoreDistribution value="6" recordCount="0"/>
						<ScoreDistribution value="7" recordCount="0"/>
					</Node>
					<Node score="0" recordCount="20">
						<True/>
						<ScoreDistribution value="0" recordCount="16"/>
						<ScoreDistribution value="1" recordCount="0"/>
						<ScoreDistribution value="2" recordCount="0"/>
						<ScoreDistribution value="3" recordCount="4"/>
						<ScoreDistribution value="4" recordCount="0"/>
						<ScoreDistribution value="5" recordCount="0"/>
						<ScoreDistribution value="6" recordCount="0"/>
						<ScoreDistribution value="7" recordCount="0"/>
					</Node>
				</Node>
				<Node>
					<SimplePredicate field="double(lonAcceleration)" operator="lessOrEqual" value="0.2351600006222725"/>
					<Node>
						<SimplePredicate field="double(trackLifetime)" operator="lessOrEqual" value="37.5"/>
						<Node score="0" recordCount="227">
							<SimplePredicate field="double(lonVelocity)" operator="lessOrEqual" value="5.594350099563599"/>
							<ScoreDistribution value="0" recordCount="187"/>
							<ScoreDistribution value="1" recordCount="39"/>
							<ScoreDistribution value="2" recordCount="1"/>
							<ScoreDistribution value="3" recordCount="0"/>
							<ScoreDistribution value="4" recordCount="0"/>
							<ScoreDistribution value="5" recordCount="0"/>
							<ScoreDistribution value="6" recordCount="0"/>
							<ScoreDistribution value="7" recordCount="0"/>
						</Node>
						<Node score="1" recordCount="152">
							<True/>
							<ScoreDistribution value="0" recordCount="67"/>
