digraph Tree {
node [shape=box, style="filled, rounded", color="black", fontname=helvetica] ;
edge [fontname=helvetica] ;
0 [label="length <= 5.913\nentropy = 2.119\nsamples = 633\nvalue = [311, 146, 4, 67, 13, 17, 38, 37]\nclass = slower", fillcolor="#f6d4bc"] ;
1 [label="latVelocity <= -0.321\nentropy = 1.859\nsamples = 105\nvalue = [0, 0, 0, 0, 13, 17, 38, 37]\nclass = turn-right", fillcolor="#fefcff"] ;
0 -> 1 [labeldistance=2.5, labelangle=45, headlabel="True"] ;
2 [label="entropy = 0.0\nsamples = 38\nvalue = [0, 0, 0, 0, 0, 0, 38, 0]\nclass = turn-right", fillcolor="#d739e5"] ;
1 -> 2 ;
3 [label="yCenter <= -93.09\nentropy = 1.434\nsamples = 67\nvalue = [0, 0, 0, 0, 13, 17, 0, 37]\nclass = still", fillcolor="#f5b0c7"] ;
1 -> 3 ;
4 [label="entropy = 0.0\nsamples = 37\nvalue = [0, 0, 0, 0, 0, 0, 0, 37]\nclass = still", fillcolor="#e53972"] ;
3 -> 4 ;
5 [label="latAcceleration <= 0.477\nentropy = 0.987\nsamples = 30\nvalue = [0, 0, 0, 0, 13, 17, 0, 0]\nclass = constant-speed", fillcolor="#d7d0f9"] ;
3 -> 5 ;
6 [label="lonAcceleration <= -0.164\nentropy = 0.31\nsamples = 18\nvalue = [0, 0, 0, 0, 1, 17, 0, 0]\nclass = constant-speed", fillcolor="#6045e7"] ;
5 -> 6 ;
7 [label="entropy = 0.0\nsamples = 1\nvalue = [0, 0, 0, 0, 1, 0, 0, 0]\nclass = turn-left", fillcolor="#399de5"] ;
6 -> 7 ;
8 [label="entropy = 0.0\nsamples = 17\nvalue = [0, 0, 0, 0, 0, 17, 0, 0]\nclass = constant-speed", fillcolor="#5639e5"] ;
6 -> 8 ;
9 [label="entropy = 0.0\nsamples = 12\nvalue = [0, 0, 0, 0, 12, 0, 0, 0]\nclass = turn-left", fillcolor="#399de5"] ;
5 -> 9 ;
10 [label="lonAcceleration <= 0.011\nentropy = 1.394\nsamples = 528\nvalue = [311, 146, 4, 67, 0, 0, 0, 0]\nclass = slower", fillcolor="#f4c9a9"] ;
0 -> 10 [labeldistance=2.5, labelangle=-45, headlabel="False"] ;
11 [label="latAcceleration <= -0.951\nentropy = 1.433\nsamples = 216\nvalue = [48, 128, 2, 38, 0, 0, 0, 0]\nclass = faster", fillcolor="#e5f3a1"] ;
10 -> 11 ;
12 [label="latAcceleration <= -1.775\nentropy = 1.43\nsamples = 68\nvalue = [16, 14, 0, 38, 0, 0, 0, 0]\nclass = easy-turn-right", fillcolor="#abf4dc"] ;
11 -> 12 ;
13 [label="entropy = 0.0\nsamples = 20\nvalue = [0, 0, 0, 20, 0, 0, 0, 0]\nclass = easy-turn-right", fillcolor="#39e5ac"] ;
12 -> 13 ;
14 [label="latVelocity <= -0.49\nentropy = 1.577\nsamples = 48\nvalue = [16, 14, 0, 18, 0, 0, 0, 0]\nclass = easy-turn-right", fillcolor="#f3fdfa"] ;
12 -> 14 ;
15 [label="entropy = 0.672\nsamples = 17\nvalue = [3, 0, 0, 14, 0, 0, 0, 0]\nclass = easy-turn-right", fillcolor="#63ebbe"] ;
14 -> 15 ;
16 [label="entropy = 1.425\nsamples = 31\nvalue = [13, 14, 0, 4, 0, 0, 0, 0]\nclass = faster", fillcolor="#fcfef4"] ;
14 -> 16 ;
17 [label="lonAcceleration <= -0.3\nentropy = 0.852\nsamples = 148\nvalue = [32, 114, 2, 0, 0, 0, 0, 0]\nclass = faster", fillcolor="#d8ed73"] ;
11 -> 17 ;
18 [label="latAcceleration <= 1.483\nentropy = 0.108\nsamples = 70\nvalue = [0, 69, 1, 0, 0, 0, 0, 0]\nclass = faster", fillcolor="#c9e53c"] ;
17 -> 18 ;
19 [label="entropy = 0.0\nsamples = 69\nvalue = [0, 69, 0, 0, 0, 0, 0, 0]\nclass = faster", fillcolor="#c8e539"] ;
18 -> 19 ;
20 [label="entropy = 0.0\nsamples = 1\nvalue = [0, 0, 1, 0, 0, 0, 0, 0]\nclass = easy-turn-left", fillcolor="#47e539"] ;
18 -> 20 ;
21 [label="lonVelocity <= 0.003\nentropy = 1.066\nsamples = 78\nvalue = [32, 45, 1, 0, 0, 0, 0, 0]\nclass = faster", fillcolor="#eff8c7"] ;
17 -> 21 ;
22 [label="entropy = 0.672\nsamples = 17\nvalue = [14, 3, 0, 0, 0, 0, 0, 0]\nclass = slower", fillcolor="#eb9c63"] ;
21 -> 22 ;
23 [label="entropy = 0.988\nsamples = 61\nvalue = [18, 42, 1, 0, 0, 0, 0, 0]\nclass = faster", fillcolor="#e0f090"] ;
21 -> 23 ;
24 [label="latAcceleration <= -1.045\nentropy = 0.81\nsamples = 312\nvalue = [263, 18, 2, 29, 0, 0, 0, 0]\nclass = slower", fillcolor="#ea975b"] ;
10 -> 24 ;
25 [label="xCenter <= 63.396\nentropy = 0.999\nsamples = 60\nvalue = [31, 0, 0, 29, 0, 0, 0, 0]\nclass = slower", fillcolor="#fdf7f2"] ;
24 -> 25 ;
26 [label="entropy = 0.0\nsamples = 13\nvalue = [13, 0, 0, 0, 0, 0, 0, 0]\nclass = slower", fillcolor="#e58139"] ;
25 -> 26 ;
27 [label="latAcceleration <= -1.641\nentropy = 0.96\nsamples = 47\nvalue = [18, 0, 0, 29, 0, 0, 0, 0]\nclass = easy-turn-right", fillcolor="#b4f5e0"] ;
25 -> 27 ;
28 [label="entropy = 0.559\nsamples = 23\nvalue = [3, 0, 0, 20, 0, 0, 0, 0]\nclass = easy-turn-right", fillcolor="#57e9b8"] ;
27 -> 28 ;
29 [label="entropy = 0.954\nsamples = 24\nvalue = [15, 0, 0, 9, 0, 0, 0, 0]\nclass = slower", fillcolor="#f5cdb0"] ;
27 -> 29 ;
30 [label="lonAcceleration <= 0.322\nentropy = 0.437\nsamples = 252\nvalue = [232, 18, 2, 0, 0, 0, 0, 0]\nclass = slower", fillcolor="#e78c4a"] ;
24 -> 30 ;
31 [label="1_yCenter <= -69.263\nentropy = 0.654\nsamples = 95\nvalue = [79, 16, 0, 0, 0, 0, 0, 0]\nclass = slower", fillcolor="#ea9b61"] ;
30 -> 31 ;
32 [label="entropy = 0.0\nsamples = 26\nvalue = [26, 0, 0, 0, 0, 0, 0, 0]\nclass = slower", fillcolor="#e58139"] ;
31 -> 32 ;
33 [label="entropy = 0.781\nsamples = 69\nvalue = [53, 16, 0, 0, 0, 0, 0, 0]\nclass = slower", fillcolor="#eda775"] ;
31 -> 33 ;
34 [label="latVelocity <= 0.644\nentropy = 0.197\nsamples = 157\nvalue = [153, 2, 2, 0, 0, 0, 0, 0]\nclass = slower", fillcolor="#e6843e"] ;
30 -> 34 ;
35 [label="entropy = 0.099\nsamples = 155\nvalue = [153, 2, 0, 0, 0, 0, 0, 0]\nclass = slower", fillcolor="#e5833c"] ;
34 -> 35 ;
36 [label="entropy = 0.0\nsamples = 2\nvalue = [0, 0, 2, 0, 0, 0, 0, 0]\nclass = easy-turn-left", fillcolor="#47e539"] ;
34 -> 36 ;
}