<?xml version="1.0" encoding="UTF-8" standalone="yes"?>
<PMML xmlns="http://www.dmg.org/PMML-4_4" xmlns:data="http://jpmml.org/jpmml-model/InlineTable" version="4.4">
	<Header>
		<Application name="JPMML-SkLearn" version="1.6.26"/>
		<Timestamp>2021-08-25T20:48:23Z</Timestamp>
	</Header>
	<MiningBuildTask>
		<Extension name="repr">PMMLPipeline(steps=[('classifier', DecisionTreeClassifier(max_depth=9, min_samples_leaf=4, min_samples_split=6,
                       random_state=42))])</Extension>
	</MiningBuildTask>
	<DataDictionary>
		<DataField name="label" optype="categorical" dataType="string">
			<Value value="constant-speed"/>
			<Value value="easy-turn-left"/>
			<Value value="easy-turn-right"/>
			<Value value="faster"/>
			<Value value="slower"/>
			<Value value="still"/>
			<Value value="turn-left"/>
			<Value value="turn-right"/>
		</DataField>
		<DataField name="trackLifetime" optype="continuous" dataType="float"/>
		<DataField name="xCenter" optype="continuous" dataType="float"/>
		<DataField name="yCenter" optype="continuous" dataType="float"/>
		<DataField name="heading" optype="continuous" dataType="float"/>
		<DataField name="width" optype="continuous" dataType="float"/>
		<DataField name="length" optype="continuous" dataType="float"/>
		<DataField name="xVelocity" optype="continuous" dataType="float"/>
		<DataField name="yVelocity" optype="continuous" dataType="float"/>
		<DataField name="xAcceleration" optype="continuous" dataType="float"/>
		<DataField name="yAcceleration" optype="continuous" dataType="float"/>
		<DataField name="lonVelocity" optype="continuous" dataType="float"/>
		<DataField name="latVelocity" optype="continuous" dataType="float"/>
		<DataField name="lonAcceleration" optype="continuous" dataType="float"/>
		<DataField name="latAcceleration" optype="continuous" dataType="float"/>
		<DataField name="1_yVelocity" optype="continuous" dataType="float"/>
		<DataField name="1_xVelocity" optype="continuous" dataType="float"/>
		<DataField name="1_yAcceleration" optype="continuous" dataType="float"/>
		<DataField name="1_xAcceleration" optype="continuous" dataType="float"/>
		<DataField name="1_xCenter" optype="continuous" dataType="float"/>
		<DataField name="1_yCenter" optype="continuous" dataType="float"/>
		<DataField name="2_yVelocity" optype="continuous" dataType="float"/>
		<DataField name="2_xVelocity" optype="continuous" dataType="float"/>
		<DataField name="2_yAcceleration" optype="continuous" dataType="float"/>
		<DataField name="2_xAcceleration" optype="continuous" dataType="float"/>
		<DataField name="2_xCenter" optype="continuous" dataType="float"/>
		<DataField name="2_yCenter" optype="continuous" dataType="float"/>
		<DataField name="3_yVelocity" optype="continuous" dataType="float"/>
		<DataField name="3_xVelocity" optype="continuous" dataType="float"/>
		<DataField name="3_yAcceleration" optype="continuous" dataType="float"/>
		<DataField name="3_xAcceleration" optype="continuous" dataType="float"/>
		<DataField name="3_yCenter" optype="continuous" dataType="float"/>
		<DataField name="3_distance" optype="continuous" dataType="float"/>
		<DataField name="2_distance" optype="continuous" dataType="float"/>
		<DataField name="1_distance" optype="continuous" dataType="float"/>
	</DataDictionary>
	<TreeModel functionName="classification" algorithmName="sklearn.tree._classes.DecisionTreeClassifier" missingValueStrategy="nullPrediction">
		<MiningSchema>
			<MiningField name="label" usageType="target"/>
			<MiningField name="latAcceleration"/>
			<MiningField name="heading"/>
			<MiningField name="lonAcceleration"/>
			<MiningField name="xCenter"/>
			<MiningField name="lonVelocity"/>
			<MiningField name="1_xVelocity"/>
			<MiningField name="1_distance"/>
			<MiningField name="2_xAcceleration"/>
			<MiningField name="yAcceleration"/>
			<MiningField name="length"/>
			<MiningField name="1_xAcceleration"/>
			<MiningField name="3_xVelocity"/>
			<MiningField name="2_yVelocity"/>
			<MiningField name="xVelocity"/>
			<MiningField name="2_distance"/>
			<MiningField name="3_distance"/>
			<MiningField name="yCenter"/>
			<MiningField name="1_yCenter"/>
			<MiningField name="2_xVelocity"/>
			<MiningField name="trackLifetime"/>
			<MiningField name="3_yVelocity"/>
			<MiningField name="latVelocity"/>
			<MiningField name="1_yVelocity"/>
			<MiningField name="width"/>
			<MiningField name="yVelocity"/>
			<MiningField name="3_xAcceleration"/>
			<MiningField name="2_yAcceleration"/>
			<MiningField name="xAcceleration"/>
			<MiningField name="3_yCenter"/>
			<MiningField name="1_xCenter"/>
			<MiningField name="1_yAcceleration"/>
			<MiningField name="3_yAcceleration"/>
			<MiningField name="2_yCenter"/>
			<MiningField name="2_xCenter"/>
		</MiningSchema>
		<Output>
			<OutputField name="probability(constant-speed)" optype="continuous" dataType="double" feature="probability" value="constant-speed"/>
			<OutputField name="probability(easy-turn-left)" optype="continuous" dataType="double" feature="probability" value="easy-turn-left"/>
			<OutputField name="probability(easy-turn-right)" optype="continuous" dataType="double" feature="probability" value="easy-turn-right"/>
			<OutputField name="probability(faster)" optype="continuous" dataType="double" feature="probability" value="faster"/>
			<OutputField name="probability(slower)" optype="continuous" dataType="double" feature="probability" value="slower"/>
			<OutputField name="probability(still)" optype="continuous" dataType="double" feature="probability" value="still"/>
			<OutputField name="probability(turn-left)" optype="continuous" dataType="double" feature="probability" value="turn-left"/>
			<OutputField name="probability(turn-right)" optype="continuous" dataType="double" feature="probability" value="turn-right"/>
		</Output>
		<LocalTransformations>
			<DerivedField name="double(latAcceleration)" optype="continuous" dataType="double">
				<FieldRef field="latAcceleration"/>
			</DerivedField>
			<DerivedField name="double(heading)" optype="continuous" dataType="double">
				<FieldRef field="heading"/>
			</DerivedField>
			<DerivedField name="double(lonAcceleration)" optype="continuous" dataType="double">
				<FieldRef field="lonAcceleration"/>
			</DerivedField>
			<DerivedField name="double(xCenter)" optype="continuous" dataType="double">
				<FieldRef field="xCenter"/>
			</DerivedField>
			<DerivedField name="double(lonVelocity)" optype="continuous" dataType="double">
				<FieldRef field="lonVelocity"/>
			</DerivedField>
			<DerivedField name="double(1_xVelocity)" optype="continuous" dataType="double">
				<FieldRef field="1_xVelocity"/>
			</DerivedField>
			<DerivedField name="double(1_distance)" optype="continuous" dataType="double">
				<FieldRef field="1_distance"/>
			</DerivedField>
			<DerivedField name="double(2_xAcceleration)" optype="continuous" dataType="double">
				<FieldRef field="2_xAcceleration"/>
			</DerivedField>
			<DerivedField name="double(yAcceleration)" optype="continuous" dataType="double">
				<FieldRef field="yAcceleration"/>
			</DerivedField>
			<DerivedField name="double(length)" optype="continuous" dataType="double">
				<FieldRef field="length"/>
			</DerivedField>
			<DerivedField name="double(1_xAcceleration)" optype="continuous" dataType="double">
				<FieldRef field="1_xAcceleration"/>
			</DerivedField>
			<DerivedField name="double(3_xVelocity)" optype="continuous" dataType="double">
				<FieldRef field="3_xVelocity"/>
			</DerivedField>
			<DerivedField name="double(2_yVelocity)" optype="continuous" dataType="double">
				<FieldRef field="2_yVelocity"/>
			</DerivedField>
			<DerivedField name="double(xVelocity)" optype="continuous" dataType="double">
				<FieldRef field="xVelocity"/>
			</DerivedField>
			<DerivedField name="double(2_distance)" optype="continuous" dataType="double">
				<FieldRef field="2_distance"/>
			</DerivedField>
			<DerivedField name="double(3_distance)" optype="continuous" dataType="double">
				<FieldRef field="3_distance"/>
			</DerivedField>
			<DerivedField name="double(yCenter)" optype="continuous" dataType="double">
				<FieldRef field="yCenter"/>
			</DerivedField>
			<DerivedField name="double(1_yCenter)" optype="continuous" dataType="double">
				<FieldRef field="1_yCenter"/>
			</DerivedField>
			<DerivedField name="double(2_xVelocity)" optype="continuous" dataType="double">
				<FieldRef field="2_xVelocity"/>
			</DerivedField>
			<DerivedField name="double(trackLifetime)" optype="continuous" dataType="double">
				<FieldRef field="trackLifetime"/>
			</DerivedField>
			<DerivedField name="double(3_yVelocity)" optype="continuous" dataType="double">
				<FieldRef field="3_yVelocity"/>
			</DerivedField>
			<DerivedField name="double(latVelocity)" optype="continuous" dataType="double">
				<FieldRef field="latVelocity"/>
			</DerivedField>
			<DerivedField name="double(1_yVelocity)" optype="continuous" dataType="double">
				<FieldRef field="1_yVelocity"/>
			</DerivedField>
			<DerivedField name="double(width)" optype="continuous" dataType="double">
				<FieldRef field="width"/>
			</DerivedField>
			<DerivedField name="double(yVelocity)" optype="continuous" dataType="double">
				<FieldRef field="yVelocity"/>
			</DerivedField>
			<DerivedField name="double(3_xAcceleration)" optype="continuous" dataType="double">
				<FieldRef field="3_xAcceleration"/>
			</DerivedField>
			<DerivedField name="double(2_yAcceleration)" optype="continuous" dataType="double">
				<FieldRef field="2_yAcceleration"/>
			</DerivedField>
			<DerivedField name="double(xAcceleration)" optype="continuous" dataType="double">
				<FieldRef field="xAcceleration"/>
			</DerivedField>
			<DerivedField name="double(3_yCenter)" optype="continuous" dataType="double">
				<FieldRef field="3_yCenter"/>
			</DerivedField>
			<DerivedField name="double(1_xCenter)" optype="continuous" dataType="double">
				<FieldRef field="1_xCenter"/>
			</DerivedField>
			<DerivedField name="double(1_yAcceleration)" optype="continuous" dataType="double">
				<FieldRef field="1_yAcceleration"/>
			</DerivedField>
			<DerivedField name="double(3_yAcceleration)" optype="continuous" dataType="double">
				<FieldRef field="3_yAcceleration"/>
			</DerivedField>
			<DerivedField name="double(2_yCenter)" optype="continuous" dataType="double">
				<FieldRef field="2_yCenter"/>
			</DerivedField>
			<DerivedField name="double(2_xCenter)" optype="continuous" dataType="double">
				<FieldRef field="2_xCenter"/>
			</DerivedField>
		</LocalTransformations>
		<Node>
			<True/>
			<Node>
				<SimplePredicate field="double(latAcceleration)" operator="lessOrEqual" value="-1.5727500319480896"/>
				<Node>
					<SimplePredicate field="double(heading)" operator="lessOrEqual" value="21.447199821472168"/>
					<Node>
						<SimplePredicate field="double(lonAcceleration)" operator="lessOrEqual" value="0.2488500028848648"/>
						<Node>
							<SimplePredicate field="double(latAcceleration)" operator="lessOrEqual" value="-2.517899990081787"/>
							<Node>
								<SimplePredicate field="double(xCenter)" operator="lessOrEqual" value="116.07360076904297"/>
								<Node>
									<SimplePredicate field="double(lonVelocity)" operator="lessOrEqual" value="8.303599834442139"/>
									<Node>
										<SimplePredicate field="double(latAcceleration)" operator="lessOrEqual" value="-2.5279499292373657"/>
										<Node score="easy-turn-right" recordCount="4">
											<SimplePredicate field="double(1_xVelocity)" operator="lessOrEqual" value="-11.741600036621094"/>
											<ScoreDistribution value="constant-speed" recordCount="0"/>
											<ScoreDistribution value="easy-turn-left" recordCount="0"/>
											<ScoreDistribution value="easy-turn-right" recordCount="3"/>
											<ScoreDistribution value="faster" recordCount="1"/>
											<ScoreDistribution value="slower" recordCount="0"/>
											<ScoreDistribution value="still" recordCount="0"/>
											<ScoreDistribution value="turn-left" recordCount="0"/>
											<ScoreDistribution value="turn-right" recordCount="0"/>
										</Node>
										<Node score="easy-turn-right" recordCount="4">
											<SimplePredicate field="double(xCenter)" operator="lessOrEqual" value="81.52519989013672"/>
											<ScoreDistribution value="constant-speed" recordCount="0"/>
											<ScoreDistribution value="easy-turn-left" recordCount="0"/>
											<ScoreDistribution value="easy-turn-right" recordCount="3"/>
											<ScoreDistribution value="faster" recordCount="1"/>
											<ScoreDistribution value="slower" recordCount="0"/>
											<ScoreDistribution value="still" recordCount="0"/>
											<ScoreDistribution value="turn-left" recordCount="0"/>
											<ScoreDistribution value="turn-right" recordCount="0"/>
										</Node>
										<Node score="easy-turn-right" recordCount="141">
											<True/>
											<ScoreDistribution value="constant-speed" recordCount="0"/>
											<ScoreDistribution value="easy-turn-left" recordCount="0"/>
											<ScoreDistribution value="easy-turn-right" recordCount="139"/>
											<ScoreDistribution value="faster" recordCount="0"/>
											<ScoreDistribution value="slower" recordCount="2"/>
											<ScoreDistribution value="still" recordCount="0"/>
											<ScoreDistribution value="turn-left" recordCount="0"/>
											<ScoreDistribution value="turn-right" recordCount="0"/>
										</Node>
									</Node>
									<Node score="easy-turn-right" recordCount="6">
										<True/>
										<ScoreDistribution value="constant-speed" recordCount="0"/>
										<ScoreDistribution value="easy-turn-left" recordCount="0"/>
										<ScoreDistribution value="easy-turn-right" recordCount="4"/>
										<ScoreDistribution value="faster" recordCount="0"/>
										<ScoreDistribution value="slower" recordCount="2"/>
										<ScoreDistribution value="still" recordCount="0"/>
										<ScoreDistribution value="turn-left" recordCount="0"/>
										<ScoreDistribution value="turn-right" recordCount="0"/>
									</Node>
								</Node>
								<Node>
									<SimplePredicate field="double(latAcceleration)" operator="lessOrEqual" value="-2.9075000286102295"/>
									<Node>
										<SimplePredicate field="double(1_distance)" operator="lessOrEqual" value="0.0015667095431126654"/>
										<Node score="easy-turn-right" recordCount="63">
											<SimplePredicate field="double(2_xAcceleration)" operator="lessOrEqual" value="2.896049976348877"/>
											<ScoreDistribution value="constant-speed" recordCount="0"/>
											<ScoreDistribution value="easy-turn-left" recordCount="0"/>
											<ScoreDistribution value="easy-turn-right" recordCount="59"/>
											<ScoreDistribution value="faster" recordCount="1"/>
											<ScoreDistribution value="slower" recordCount="3"/>
											<ScoreDistribution value="still" recordCount="0"/>
											<ScoreDistribution value="turn-left" recordCount="0"/>
											<ScoreDistribution value="turn-right" recordCount="0"/>
										</Node>
										<Node score="easy-turn-right" recordCount="4">
											<True/>
											<ScoreDistribution value="constant-speed" recordCount="0"/>
											<ScoreDistribution value="easy-turn-left" recordCount="0"/>
											<ScoreDistribution value="easy-turn-right" recordCount="2"/>
											<ScoreDistribution value="faster" recordCount="0"/>
											<ScoreDistribution value="slower" recordCount="2"/>
											<ScoreDistribution value="still" recordCount="0"/>
											<ScoreDistribution value="turn-left" recordCount="0"/>
											<ScoreDistribution value="turn-right" recordCount="0"/>
										</Node>
									</Node>
									<Node score="slower" recordCount="5">
										<SimplePredicate field="double(yAcceleration)" operator="lessOrEqual" value="3.063649892807007"/>
										<ScoreDistribution value="constant-speed" recordCount="0"/>
										<ScoreDistribution value="easy-turn-left" recordCount="0"/>
										<ScoreDistribution value="easy-turn-right" recordCount="0"/>
										<ScoreDistribution value="faster" recordCount="0"/>
										<ScoreDistribution value="slower" recordCount="5"/>
										<ScoreDistribution value="still" recordCount="0"/>
										<ScoreDistribution value="turn-left" recordCount="0"/>
										<ScoreDistribution value="turn-right" recordCount="0"/>
									</Node>
									<Node score="easy-turn-right" recordCount="14">
										<True/>
										<ScoreDistribution value="constant-speed" recordCount="0"/>
										<ScoreDistribution value="easy-turn-left" recordCount="0"/>
										<ScoreDistribution value="easy-turn-right" recordCount="11"/>
										<ScoreDistribution value="faster" recordCount="1"/>
										<ScoreDistribution value="slower" recordCount="2"/>
										<ScoreDistribution value="still" recordCount="0"/>
										<ScoreDistribution value="turn-left" recordCount="0"/>
										<ScoreDistribution value="turn-right" recordCount="0"/>
									</Node>
								</Node>
								<Node score="faster" recordCount="4">
									<SimplePredicate field="double(lonAcceleration)" operator="lessOrEqual" value="-0.30435000360012054"/>
									<ScoreDistribution value="constant-speed" recordCount="0"/>
									<ScoreDistribution value="easy-turn-left" recordCount="0"/>
									<ScoreDistribution value="easy-turn-right" recordCount="0"/>
									<ScoreDistribution value="faster" recordCount="4"/>
									<ScoreDistribution value="slower" recordCount="0"/>
									<ScoreDistribution value="still" recordCount="0"/>
									<ScoreDistribution value="turn-left" recordCount="0"/>
									<ScoreDistribution value="turn-right" recordCount="0"/>
								</Node>
								<Node score="easy-turn-right" recordCount="5">
									<SimplePredicate field="double(heading)" operator="lessOrEqual" value="1.6728000044822693"/>
									<ScoreDistribution value="constant-speed" recordCount="0"/>
									<ScoreDistribution value="easy-turn-left" recordCount="0"/>
									<ScoreDistribution value="easy-turn-right" recordCount="4"/>
									<ScoreDistribution value="faster" recordCount="0"/>
									<ScoreDistribution value="slower" recordCount="1"/>
									<ScoreDistribution value="still" recordCount="0"/>
									<ScoreDistribution value="turn-left" recordCount="0"/>
									<ScoreDistribution value="turn-right" recordCount="0"/>
								</Node>
								<Node score="slower" recordCount="35">
									<True/>
									<ScoreDistribution value="constant-speed" recordCount="0"/>
									<ScoreDistribution value="easy-turn-left" recordCount="0"/>
									<ScoreDistribution value="easy-turn-right" recordCount="5"/>
									<ScoreDistribution value="faster" recordCount="3"/>
									<ScoreDistribution value="slower" recordCount="27"/>
									<ScoreDistribution value="still" recordCount="0"/>
									<ScoreDistribution value="turn-left" recordCount="0"/>
									<ScoreDistribution value="turn-right" recordCount="0"/>
								</Node>
							</Node>
							<Node score="easy-turn-right" recordCount="4">
								<SimplePredicate field="double(length)" operator="lessOrEqual" value="4.497200012207031"/>
								<ScoreDistribution value="constant-speed" recordCount="0"/>
								<ScoreDistribution value="easy-turn-left" recordCount="0"/>
								<ScoreDistribution value="easy-turn-right" recordCount="2"/>
								<ScoreDistribution value="faster" recordCount="0"/>
								<ScoreDistribution value="slower" recordCount="0"/>
								<ScoreDistribution value="still" recordCount="0"/>
								<ScoreDistribution value="turn-left" recordCount="0"/>
								<ScoreDistribution value="turn-right" recordCount="2"/>
							</Node>
							<Node score="turn-right" recordCount="10">
								<True/>
								<ScoreDistribution value="constant-speed" recordCount="0"/>
								<ScoreDistribution value="easy-turn-left" recordCount="0"/>
								<ScoreDistribution value="easy-turn-right" recordCount="0"/>
								<ScoreDistribution value="faster" recordCount="0"/>
								<ScoreDistribution value="slower" recordCount="0"/>
								<ScoreDistribution value="still" recordCount="0"/>
								<ScoreDistribution value="turn-left" recordCount="0"/>
								<ScoreDistribution value="turn-right" recordCount="10"/>
							</Node>
						</Node>
						<Node>
							<SimplePredicate field="double(lonAcceleration)" operator="lessOrEqual" value="-0.13745000213384628"/>
							<Node>
								<SimplePredicate field="double(lonVelocity)" operator="lessOrEqual" value="7.50789999961853"/>
								<Node score="easy-turn-right" recordCount="26">
									<SimplePredicate field="double(latAcceleration)" operator="lessOrEqual" value="-1.9244000315666199"/>
									<ScoreDistribution value="constant-speed" recordCount="0"/>
									<ScoreDistribution value="easy-turn-left" recordCount="0"/>
									<ScoreDistribution value="easy-turn-right" recordCount="26"/>
									<ScoreDistribution value="faster" recordCount="0"/>
									<ScoreDistribution value="slower" recordCount="0"/>
									<ScoreDistribution value="still" recordCount="0"/>
									<ScoreDistribution value="turn-left" recordCount="0"/>
									<ScoreDistribution value="turn-right" recordCount="0"/>
								</Node>
								<Node>
									<SimplePredicate field="double(1_xAcceleration)" operator="lessOrEqual" value="1.124650001525879"/>
									<Node score="faster" recordCount="4">
										<SimplePredicate field="double(3_xVelocity)" operator="lessOrEqual" value="3.2050000429153442"/>
										<ScoreDistribution value="constant-speed" recordCount="0"/>
										<ScoreDistribution value="easy-turn-left" recordCount="0"/>
										<ScoreDistribution value="easy-turn-right" recordCount="0"/>
										<ScoreDistribution value="faster" recordCount="3"/>
										<ScoreDistribution value="slower" recordCount="1"/>
										<ScoreDistribution value="still" recordCount="0"/>
										<ScoreDistribution value="turn-left" recordCount="0"/>
										<ScoreDistribution value="turn-right" recordCount="0"/>
									</Node>
									<Node score="faster" recordCount="11">
										<True/>
										<ScoreDistribution value="constant-speed" recordCount="0"/>
										<ScoreDistribution value="easy-turn-left" recordCount="0"/>
										<ScoreDistribution value="easy-turn-right" recordCount="0"/>
										<ScoreDistribution value="faster" recordCount="11"/>
										<ScoreDistribution value="slower" recordCount="0"/>
										<ScoreDistribution value="still" recordCount="0"/>
										<ScoreDistribution value="turn-left" recordCount="0"/>
										<ScoreDistribution value="turn-right" recordCount="0"/>
									</Node>
								</Node>
								<Node score="easy-turn-right" recordCount="7">
									<True/>
									<ScoreDistribution value="constant-speed" recordCount="0"/>
									<ScoreDistribution value="easy-turn-left" recordCount="0"/>
									<ScoreDistribution value="easy-turn-right" recordCount="5"/>
									<ScoreDistribution value="faster" recordCount="1"/>
									<ScoreDistribution value="slower" recordCount="1"/>
									<ScoreDistribution value="still" recordCount="0"/>
									<ScoreDistribution value="turn-left" recordCount="0"/>
									<ScoreDistribution value="turn-right" recordCount="0"/>
								</Node>
							</Node>
							<Node score="slower" recordCount="4">
								<SimplePredicate field="double(2_yVelocity)" operator="lessOrEqual" value="-3.6986498832702637"/>
								<ScoreDistribution value="constant-speed" recordCount="0"/>
								<ScoreDistribution value="easy-turn-left" recordCount="0"/>
								<ScoreDistribution value="easy-turn-right" recordCount="0"/>
								<ScoreDistribution value="faster" recordCount="1"/>
								<ScoreDistribution value="slower" recordCount="3"/>
								<ScoreDistribution value="still" recordCount="0"/>
								<ScoreDistribution value="turn-left" recordCount="0"/>
								<ScoreDistribution value="turn-right" recordCount="0"/>
							</Node>
							<Node score="faster" recordCount="4">
								<SimplePredicate field="double(xVelocity)" operator="lessOrEqual" value="7.307650089263916"/>
								<ScoreDistribution value="constant-speed" recordCount="0"/>
								<ScoreDistribution value="easy-turn-left" recordCount="0"/>
								<ScoreDistribution value="easy-turn-right" recordCount="0"/>
								<ScoreDistribution value="faster" recordCount="2"/>
								<ScoreDistribution value="slower" recordCount="2"/>
								<ScoreDistribution value="still" recordCount="0"/>
								<ScoreDistribution value="turn-left" recordCount="0"/>
								<ScoreDistribution value="turn-right" recordCount="0"/>
							</Node>
							<Node score="faster" recordCount="33">
								<SimplePredicate field="double(3_xVelocity)" operator="lessOrEqual" value="8.589100122451782"/>
								<ScoreDistribution value="constant-speed" recordCount="0"/>
								<ScoreDistribution value="easy-turn-left" recordCount="0"/>
								<ScoreDistribution value="easy-turn-right" recordCount="0"/>
								<ScoreDistribution value="faster" recordCount="33"/>
								<ScoreDistribution value="slower" recordCount="0"/>
								<ScoreDistribution value="still" recordCount="0"/>
								<ScoreDistribution value="turn-left" recordCount="0"/>
								<ScoreDistribution value="turn-right" recordCount="0"/>
							</Node>
							<Node score="faster" recordCount="4">
								<True/>
								<ScoreDistribution value="constant-speed" recordCount="0"/>
								<ScoreDistribution value="easy-turn-left" recordCount="0"/>
								<ScoreDistribution value="easy-turn-right" recordCount="0"/>
								<ScoreDistribution value="faster" recordCount="3"/>
								<ScoreDistribution value="slower" recordCount="1"/>
								<ScoreDistribution value="still" recordCount="0"/>
								<ScoreDistribution value="turn-left" recordCount="0"/>
								<ScoreDistribution value="turn-right" recordCount="0"/>
							</Node>
						</Node>
						<Node>
							<SimplePredicate field="double(lonVelocity)" operator="lessOrEqual" value="7.009999990463257"/>
							<Node>
								<SimplePredicate field="double(yAcceleration)" operator="lessOrEqual" value="1.8690999746322632"/>
								<Node>
									<SimplePredicate field="double(xVelocity)" operator="lessOrEqual" value="5.99429988861084"/>
									<Node score="easy-turn-right" recordCount="4">
										<SimplePredicate field="double(2_distance)" operator="lessOrEqual" value="0.0016619745001662523"/>
										<ScoreDistribution value="constant-speed" recordCount="0"/>
										<ScoreDistribution value="easy-turn-left" recordCount="0"/>
										<ScoreDistribution value="easy-turn-right" recordCount="3"/>
										<ScoreDistribution value="faster" recordCount="1"/>
										<ScoreDistribution value="slower" recordCount="0"/>
										<ScoreDistribution value="still" recordCount="0"/>
										<ScoreDistribution value="turn-left" recordCount="0"/>
										<ScoreDistribution value="turn-right" recordCount="0"/>
									</Node>
									<Node score="easy-turn-right" recordCount="4">
										<True/>
										<ScoreDistribution value="constant-speed" recordCount="0"/>
										<ScoreDistribution value="easy-turn-left" recordCount="0"/>
										<ScoreDistribution value="easy-turn-right" recordCount="4"/>
										<ScoreDistribution value="faster" recordCount="0"/>
										<ScoreDistribution value="slower" recordCount="0"/>
										<ScoreDistribution value="still" recordCount="0"/>
										<ScoreDistribution value="turn-left" recordCount="0"/>
										<ScoreDistribution value="turn-right" recordCount="0"/>
									</Node>
								</Node>
								<Node score="faster" recordCount="4">
									<SimplePredicate field="double(heading)" operator="lessOrEqual" value="2.481149911880493"/>
									<ScoreDistribution value="constant-speed" recordCount="0"/>
									<ScoreDistribution value="easy-turn-left" recordCount="0"/>
									<ScoreDistribution value="easy-turn-right" recordCount="1"/>
									<ScoreDistribution value="faster" recordCount="2"/>
									<ScoreDistribution value="slower" recordCount="1"/>
									<ScoreDistribution value="still" recordCount="0"/>
									<ScoreDistribution value="turn-left" recordCount="0"/>
									<ScoreDistribution value="turn-right" recordCount="0"/>
								</Node>
								<Node score="slower" recordCount="17">
									<True/>
									<ScoreDistribution value="constant-speed" recordCount="0"/>
									<ScoreDistribution value="easy-turn-left" recordCount="0"/>
									<ScoreDistribution value="easy-turn-right" recordCount="1"/>
									<ScoreDistribution value="faster" recordCount="0"/>
									<ScoreDistribution value="slower" recordCount="16"/>
									<ScoreDistribution value="still" recordCount="0"/>
									<ScoreDistribution value="turn-left" recordCount="0"/>
									<ScoreDistribution value="turn-right" recordCount="0"/>
								</Node>
							</Node>
							<Node score="easy-turn-right" recordCount="4">
								<SimplePredicate field="double(3_distance)" operator="lessOrEqual" value="8.901337569113821E-4"/>
								<ScoreDistribution value="constant-speed" recordCount="0"/>
								<ScoreDistribution value="easy-turn-left" recordCount="0"/>
								<ScoreDistribution value="easy-turn-right" recordCount="2"/>
								<ScoreDistribution value="faster" recordCount="0"/>
								<ScoreDistribution value="slower" recordCount="2"/>
								<ScoreDistribution value="still" recordCount="0"/>
								<ScoreDistribution value="turn-left" recordCount="0"/>
								<ScoreDistribution value="turn-right" recordCount="0"/>
							</Node>
							<Node score="easy-turn-right" recordCount="27">
								<True/>
								<ScoreDistribution value="constant-speed" recordCount="0"/>
								<ScoreDistribution value="easy-turn-left" recordCount="0"/>
								<ScoreDistribution value="easy-turn-right" recordCount="27"/>
								<ScoreDistribution value="faster" recordCount="0"/>
								<ScoreDistribution value="slower" recordCount="0"/>
								<ScoreDistribution value="still" recordCount="0"/>
								<ScoreDistribution value="turn-left" recordCount="0"/>
								<ScoreDistribution value="turn-right" recordCount="0"/>
							</Node>
						</Node>
						<Node>
							<SimplePredicate field="double(heading)" operator="lessOrEqual" value="5.243099927902222"/>
							<Node>
								<SimplePredicate field="double(yCenter)" operator="lessOrEqual" value="-65.97019958496094"/>
								<Node score="slower" recordCount="6">
									<SimplePredicate field="double(yAcceleration)" operator="lessOrEqual" value="2.0506999492645264"/>
									<ScoreDistribution value="constant-speed" recordCount="0"/>
									<ScoreDistribution value="easy-turn-left" recordCount="0"/>
									<ScoreDistribution value="easy-turn-right" recordCount="0"/>
									<ScoreDistribution value="faster" recordCount="0"/>
									<ScoreDistribution value="slower" recordCount="6"/>
									<ScoreDistribution value="still" recordCount="0"/>
									<ScoreDistribution value="turn-left" recordCount="0"/>
									<ScoreDistribution value="turn-right" recordCount="0"/>
								</Node>
								<Node score="easy-turn-right" recordCount="32">
									<True/>
									<ScoreDistribution value="constant-speed" recordCount="0"/>
									<ScoreDistribution value="easy-turn-left" recordCount="0"/>
									<ScoreDistribution value="easy-turn-right" recordCount="27"/>
									<ScoreDistribution value="faster" recordCount="0"/>
									<ScoreDistribution value="slower" recordCount="5"/>
									<ScoreDistribution value="still" recordCount="0"/>
									<ScoreDistribution value="turn-left" recordCount="0"/>
									<ScoreDistribution value="turn-right" recordCount="0"/>
								</Node>
							</Node>
							<Node score="slower" recordCount="14">
								<SimplePredicate field="double(1_yCenter)" operator="lessOrEqual" value="-46.165300369262695"/>
								<ScoreDistribution value="constant-speed" recordCount="0"/>
								<ScoreDistribution value="easy-turn-left" recordCount="0"/>
								<ScoreDistribution value="easy-turn-right" recordCount="0"/>
								<ScoreDistribution value="faster" recordCount="0"/>
								<ScoreDistribution value="slower" recordCount="14"/>
								<ScoreDistribution value="still" recordCount="0"/>
								<ScoreDistribution value="turn-left" recordCount="0"/>
								<ScoreDistribution value="turn-right" recordCount="0"/>
							</Node>
							<Node score="slower" recordCount="4">
								<True/>
								<ScoreDistribution value="constant-speed" recordCount="0"/>
								<ScoreDistribution value="easy-turn-left" recordCount="0"/>
								<ScoreDistribution value="easy-turn-right" recordCount="0"/>
								<ScoreDistribution value="faster" recordCount="1"/>
								<ScoreDistribution value="slower" recordCount="3"/>
								<ScoreDistribution value="still" recordCount="0"/>
								<ScoreDistribution value="turn-left" recordCount="0"/>
								<ScoreDistribution value="turn-right" recordCount="0"/>
							</Node>
						</Node>
						<Node>
							<SimplePredicate field="double(lonAcceleration)" operator="lessOrEqual" value="0.0807499997317791"/>
							<Node score="slower" recordCount="49">
								<SimplePredicate field="double(lonVelocity)" operator="lessOrEqual" value="8.89394998550415"/>
								<ScoreDistribution value="constant-speed" recordCount="0"/>
								<ScoreDistribution value="easy-turn-left" recordCount="0"/>
								<ScoreDistribution value="easy-turn-right" recordCount="5"/>
								<ScoreDistribution value="faster" recordCount="11"/>
								<ScoreDistribution value="slower" recordCount="33"/>
								<ScoreDistribution value="still" recordCount="0"/>
								<ScoreDistribution value="turn-left" recordCount="0"/>
								<ScoreDistribution value="turn-right" recordCount="0"/>
							</Node>
							<Node score="faster" recordCount="9">
								<True/>
								<ScoreDistribution value="constant-speed" recordCount="0"/>
								<ScoreDistribution value="easy-turn-left" recordCount="0"/>
								<ScoreDistribution value="easy-turn-right" recordCount="0"/>
								<ScoreDistribution value="faster" recordCount="8"/>
								<ScoreDistribution value="slower" recordCount="1"/>
								<ScoreDistribution value="still" recordCount="0"/>
								<ScoreDistribution value="turn-left" recordCount="0"/>
								<ScoreDistribution value="turn-right" recordCount="0"/>
							</Node>
						</Node>
						<Node score="slower" recordCount="10">
							<SimplePredicate field="double(1_distance)" operator="lessOrEqual" value="7.68242207414005E-5"/>
							<ScoreDistribution value="constant-speed" recordCount="0"/>
							<ScoreDistribution value="easy-turn-left" recordCount="0"/>
							<ScoreDistribution value="easy-turn-right" recordCount="0"/>
							<ScoreDistribution value="faster" recordCount="4"/>
							<ScoreDistribution value="slower" recordCount="6"/>
							<ScoreDistribution value="still" recordCount="0"/>
							<ScoreDistribution value="turn-left" recordCount="0"/>
							<ScoreDistribution value="turn-right" recordCount="0"/>
						</Node>
						<Node score="slower" recordCount="90">
							<True/>
							<ScoreDistribution value="constant-speed" recordCount="0"/>
							<ScoreDistribution value="easy-turn-left" recordCount="0"/>
							<ScoreDistribution value="easy-turn-right" recordCount="3"/>
							<ScoreDistribution value="faster" recordCount="2"/>
							<ScoreDistribution value="slower" recordCount="85"/>
							<ScoreDistribution value="still" recordCount="0"/>
							<ScoreDistribution value="turn-left" recordCount="0"/>
							<ScoreDistribution value="turn-right" recordCount="0"/>
						</Node>
					</Node>
					<Node>
						<SimplePredicate field="double(xCenter)" operator="lessOrEqual" value="83.5860481262207"/>
						<Node>
							<SimplePredicate field="double(yCenter)" operator="lessOrEqual" value="-66.67834854125977"/>
							<Node>
								<SimplePredicate field="double(heading)" operator="lessOrEqual" value="4.453250169754028"/>
								<Node score="slower" recordCount="6">
									<SimplePredicate field="double(2_xAcceleration)" operator="lessOrEqual" value="-1.4318000078201294"/>
									<ScoreDistribution value="constant-speed" recordCount="0"/>
									<ScoreDistribution value="easy-turn-left" recordCount="0"/>
									<ScoreDistribution value="easy-turn-right" recordCount="2"/>
									<ScoreDistribution value="faster" recordCount="0"/>
									<ScoreDistribution value="slower" recordCount="4"/>
									<ScoreDistribution value="still" recordCount="0"/>
									<ScoreDistribution value="turn-left" recordCount="0"/>
									<ScoreDistribution value="turn-right" recordCount="0"/>
								</Node>
								<Node>
									<SimplePredicate field="double(2_xVelocity)" operator="lessOrEqual" value="7.308899879455566"/>
									<Node score="easy-turn-right" recordCount="65">
										<SimplePredicate field="double(trackLifetime)" operator="lessOrEqual" value="787.5"/>
										<ScoreDistribution value="constant-speed" recordCount="0"/>
										<ScoreDistribution value="easy-turn-left" recordCount="0"/>
										<ScoreDistribution value="easy-turn-right" recordCount="64"/>
										<ScoreDistribution value="faster" recordCount="0"/>
										<ScoreDistribution value="slower" recordCount="1"/>
										<ScoreDistribution value="still" recordCount="0"/>
										<ScoreDistribution value="turn-left" recordCount="0"/>
										<ScoreDistribution value="turn-right" recordCount="0"/>
									</Node>
									<Node score="easy-turn-right" recordCount="5">
										<True/>
										<ScoreDistribution value="constant-speed" recordCount="0"/>
										<ScoreDistribution value="easy-turn-left" recordCount="0"/>
										<ScoreDistribution value="easy-turn-right" recordCount="3"/>
										<ScoreDistribution value="faster" recordCount="0"/>
										<ScoreDistribution value="slower" recordCount="2"/>
										<ScoreDistribution value="still" recordCount="0"/>
										<ScoreDistribution value="turn-left" recordCount="0"/>
										<ScoreDistribution value="turn-right" recordCount="0"/>
									</Node>
								</Node>
								<Node score="slower" recordCount="4">
									<SimplePredicate field="double(1_xVelocity)" operator="lessOrEqual" value="0.9997000098228455"/>
									<ScoreDistribution value="constant-speed" recordCount="0"/>
									<ScoreDistribution value="easy-turn-left" recordCount="0"/>
									<ScoreDistribution value="easy-turn-right" recordCount="0"/>
									<ScoreDistribution value="faster" recordCount="0"/>
									<ScoreDistribution value="slower" recordCount="4"/>
									<ScoreDistribution value="still" recordCount="0"/>
									<ScoreDistribution value="turn-left" recordCount="0"/>
									<ScoreDistribution value="turn-right" recordCount="0"/>
								</Node>
								<Node score="easy-turn-right" recordCount="6">
									<True/>
									<ScoreDistribution value="constant-speed" recordCount="0"/>
									<ScoreDistribution value="easy-turn-left" recordCount="0"/>
									<ScoreDistribution value="easy-turn-right" recordCount="5"/>
									<ScoreDistribution value="faster" recordCount="0"/>
									<ScoreDistribution value="slower" recordCount="1"/>
									<ScoreDistribution value="still" recordCount="0"/>
									<ScoreDistribution value="turn-left" recordCount="0"/>
									<ScoreDistribution value="turn-right" recordCount="0"/>
								</Node>
							</Node>
							<Node>
								<SimplePredicate field="double(yCenter)" operator="lessOrEqual" value="-67.65904998779297"/>
								<Node score="slower" recordCount="4">
									<SimplePredicate field="double(lonVelocity)" operator="lessOrEqual" value="7.162299871444702"/>
									<ScoreDistribution value="constant-speed" recordCount="0"/>
									<ScoreDistribution value="easy-turn-left" recordCount="0"/>
									<ScoreDistribution value="easy-turn-right" recordCount="1"/>
									<ScoreDistribution value="faster" recordCount="0"/>
									<ScoreDistribution value="slower" recordCount="3"/>
									<ScoreDistribution value="still" recordCount="0"/>
									<ScoreDistribution value="turn-left" recordCount="0"/>
									<ScoreDistribution value="turn-right" recordCount="0"/>
								</Node>
								<Node score="easy-turn-right" recordCount="9">
									<True/>
									<ScoreDistribution value="constant-speed" recordCount="0"/>
									<ScoreDistribution value="easy-turn-left" recordCount="0"/>
									<ScoreDistribution value="easy-turn-right" recordCount="9"/>
									<ScoreDistribution value="faster" recordCount="0"/>
									<ScoreDistribution value="slower" recordCount="0"/>
									<ScoreDistribution value="still" recordCount="0"/>
									<ScoreDistribution value="turn-left" recordCount="0"/>
									<ScoreDistribution value="turn-right" recordCount="0"/>
								</Node>
							</Node>
							<Node score="slower" recordCount="7">
								<SimplePredicate field="double(3_yVelocity)" operator="lessOrEqual" value="-3.6305500268936157"/>
								<ScoreDistribution value="constant-speed" recordCount="0"/>
								<ScoreDistribution value="easy-turn-left" recordCount="0"/>
								<ScoreDistribution value="easy-turn-right" recordCount="2"/>
								<ScoreDistribution value="faster" recordCount="0"/>
								<ScoreDistribution value="slower" recordCount="5"/>
								<ScoreDistribution value="still" recordCount="0"/>
								<ScoreDistribution value="turn-left" recordCount="0"/>
								<ScoreDistribution value="turn-right" recordCount="0"/>
							</Node>
							<Node score="slower" recordCount="17">
								<True/>
								<ScoreDistribution value="constant-speed" recordCount="0"/>
								<ScoreDistribution value="easy-turn-left" recordCount="0"/>
								<ScoreDistribution value="easy-turn-right" recordCount="0"/>
								<ScoreDistribution value="faster" recordCount="0"/>
								<ScoreDistribution value="slower" recordCount="17"/>
								<ScoreDistribution value="still" recordCount="0"/>
								<ScoreDistribution value="turn-left" recordCount="0"/>
								<ScoreDistribution value="turn-right" recordCount="0"/>
							</Node>
						</Node>
						<Node>
							<SimplePredicate field="double(latVelocity)" operator="lessOrEqual" value="-0.38349999487400055"/>
							<Node score="easy-turn-right" recordCount="9">
								<SimplePredicate field="double(latAcceleration)" operator="lessOrEqual" value="-3.1186500787734985"/>
								<ScoreDistribution value="constant-speed" recordCount="0"/>
								<ScoreDistribution value="easy-turn-left" recordCount="0"/>
								<ScoreDistribution value="easy-turn-right" recordCount="9"/>
								<ScoreDistribution value="faster" recordCount="0"/>
								<ScoreDistribution value="slower" recordCount="0"/>
								<ScoreDistribution value="still" recordCount="0"/>
								<ScoreDistribution value="turn-left" recordCount="0"/>
								<ScoreDistribution value="turn-right" recordCount="0"/>
							</Node>
							<Node score="easy-turn-right" recordCount="6">
								<SimplePredicate field="double(1_yVelocity)" operator="lessOrEqual" value="-5.561750173568726"/>
								<ScoreDistribution value="constant-speed" recordCount="0"/>
								<ScoreDistribution value="easy-turn-left" recordCount="0"/>
								<ScoreDistribution value="easy-turn-right" recordCount="5"/>
								<ScoreDistribution value="faster" recordCount="0"/>
								<ScoreDistribution value="slower" recordCount="1"/>
								<ScoreDistribution value="still" recordCount="0"/>
								<ScoreDistribution value="turn-left" recordCount="0"/>
								<ScoreDistribution value="turn-right" recordCount="0"/>
							</Node>
							<Node score="slower" recordCount="7">
								<True/>
								<ScoreDistribution value="constant-speed" recordCount="0"/>
								<ScoreDistribution value="easy-turn-left" recordCount="0"/>
								<ScoreDistribution value="easy-turn-right" recordCount="2"/>
								<ScoreDistribution value="faster" recordCount="0"/>
								<ScoreDistribution value="slower" recordCount="5"/>
								<ScoreDistribution value="still" recordCount="0"/>
								<ScoreDistribution value="turn-left" recordCount="0"/>
								<ScoreDistribution value="turn-right" recordCount="0"/>
							</Node>
						</Node>
						<Node>
							<SimplePredicate field="double(heading)" operator="lessOrEqual" value="0.31839999556541443"/>
							<Node score="easy-turn-right" recordCount="6">
								<SimplePredicate field="double(trackLifetime)" operator="lessOrEqual" value="325.0"/>
								<ScoreDistribution value="constant-speed" recordCount="0"/>
								<ScoreDistribution value="easy-turn-left" recordCount="0"/>
								<ScoreDistribution value="easy-turn-right" recordCount="6"/>
								<ScoreDistribution value="faster" recordCount="0"/>
								<ScoreDistribution value="slower" recordCount="0"/>
								<ScoreDistribution value="still" recordCount="0"/>
								<ScoreDistribution value="turn-left" recordCount="0"/>
								<ScoreDistribution value="turn-right" recordCount="0"/>
							</Node>
							<Node score="slower" recordCount="5">
								<True/>
								<ScoreDistribution value="constant-speed" recordCount="0"/>
								<ScoreDistribution value="easy-turn-left" recordCount="0"/>
								<ScoreDistribution value="easy-turn-right" recordCount="1"/>
								<ScoreDistribution value="faster" recordCount="0"/>
								<ScoreDistribution value="slower" recordCount="4"/>
								<ScoreDistribution value="still" recordCount="0"/>
								<ScoreDistribution value="turn-left" recordCount="0"/>
								<ScoreDistribution value="turn-right" recordCount="0"/>
							</Node>
						</Node>
						<Node>
							<SimplePredicate field="double(width)" operator="lessOrEqual" value="1.9357500076293945"/>
							<Node score="easy-turn-right" recordCount="5">
								<SimplePredicate field="double(yCenter)" operator="lessOrEqual" value="-65.61890029907227"/>
								<ScoreDistribution value="constant-speed" recordCount="0"/>
								<ScoreDistribution value="easy-turn-left" recordCount="0"/>
								<ScoreDistribution value="easy-turn-right" recordCount="5"/>
								<ScoreDistribution value="faster" recordCount="0"/>
								<ScoreDistribution value="slower" recordCount="0"/>
								<ScoreDistribution value="still" recordCount="0"/>
								<ScoreDistribution value="turn-left" recordCount="0"/>
								<ScoreDistribution value="turn-right" recordCount="0"/>
							</Node>
							<Node score="slower" recordCount="6">
								<True/>
								<ScoreDistribution value="constant-speed" recordCount="0"/>
								<ScoreDistribution value="easy-turn-left" recordCount="0"/>
								<ScoreDistribution value="easy-turn-right" recordCount="2"/>
								<ScoreDistribution value="faster" recordCount="0"/>
								<ScoreDistribution value="slower" recordCount="4"/>
								<ScoreDistribution value="still" recordCount="0"/>
								<ScoreDistribution value="turn-left" recordCount="0"/>
								<ScoreDistribution value="turn-right" recordCount="0"/>
							</Node>
						</Node>
						<Node score="easy-turn-right" recordCount="4">
							<SimplePredicate field="double(xCenter)" operator="lessOrEqual" value="80.97125244140625"/>
							<ScoreDistribution value="constant-speed" recordCount="0"/>
							<ScoreDistribution value="easy-turn-left" recordCount="0"/>
							<ScoreDistribution value="easy-turn-right" recordCount="2"/>
							<ScoreDistribution value="faster" recordCount="0"/>
							<ScoreDistribution value="slower" recordCount="2"/>
							<ScoreDistribution value="still" recordCount="0"/>
							<ScoreDistribution value="turn-left" recordCount="0"/>
							<ScoreDistribution value="turn-right" recordCount="0"/>
						</Node>
						<Node score="slower" recordCount="94">
							<True/>
							<ScoreDistribution value="constant-speed" recordCount="0"/>
							<ScoreDistribution value="easy-turn-left" recordCount="0"/>
							<ScoreDistribution value="easy-turn-right" recordCount="3"/>
							<ScoreDistribution value="faster" recordCount="1"/>
							<ScoreDistribution value="slower" recordCount="90"/>
							<ScoreDistribution value="still" recordCount="0"/>
							<ScoreDistribution value="turn-left" recordCount="0"/>
							<ScoreDistribution value="turn-right" recordCount="0"/>
						</Node>
					</Node>
					<Node>
						<SimplePredicate field="double(latAcceleration)" operator="lessOrEqual" value="-2.7969499826431274"/>
						<Node>
							<SimplePredicate field="double(lonVelocity)" operator="lessOrEqual" value="8.931050300598145"/>
							<Node>
								<SimplePredicate field="double(latAcceleration)" operator="lessOrEqual" value="-3.0432000160217285"/>
								<Node score="easy-turn-right" recordCount="14">
									<SimplePredicate field="double(3_xVelocity)" operator="lessOrEqual" value="5.453649997711182"/>
									<ScoreDistribution value="constant-speed" recordCount="0"/>
									<ScoreDistribution value="easy-turn-left" recordCount="0"/>
									<ScoreDistribution value="easy-turn-right" recordCount="14"/>
									<ScoreDistribution value="faster" recordCount="0"/>
									<ScoreDistribution value="slower" recordCount="0"/>
									<ScoreDistribution value="still" recordCount="0"/>
									<ScoreDistribution value="turn-left" recordCount="0"/>
									<ScoreDistribution value="turn-right" recordCount="0"/>
								</Node>
								<Node score="easy-turn-right" recordCount="4">
									<True/>
									<ScoreDistribution value="constant-speed" recordCount="0"/>
									<ScoreDistribution value="easy-turn-left" recordCount="0"/>
									<ScoreDistribution value="easy-turn-right" recordCount="2"/>
									<ScoreDistribution value="faster" recordCount="0"/>
									<ScoreDistribution value="slower" recordCount="2"/>
									<ScoreDistribution value="still" recordCount="0"/>
									<ScoreDistribution value="turn-left" recordCount="0"/>
									<ScoreDistribution value="turn-right" recordCount="0"/>
								</Node>
							</Node>
							<Node>
								<SimplePredicate field="double(lonVelocity)" operator="lessOrEqual" value="8.498849868774414"/>
								<Node score="easy-turn-right" recordCount="10">
									<SimplePredicate field="double(yVelocity)" operator="lessOrEqual" value="1.3044999837875366"/>
									<ScoreDistribution value="constant-speed" recordCount="0"/>
									<ScoreDistribution value="easy-turn-left" recordCount="0"/>
									<ScoreDistribution value="easy-turn-right" recordCount="10"/>
									<ScoreDistribution value="faster" recordCount="0"/>
									<ScoreDistribution value="slower" recordCount="0"/>
									<ScoreDistribution value="still" recordCount="0"/>
									<ScoreDistribution value="turn-left" recordCount="0"/>
									<ScoreDistribution value="turn-right" recordCount="0"/>
								</Node>
								<Node score="slower" recordCount="5">
									<True/>
									<ScoreDistribution value="constant-speed" recordCount="0"/>
									<ScoreDistribution value="easy-turn-left" recordCount="0"/>
									<ScoreDistribution value="easy-turn-right" recordCount="2"/>
									<ScoreDistribution value="faster" recordCount="0"/>
									<ScoreDistribution value="slower" recordCount="3"/>
									<ScoreDistribution value="still" recordCount="0"/>
									<ScoreDistribution value="turn-left" recordCount="0"/>
									<ScoreDistribution value="turn-right" recordCount="0"/>
								</Node>
							</Node>
							<Node score="slower" recordCount="9">
								<SimplePredicate field="double(xCenter)" operator="lessOrEqual" value="85.06554794311523"/>
								<ScoreDistribution value="constant-speed" recordCount="0"/>
								<ScoreDistribution value="easy-turn-left" recordCount="0"/>
								<ScoreDistribution value="easy-turn-right" recordCount="0"/>
								<ScoreDistribution value="faster" recordCount="0"/>
								<ScoreDistribution value="slower" recordCount="9"/>
								<ScoreDistribution value="still" recordCount="0"/>
								<ScoreDistribution value="turn-left" recordCount="0"/>
								<ScoreDistribution value="turn-right" recordCount="0"/>
							</Node>
							<Node score="slower" recordCount="4">
								<True/>
								<ScoreDistribution value="constant-speed" recordCount="0"/>
								<ScoreDistribution value="easy-turn-left" recordCount="0"/>
								<ScoreDistribution value="easy-turn-right" recordCount="1"/>
								<ScoreDistribution value="faster" recordCount="0"/>
								<ScoreDistribution value="slower" recordCount="3"/>
								<ScoreDistribution value="still" recordCount="0"/>
								<ScoreDistribution value="turn-left" recordCount="0"/>
								<ScoreDistribution value="turn-right" recordCount="0"/>
							</Node>
						</Node>
						<Node>
							<SimplePredicate field="double(latAcceleration)" operator="lessOrEqual" value="-3.711750030517578"/>
							<Node score="easy-turn-right" recordCount="5">
								<SimplePredicate field="double(3_xAcceleration)" operator="lessOrEqual" value="0.18220000341534615"/>
								<ScoreDistribution value="constant-speed" recordCount="0"/>
								<ScoreDistribution value="easy-turn-left" recordCount="0"/>
								<ScoreDistribution value="easy-turn-right" recordCount="5"/>
								<ScoreDistribution value="faster" recordCount="0"/>
								<ScoreDistribution value="slower" recordCount="0"/>
								<ScoreDistribution value="still" recordCount="0"/>
								<ScoreDistribution value="turn-left" recordCount="0"/>
								<ScoreDistribution value="turn-right" recordCount="0"/>
							</Node>
							<Node score="easy-turn-right" recordCount="4">
								<True/>
								<ScoreDistribution value="constant-speed" recordCount="0"/>
								<ScoreDistribution value="easy-turn-left" recordCount="0"/>
								<ScoreDistribution value="easy-turn-right" recordCount="2"/>
								<ScoreDistribution value="faster" recordCount="0"/>
								<ScoreDistribution value="slower" recordCount="1"/>
								<ScoreDistribution value="still" recordCount="0"/>
								<ScoreDistribution value="turn-left" recordCount="0"/>
								<ScoreDistribution value="turn-right" recordCount="1"/>
							</Node>
						</Node>
						<Node>
							<SimplePredicate field="double(3_distance)" operator="lessOrEqual" value="0.0030991343082860112"/>
							<Node score="easy-turn-right" recordCount="4">
								<SimplePredicate field="double(yCenter)" operator="lessOrEqual" value="-67.23455047607422"/>
								<ScoreDistribution value="constant-speed" recordCount="0"/>
								<ScoreDistribution value="easy-turn-left" recordCount="0"/>
								<ScoreDistribution value="easy-turn-right" recordCount="3"/>
								<ScoreDistribution value="faster" recordCount="1"/>
								<ScoreDistribution value="slower" recordCount="0"/>
								<ScoreDistribution value="still" recordCount="0"/>
								<ScoreDistribution value="turn-left" recordCount="0"/>
								<ScoreDistribution value="turn-right" recordCount="0"/>
							</Node>
							<Node score="slower" recordCount="17">
								<True/>
								<ScoreDistribution value="constant-speed" recordCount="0"/>
								<ScoreDistribution value="easy-turn-left" recordCount="0"/>
								<ScoreDistribution value="easy-turn-right" recordCount="3"/>
								<ScoreDistribution value="faster" recordCount="0"/>
								<ScoreDistribution value="slower" recordCount="14"/>
								<ScoreDistribution value="still" recordCount="0"/>
								<ScoreDistribution value="turn-left" recordCount="0"/>
								<ScoreDistribution value="turn-right" recordCount="0"/>
							</Node>
						</Node>
						<Node score="slower" recordCount="42">
							<True/>
							<ScoreDistribution value="constant-speed" recordCount="0"/>
							<ScoreDistribution value="easy-turn-left" recordCount="0"/>
							<ScoreDistribution value="easy-turn-right" recordCount="0"/>
							<ScoreDistribution value="faster" recordCount="0"/>
							<ScoreDistribution value="slower" recordCount="42"/>
							<ScoreDistribution value="still" recordCount="0"/>
							<ScoreDistribution value="turn-left" recordCount="0"/>
							<ScoreDistribution value="turn-right" recordCount="0"/>
						</Node>
					</Node>
					<Node>
						<SimplePredicate field="double(xVelocity)" operator="lessOrEqual" value="6.814349889755249"/>
						<Node>
							<SimplePredicate field="double(latAcceleration)" operator="lessOrEqual" value="-1.8130000233650208"/>
							<Node>
								<SimplePredicate field="double(2_yAcceleration)" operator="lessOrEqual" value="1.421750009059906"/>
								<Node score="easy-turn-right" recordCount="4">
									<SimplePredicate field="double(yCenter)" operator="lessOrEqual" value="-80.34295272827148"/>
									<ScoreDistribution value="constant-speed" recordCount="0"/>
									<ScoreDistribution value="easy-turn-left" recordCount="0"/>
									<ScoreDistribution value="easy-turn-right" recordCount="3"/>
									<ScoreDistribution value="faster" recordCount="0"/>
									<ScoreDistribution value="slower" recordCount="1"/>
									<ScoreDistribution value="still" recordCount="0"/>
									<ScoreDistribution value="turn-left" recordCount="0"/>
									<ScoreDistribution value="turn-right" recordCount="0"/>
								</Node>
								<Node score="easy-turn-right" recordCount="14">
									<True/>
									<ScoreDistribution value="constant-speed" recordCount="0"/>
									<ScoreDistribution value="easy-turn-left" recordCount="0"/>
									<ScoreDistribution value="easy-turn-right" recordCount="14"/>
									<ScoreDistribution value="faster" recordCount="0"/>
									<ScoreDistribution value="slower" recordCount="0"/>
									<ScoreDistribution value="still" recordCount="0"/>
									<ScoreDistribution value="turn-left" recordCount="0"/>
									<ScoreDistribution value="turn-right" recordCount="0"/>
								</Node>
							</Node>
							<Node score="slower" recordCount="4">
								<SimplePredicate field="double(lonAcceleration)" operator="lessOrEqual" value="0.6635500192642212"/>
								<ScoreDistribution value="constant-speed" recordCount="0"/>
								<ScoreDistribution value="easy-turn-left" recordCount="0"/>
								<ScoreDistribution value="easy-turn-right" recordCount="0"/>
								<ScoreDistribution value="faster" recordCount="0"/>
								<ScoreDistribution value="slower" recordCount="4"/>
								<ScoreDistribution value="still" recordCount="0"/>
								<ScoreDistribution value="turn-left" recordCount="0"/>
								<ScoreDistribution value="turn-right" recordCount="0"/>
							</Node>
							<Node score="easy-turn-right" recordCount="4">
								<True/>
								<ScoreDistribution value="constant-speed" recordCount="0"/>
								<ScoreDistribution value="easy-turn-left" recordCount="0"/>
								<ScoreDistribution value="easy-turn-right" recordCount="2"/>
								<ScoreDistribution value="faster" recordCount="0"/>
								<ScoreDistribution value="slower" recordCount="2"/>
								<ScoreDistribution value="still" recordCount="0"/>
								<ScoreDistribution value="turn-left" recordCount="0"/>
								<ScoreDistribution value="turn-right" recordCount="0"/>
							</Node>
						</Node>
						<Node score="easy-turn-right" recordCount="4">
							<SimplePredicate field="double(xAcceleration)" operator="lessOrEqual" value="-0.01785000041127205"/>
							<ScoreDistribution value="constant-speed" recordCount="0"/>
							<ScoreDistribution value="easy-turn-left" recordCount="0"/>
							<ScoreDistribution value="easy-turn-right" recordCount="2"/>
							<ScoreDistribution value="faster" recordCount="0"/>
							<ScoreDistribution value="slower" recordCount="2"/>
							<ScoreDistribution value="still" recordCount="0"/>
							<ScoreDistribution value="turn-left" recordCount="0"/>
							<ScoreDistribution value="turn-right" recordCount="0"/>
						</Node>
						<Node score="slower" recordCount="17">
							<True/>
							<ScoreDistribution value="constant-speed" recordCount="0"/>
							<ScoreDistribution value="easy-turn-left" recordCount="0"/>
							<ScoreDistribution value="easy-turn-right" recordCount="0"/>
							<ScoreDistribution value="faster" recordCount="0"/>
							<ScoreDistribution value="slower" recordCount="17"/>
							<ScoreDistribution value="still" recordCount="0"/>
							<ScoreDistribution value="turn-left" recordCount="0"/>
							<ScoreDistribution value="turn-right" recordCount="0"/>
						</Node>
					</Node>
					<Node>
						<SimplePredicate field="double(latAcceleration)" operator="lessOrEqual" value="-2.6227500438690186"/>
						<Node>
							<SimplePredicate field="double(xVelocity)" operator="lessOrEqual" value="8.023849964141846"/>
							<Node score="slower" recordCount="4">
								<SimplePredicate field="double(width)" operator="lessOrEqual" value="1.9629999995231628"/>
								<ScoreDistribution value="constant-speed" recordCount="0"/>
								<ScoreDistribution value="easy-turn-left" recordCount="0"/>
								<ScoreDistribution value="easy-turn-right" recordCount="1"/>
								<ScoreDistribution value="faster" recordCount="0"/>
								<ScoreDistribution value="slower" recordCount="3"/>
								<ScoreDistribution value="still" recordCount="0"/>
								<ScoreDistribution value="turn-left" recordCount="0"/>
								<ScoreDistribution value="turn-right" recordCount="0"/>
							</Node>
							<Node score="easy-turn-right" recordCount="6">
								<True/>
								<ScoreDistribution value="constant-speed" recordCount="0"/>
								<ScoreDistribution value="easy-turn-left" recordCount="0"/>
								<ScoreDistribution value="easy-turn-right" recordCount="6"/>
								<ScoreDistribution value="faster" recordCount="0"/>
								<ScoreDistribution value="slower" recordCount="0"/>
								<ScoreDistribution value="still" recordCount="0"/>
								<ScoreDistribution value="turn-left" recordCount="0"/>
								<ScoreDistribution value="turn-right" recordCount="0"/>
							</Node>
						</Node>
						<Node score="easy-turn-right" recordCount="4">
							<SimplePredicate field="double(length)" operator="lessOrEqual" value="3.8055999279022217"/>
							<ScoreDistribution value="constant-speed" recordCount="0"/>
							<ScoreDistribution value="easy-turn-left" recordCount="0"/>
							<ScoreDistribution value="easy-turn-right" recordCount="2"/>
							<ScoreDistribution value="faster" recordCount="0"/>
							<ScoreDistribution value="slower" recordCount="2"/>
							<ScoreDistribution value="still" recordCount="0"/>
							<ScoreDistribution value="turn-left" recordCount="0"/>
							<ScoreDistribution value="turn-right" recordCount="0"/>
						</Node>
						<Node score="slower" recordCount="50">
							<True/>
							<ScoreDistribution value="constant-speed" recordCount="0"/>
							<ScoreDistribution value="easy-turn-left" recordCount="0"/>
							<ScoreDistribution value="easy-turn-right" recordCount="1"/>
							<ScoreDistribution value="faster" recordCount="0"/>
							<ScoreDistribution value="slower" recordCount="49"/>
							<ScoreDistribution value="still" recordCount="0"/>
							<ScoreDistribution value="turn-left" recordCount="0"/>
							<ScoreDistribution value="turn-right" recordCount="0"/>
						</Node>
					</Node>
					<Node>
						<SimplePredicate field="double(xCenter)" operator="lessOrEqual" value="84.05630111694336"/>
						<Node score="easy-turn-right" recordCount="5">
							<SimplePredicate field="double(yCenter)" operator="lessOrEqual" value="-67.25234985351562"/>
							<ScoreDistribution value="constant-speed" recordCount="0"/>
							<ScoreDistribution value="easy-turn-left" recordCount="0"/>
							<ScoreDistribution value="easy-turn-right" recordCount="3"/>
							<ScoreDistribution value="faster" recordCount="0"/>
							<ScoreDistribution value="slower" recordCount="2"/>
							<ScoreDistribution value="still" recordCount="0"/>
							<ScoreDistribution value="turn-left" recordCount="0"/>
							<ScoreDistribution value="turn-right" recordCount="0"/>
						</Node>
						<Node score="slower" recordCount="39">
							<True/>
							<ScoreDistribution value="constant-speed" recordCount="0"/>
							<ScoreDistribution value="easy-turn-left" recordCount="0"/>
							<ScoreDistribution value="easy-turn-right" recordCount="1"/>
							<ScoreDistribution value="faster" recordCount="1"/>
							<ScoreDistribution value="slower" recordCount="37"/>
							<ScoreDistribution value="still" recordCount="0"/>
							<ScoreDistribution value="turn-left" recordCount="0"/>
							<ScoreDistribution value="turn-right" recordCount="0"/>
						</Node>
					</Node>
					<Node score="slower" recordCount="29">
						<SimplePredicate field="double(lonAcceleration)" operator="lessOrEqual" value="0.2820499986410141"/>
						<ScoreDistribution value="constant-speed" recordCount="0"/>
						<ScoreDistribution value="easy-turn-left" recordCount="0"/>
						<ScoreDistribution value="easy-turn-right" recordCount="2"/>
						<ScoreDistribution value="faster" recordCount="2"/>
						<ScoreDistribution value="slower" recordCount="25"/>
						<ScoreDistribution value="still" recordCount="0"/>
						<ScoreDistribution value="turn-left" recordCount="0"/>
						<ScoreDistribution value="turn-right" recordCount="0"/>
					</Node>
					<Node score="slower" recordCount="594">
						<True/>
						<ScoreDistribution value="constant-speed" recordCount="0"/>
						<ScoreDistribution value="easy-turn-left" recordCount="0"/>
						<ScoreDistribution value="easy-turn-right" recordCount="1"/>
						<ScoreDistribution value="faster" recordCount="2"/>
						<ScoreDistribution value="slower" recordCount="591"/>
						<ScoreDistribution value="still" recordCount="0"/>
						<ScoreDistribution value="turn-left" recordCount="0"/>
						<ScoreDistribution value="turn-right" recordCount="0"/>
					</Node>
				</Node>
				<Node>
					<SimplePredicate field="double(lonAcceleration)" operator="lessOrEqual" value="0.32645000517368317"/>
					<Node>
						<SimplePredicate field="double(latAcceleration)" operator="lessOrEqual" value="-1.8482499718666077"/>
						<Node>
							<SimplePredicate field="double(latVelocity)" operator="lessOrEqual" value="-0.5961500108242035"/>
							<Node>
								<SimplePredicate field="double(xCenter)" operator="lessOrEqual" value="106.27365112304688"/>
								<Node>
									<SimplePredicate field="double(latAcceleration)" operator="lessOrEqual" value="-4.014400005340576"/>
									<Node score="turn-right" recordCount="4">
										<SimplePredicate field="double(3_yCenter)" operator="lessOrEqual" value="-55.19744873046875"/>
										<ScoreDistribution value="constant-speed" recordCount="0"/>
										<ScoreDistribution value="easy-turn-left" recordCount="0"/>
										<ScoreDistribution value="easy-turn-right" recordCount="0"/>
										<ScoreDistribution value="faster" recordCount="0"/>
										<ScoreDistribution value="slower" recordCount="0"/>
										<ScoreDistribution value="still" recordCount="0"/>
										<ScoreDistribution value="turn-left" recordCount="0"/>
										<ScoreDistribution value="turn-right" recordCount="4"/>
									</Node>
									<Node score="turn-right" recordCount="4">
										<True/>
										<ScoreDistribution value="constant-speed" recordCount="0"/>
										<ScoreDistribution value="easy-turn-left" recordCount="0"/>
										<ScoreDistribution value="easy-turn-right" recordCount="1"/>
										<ScoreDistribution value="faster" recordCount="0"/>
										<ScoreDistribution value="slower" recordCount="0"/>
										<ScoreDistribution value="still" recordCount="0"/>
										<ScoreDistribution value="turn-left" recordCount="0"/>
										<ScoreDistribution value="turn-right" recordCount="3"/>
									</Node>
								</Node>
								<Node score="easy-turn-right" recordCount="42">
									<SimplePredicate field="double(heading)" operator="lessOrEqual" value="264.1376037597656"/>
									<ScoreDistribution value="constant-speed" recordCount="0"/>
									<ScoreDistribution value="easy-turn-left" recordCount="0"/>
									<ScoreDistribution value="easy-turn-right" recordCount="42"/>
									<ScoreDistribution value="faster" recordCount="0"/>
									<ScoreDistribution value="slower" recordCount="0"/>
									<ScoreDistribution value="still" recordCount="0"/>
									<ScoreDistribution value="turn-left" recordCount="0"/>
									<ScoreDistribution value="turn-right" recordCount="0"/>
								</Node>
								<Node score="easy-turn-right" recordCount="7">
									<SimplePredicate field="double(2_yVelocity)" operator="lessOrEqual" value="1.0544999949634075"/>
									<ScoreDistribution value="constant-speed" recordCount="0"/>
									<ScoreDistribution value="easy-turn-left" recordCount="0"/>
									<ScoreDistribution value="easy-turn-right" recordCount="7"/>
									<ScoreDistribution value="faster" recordCount="0"/>
									<ScoreDistribution value="slower" recordCount="0"/>
									<ScoreDistribution value="still" recordCount="0"/>
									<ScoreDistribution value="turn-left" recordCount="0"/>
									<ScoreDistribution value="turn-right" recordCount="0"/>
								</Node>
								<Node score="easy-turn-right" recordCount="4">
									<True/>
									<ScoreDistribution value="constant-speed" recordCount="0"/>
									<ScoreDistribution value="easy-turn-left" recordCount="0"/>
									<ScoreDistribution value="easy-turn-right" recordCount="2"/>
									<ScoreDistribution value="faster" recordCount="0"/>
									<ScoreDistribution value="slower" recordCount="2"/>
									<ScoreDistribution value="still" recordCount="0"/>
									<ScoreDistribution value="turn-left" recordCount="0"/>
									<ScoreDistribution value="turn-right" recordCount="0"/>
								</Node>
							</Node>
							<Node>
								<SimplePredicate field="double(lonAcceleration)" operator="lessOrEqual" value="-0.0471000000834465"/>
								<Node>
									<SimplePredicate field="double(latAcceleration)" operator="lessOrEqual" value="-2.7296500205993652"/>
									<Node score="turn-right" recordCount="121">
										<SimplePredicate field="double(yCenter)" operator="lessOrEqual" value="-59.707048416137695"/>
										<ScoreDistribution value="constant-speed" recordCount="0"/>
										<ScoreDistribution value="easy-turn-left" recordCount="0"/>
										<ScoreDistribution value="easy-turn-right" recordCount="7"/>
										<ScoreDistribution value="faster" recordCount="0"/>
										<ScoreDistribution value="slower" recordCount="0"/>
										<ScoreDistribution value="still" recordCount="0"/>
										<ScoreDistribution value="turn-left" recordCount="0"/>
										<ScoreDistribution value="turn-right" recordCount="114"/>
									</Node>
									<Node score="easy-turn-right" recordCount="4">
										<True/>
										<ScoreDistribution value="constant-speed" recordCount="0"/>
										<ScoreDistribution value="easy-turn-left" recordCount="0"/>
										<ScoreDistribution value="easy-turn-right" recordCount="3"/>
										<ScoreDistribution value="faster" recordCount="0"/>
										<ScoreDistribution value="slower" recordCount="0"/>
										<ScoreDistribution value="still" recordCount="0"/>
										<ScoreDistribution value="turn-left" recordCount="0"/>
										<ScoreDistribution value="turn-right" recordCount="1"/>
									</Node>
								</Node>
								<Node score="turn-right" recordCount="6">
									<SimplePredicate field="double(1_xCenter)" operator="lessOrEqual" value="125.73530197143555"/>
									<ScoreDistribution value="constant-speed" recordCount="0"/>
									<ScoreDistribution value="easy-turn-left" recordCount="0"/>
									<ScoreDistribution value="easy-turn-right" recordCount="1"/>
									<ScoreDistribution value="faster" recordCount="0"/>
									<ScoreDistribution value="slower" recordCount="0"/>
									<ScoreDistribution value="still" recordCount="0"/>
									<ScoreDistribution value="turn-left" recordCount="0"/>
									<ScoreDistribution value="turn-right" recordCount="5"/>
								</Node>
								<Node score="easy-turn-right" recordCount="8">
									<True/>
									<ScoreDistribution value="constant-speed" recordCount="0"/>
									<ScoreDistribution value="easy-turn-left" recordCount="0"/>
									<ScoreDistribution value="easy-turn-right" recordCount="8"/>
									<ScoreDistribution value="faster" recordCount="0"/>
									<ScoreDistribution value="slower" recordCount="0"/>
									<ScoreDistribution value="still" recordCount="0"/>
									<ScoreDistribution value="turn-left" recordCount="0"/>
									<ScoreDistribution value="turn-right" recordCount="0"/>
								</Node>
							</Node>
							<Node>
								<SimplePredicate field="double(2_xVelocity)" operator="lessOrEqual" value="-0.019200000446289778"/>
								<Node score="turn-right" recordCount="13">
									<SimplePredicate field="double(latAcceleration)" operator="lessOrEqual" value="-3.092199921607971"/>
									<ScoreDistribution value="constant-speed" recordCount="0"/>
									<ScoreDistribution value="easy-turn-left" recordCount="0"/>
									<ScoreDistribution value="easy-turn-right" recordCount="1"/>
									<ScoreDistribution value="faster" recordCount="0"/>
									<ScoreDistribution value="slower" recordCount="0"/>
									<ScoreDistribution value="still" recordCount="0"/>
									<ScoreDistribution value="turn-left" recordCount="0"/>
									<ScoreDistribution value="turn-right" recordCount="12"/>
								</Node>
								<Node score="easy-turn-right" recordCount="6">
									<True/>
									<ScoreDistribution value="constant-speed" recordCount="0"/>
									<ScoreDistribution value="easy-turn-left" recordCount="0"/>
									<ScoreDistribution value="easy-turn-right" recordCount="4"/>
									<ScoreDistribution value="faster" recordCount="0"/>
									<ScoreDistribution value="slower" recordCount="0"/>
									<ScoreDistribution value="still" recordCount="0"/>
									<ScoreDistribution value="turn-left" recordCount="0"/>
									<ScoreDistribution value="turn-right" recordCount="2"/>
								</Node>
							</Node>
							<Node score="turn-right" recordCount="4">
								<SimplePredicate field="double(latVelocity)" operator="lessOrEqual" value="-0.6975499987602234"/>
								<ScoreDistribution value="constant-speed" recordCount="0"/>
								<ScoreDistribution value="easy-turn-left" recordCount="0"/>
								<ScoreDistribution value="easy-turn-right" recordCount="1"/>
								<ScoreDistribution value="faster" recordCount="0"/>
								<ScoreDistribution value="slower" recordCount="0"/>
								<ScoreDistribution value="still" recordCount="0"/>
								<ScoreDistribution value="turn-left" recordCount="0"/>
								<ScoreDistribution value="turn-right" recordCount="3"/>
							</Node>
							<Node score="easy-turn-right" recordCount="17">
								<True/>
								<ScoreDistribution value="constant-speed" recordCount="0"/>
								<ScoreDistribution value="easy-turn-left" recordCount="0"/>
								<ScoreDistribution value="easy-turn-right" recordCount="16"/>
								<ScoreDistribution value="faster" recordCount="0"/>
								<ScoreDistribution value="slower" recordCount="0"/>
								<ScoreDistribution value="still" recordCount="0"/>
								<ScoreDistribution value="turn-left" recordCount="0"/>
								<ScoreDistribution value="turn-right" recordCount="1"/>
							</Node>
						</Node>
						<Node>
							<SimplePredicate field="double(latAcceleration)" operator="lessOrEqual" value="-4.811049938201904"/>
							<Node>
								<SimplePredicate field="double(latVelocity)" operator="lessOrEqual" value="-0.42225000262260437"/>
								<Node>
									<SimplePredicate field="double(lonAcceleration)" operator="lessOrEqual" value="0.17864999920129776"/>
									<Node score="turn-right" recordCount="30">
										<SimplePredicate field="double(trackLifetime)" operator="lessOrEqual" value="375.0"/>
										<ScoreDistribution value="constant-speed" recordCount="0"/>
										<ScoreDistribution value="easy-turn-left" recordCount="0"/>
										<ScoreDistribution value="easy-turn-right" recordCount="1"/>
										<ScoreDistribution value="faster" recordCount="0"/>
										<ScoreDistribution value="slower" recordCount="0"/>
										<ScoreDistribution value="still" recordCount="0"/>
										<ScoreDistribution value="turn-left" recordCount="0"/>
										<ScoreDistribution value="turn-right" recordCount="29"/>
									</Node>
									<Node score="easy-turn-right" recordCount="5">
										<True/>
										<ScoreDistribution value="constant-speed" recordCount="0"/>
										<ScoreDistribution value="easy-turn-left" recordCount="0"/>
										<ScoreDistribution value="easy-turn-right" recordCount="3"/>
										<ScoreDistribution value="faster" recordCount="0"/>
										<ScoreDistribution value="slower" recordCount="0"/>
										<ScoreDistribution value="still" recordCount="0"/>
										<ScoreDistribution value="turn-left" recordCount="0"/>
										<ScoreDistribution value="turn-right" recordCount="2"/>
									</Node>
								</Node>
								<Node score="easy-turn-right" recordCount="5">
									<True/>
									<ScoreDistribution value="constant-speed" recordCount="0"/>
									<ScoreDistribution value="easy-turn-left" recordCount="0"/>
									<ScoreDistribution value="easy-turn-right" recordCount="4"/>
									<ScoreDistribution value="faster" recordCount="0"/>
									<ScoreDistribution value="slower" recordCount="0"/>
									<ScoreDistribution value="still" recordCount="0"/>
									<ScoreDistribution value="turn-left" recordCount="0"/>
									<ScoreDistribution value="turn-right" recordCount="1"/>
								</Node>
							</Node>
							<Node>
								<SimplePredicate field="double(xVelocity)" operator="lessOrEqual" value="-4.833050012588501"/>
								<Node score="easy-turn-right" recordCount="6">
									<SimplePredicate field="double(3_yCenter)" operator="lessOrEqual" value="-51.5856990814209"/>
									<ScoreDistribution value="constant-speed" recordCount="0"/>
									<ScoreDistribution value="easy-turn-left" recordCount="0"/>
									<ScoreDistribution value="easy-turn-right" recordCount="3"/>
									<ScoreDistribution value="faster" recordCount="0"/>
									<ScoreDistribution value="slower" recordCount="0"/>
									<ScoreDistribution value="still" recordCount="0"/>
									<ScoreDistribution value="turn-left" recordCount="0"/>
									<ScoreDistribution value="turn-right" recordCount="3"/>
								</Node>
								<Node score="easy-turn-right" recordCount="18">
									<True/>
									<ScoreDistribution value="constant-speed" recordCount="0"/>
									<ScoreDistribution value="easy-turn-left" recordCount="0"/>
									<ScoreDistribution value="easy-turn-right" recordCount="18"/>
									<ScoreDistribution value="faster" recordCount="0"/>
									<ScoreDistribution value="slower" recordCount="0"/>
									<ScoreDistribution value="still" recordCount="0"/>
									<ScoreDistribution value="turn-left" recordCount="0"/>
									<ScoreDistribution value="turn-right" recordCount="0"/>
								</Node>
							</Node>
							<Node score="turn-right" recordCount="26">
								<SimplePredicate field="double(latAcceleration)" operator="lessOrEqual" value="-5.123950004577637"/>
								<ScoreDistribution value="constant-speed" recordCount="0"/>
								<ScoreDistribution value="easy-turn-left" recordCount="0"/>
								<ScoreDistribution value="easy-turn-right" recordCount="6"/>
								<ScoreDistribution value="faster" recordCount="0"/>
								<ScoreDistribution value="slower" recordCount="0"/>
								<ScoreDistribution value="still" recordCount="0"/>
								<ScoreDistribution value="turn-left" recordCount="0"/>
								<ScoreDistribution value="turn-right" recordCount="20"/>
							</Node>
							<Node score="easy-turn-right" recordCount="29">
								<True/>
								<ScoreDistribution value="constant-speed" recordCount="0"/>
								<ScoreDistribution value="easy-turn-left" recordCount="0"/>
								<ScoreDistribution value="easy-turn-right" recordCount="19"/>
								<ScoreDistribution value="faster" recordCount="0"/>
								<ScoreDistribution value="slower" recordCount="0"/>
								<ScoreDistribution value="still" recordCount="0"/>
								<ScoreDistribution value="turn-left" recordCount="0"/>
								<ScoreDistribution value="turn-right" recordCount="10"/>
							</Node>
						</Node>
						<Node>
							<SimplePredicate field="double(xCenter)" operator="lessOrEqual" value="99.38190078735352"/>
							<Node>
								<SimplePredicate field="double(yVelocity)" operator="lessOrEqual" value="-7.581549882888794"/>
								<Node score="easy-turn-right" recordCount="1226">
									<SimplePredicate field="double(latAcceleration)" operator="lessOrEqual" value="-2.6029999256134033"/>
									<ScoreDistribution value="constant-speed" recordCount="0"/>
									<ScoreDistribution value="easy-turn-left" recordCount="0"/>
									<ScoreDistribution value="easy-turn-right" recordCount="1189"/>
									<ScoreDistribution value="faster" recordCount="3"/>
									<ScoreDistribution value="slower" recordCount="29"/>
									<ScoreDistribution value="still" recordCount="0"/>
									<ScoreDistribution value="turn-left" recordCount="0"/>
									<ScoreDistribution value="turn-right" recordCount="5"/>
								</Node>
								<Node score="slower" recordCount="196">
									<True/>
									<ScoreDistribution value="constant-speed" recordCount="0"/>
									<ScoreDistribution value="easy-turn-left" recordCount="0"/>
									<ScoreDistribution value="easy-turn-right" recordCount="41"/>
									<ScoreDistribution value="faster" recordCount="36"/>
									<ScoreDistribution value="slower" recordCount="119"/>
									<ScoreDistribution value="still" recordCount="0"/>
									<ScoreDistribution value="turn-left" recordCount="0"/>
									<ScoreDistribution value="turn-right" recordCount="0"/>
								</Node>
							</Node>
							<Node score="easy-turn-right" recordCount="12998">
								<SimplePredicate field="double(latAcceleration)" operator="lessOrEqual" value="-2.1370500326156616"/>
								<ScoreDistribution value="constant-speed" recordCount="0"/>
								<ScoreDistribution value="easy-turn-left" recordCount="0"/>
								<ScoreDistribution value="easy-turn-right" recordCount="12818"/>
								<ScoreDistribution value="faster" recordCount="30"/>
								<ScoreDistribution value="slower" recordCount="124"/>
								<ScoreDistribution value="still" recordCount="0"/>
								<ScoreDistribution value="turn-left" recordCount="0"/>
								<ScoreDistribution value="turn-right" recordCount="26"/>
							</Node>
							<Node score="easy-turn-right" recordCount="2560">
								<True/>
								<ScoreDistribution value="constant-speed" recordCount="0"/>
								<ScoreDistribution value="easy-turn-left" recordCount="0"/>
								<ScoreDistribution value="easy-turn-right" recordCount="2357"/>
								<ScoreDistribution value="faster" recordCount="63"/>
								<ScoreDistribution value="slower" recordCount="140"/>
								<ScoreDistribution value="still" recordCount="0"/>
								<ScoreDistribution value="turn-left" recordCount="0"/>
								<ScoreDistribution value="turn-right" recordCount="0"/>
							</Node>
						</Node>
						<Node>
							<SimplePredicate field="double(yCenter)" operator="lessOrEqual" value="-47.16389846801758"/>
							<Node score="easy-turn-right" recordCount="111">
								<SimplePredicate field="double(latVelocity)" operator="lessOrEqual" value="-0.49480000138282776"/>
								<ScoreDistribution value="constant-speed" recordCount="0"/>
								<ScoreDistribution value="easy-turn-left" recordCount="0"/>
								<ScoreDistribution value="easy-turn-right" recordCount="69"/>
								<ScoreDistribution value="faster" recordCount="0"/>
								<ScoreDistribution value="slower" recordCount="3"/>
								<ScoreDistribution value="still" recordCount="0"/>
								<ScoreDistribution value="turn-left" recordCount="0"/>
								<ScoreDistribution value="turn-right" recordCount="39"/>
							</Node>
							<Node score="easy-turn-right" recordCount="1553">
								<True/>
								<ScoreDistribution value="constant-speed" recordCount="0"/>
								<ScoreDistribution value="easy-turn-left" recordCount="0"/>
								<ScoreDistribution value="easy-turn-right" recordCount="1462"/>
								<ScoreDistribution value="faster" recordCount="12"/>
								<ScoreDistribution value="slower" recordCount="59"/>
								<ScoreDistribution value="still" recordCount="0"/>
								<ScoreDistribution value="turn-left" recordCount="0"/>
								<ScoreDistribution value="turn-right" recordCount="20"/>
							</Node>
						</Node>
						<Node score="easy-turn-right" recordCount="311">
							<SimplePredicate field="double(yAcceleration)" operator="lessOrEqual" value="-0.3214000016450882"/>
							<ScoreDistribution value="constant-speed" recordCount="0"/>
							<ScoreDistribution value="easy-turn-left" recordCount="0"/>
							<ScoreDistribution value="easy-turn-right" recordCount="279"/>
							<ScoreDistribution value="faster" recordCount="22"/>
							<ScoreDistribution value="slower" recordCount="10"/>
							<ScoreDistribution value="still" recordCount="0"/>
							<ScoreDistribution value="turn-left" recordCount="0"/>
							<ScoreDistribution value="turn-right" recordCount="0"/>
						</Node>
						<Node score="slower" recordCount="332">
							<True/>
							<ScoreDistribution value="constant-speed" recordCount="0"/>
							<ScoreDistribution value="easy-turn-left" recordCount="0"/>
							<ScoreDistribution value="easy-turn-right" recordCount="122"/>
							<ScoreDistribution value="faster" recordCount="36"/>
							<ScoreDistribution value="slower" recordCount="174"/>
							<ScoreDistribution value="still" recordCount="0"/>
							<ScoreDistribution value="turn-left" recordCount="0"/>
							<ScoreDistribution value="turn-right" recordCount="0"/>
						</Node>
					</Node>
					<Node>
						<SimplePredicate field="double(yVelocity)" operator="lessOrEqual" value="6.568650007247925"/>
						<Node>
							<SimplePredicate field="double(yVelocity)" operator="lessOrEqual" value="-6.652300119400024"/>
							<Node>
								<SimplePredicate field="double(lonAcceleration)" operator="lessOrEqual" value="0.09789999946951866"/>
								<Node>
									<SimplePredicate field="double(heading)" operator="lessOrEqual" value="303.19105529785156"/>
									<Node score="slower" recordCount="13">
										<SimplePredicate field="double(lonVelocity)" operator="lessOrEqual" value="7.120800018310547"/>
										<ScoreDistribution value="constant-speed" recordCount="0"/>
										<ScoreDistribution value="easy-turn-left" recordCount="0"/>
										<ScoreDistribution value="easy-turn-right" recordCount="1"/>
										<ScoreDistribution value="faster" recordCount="5"/>
										<ScoreDistribution value="slower" recordCount="7"/>
										<ScoreDistribution value="still" recordCount="0"/>
										<ScoreDistribution value="turn-left" recordCount="0"/>
										<ScoreDistribution value="turn-right" recordCount="0"/>
									</Node>
									<Node score="faster" recordCount="31">
										<True/>
										<ScoreDistribution value="constant-speed" recordCount="0"/>
										<ScoreDistribution value="easy-turn-left" recordCount="0"/>
										<ScoreDistribution value="easy-turn-right" recordCount="2"/>
										<ScoreDistribution value="faster" recordCount="27"/>
										<ScoreDistribution value="slower" recordCount="2"/>
										<ScoreDistribution value="still" recordCount="0"/>
										<ScoreDistribution value="turn-left" recordCount="0"/>
										<ScoreDistribution value="turn-right" recordCount="0"/>
									</Node>
								</Node>
								<Node score="easy-turn-right" recordCount="4">
									<True/>
									<ScoreDistribution value="constant-speed" recordCount="0"/>
									<ScoreDistribution value="easy-turn-left" recordCount="0"/>
									<ScoreDistribution value="easy-turn-right" recordCount="4"/>
									<ScoreDistribution value="faster" recordCount="0"/>
									<ScoreDistribution value="slower" recordCount="0"/>
									<ScoreDistribution value="still" recordCount="0"/>
									<ScoreDistribution value="turn-left" recordCount="0"/>
									<ScoreDistribution value="turn-right" recordCount="0"/>
								</Node>
							</Node>
							<Node score="faster" recordCount="4">
								<SimplePredicate field="double(yVelocity)" operator="lessOrEqual" value="-8.661450386047363"/>
								<ScoreDistribution value="constant-speed" recordCount="0"/>
								<ScoreDistribution value="easy-turn-left" recordCount="0"/>
								<ScoreDistribution value="easy-turn-right" recordCount="0"/>
								<ScoreDistribution value="faster" recordCount="3"/>
								<ScoreDistribution value="slower" recordCount="1"/>
								<ScoreDistribution value="still" recordCount="0"/>
								<ScoreDistribution value="turn-left" recordCount="0"/>
								<ScoreDistribution value="turn-right" recordCount="0"/>
							</Node>
							<Node score="faster" recordCount="4">
								<SimplePredicate field="double(xAcceleration)" operator="lessOrEqual" value="1.5940499901771545"/>
								<ScoreDistribution value="constant-speed" recordCount="0"/>
								<ScoreDistribution value="easy-turn-left" recordCount="0"/>
								<ScoreDistribution value="easy-turn-right" recordCount="1"/>
								<ScoreDistribution value="faster" recordCount="2"/>
								<ScoreDistribution value="slower" recordCount="1"/>
								<ScoreDistribution value="still" recordCount="0"/>
								<ScoreDistribution value="turn-left" recordCount="0"/>
								<ScoreDistribution value="turn-right" recordCount="0"/>
							</Node>
							<Node score="slower" recordCount="44">
								<True/>
								<ScoreDistribution value="constant-speed" recordCount="0"/>
								<ScoreDistribution value="easy-turn-left" recordCount="0"/>
								<ScoreDistribution value="easy-turn-right" recordCount="0"/>
								<ScoreDistribution value="faster" recordCount="1"/>
								<ScoreDistribution value="slower" recordCount="43"/>
								<ScoreDistribution value="still" recordCount="0"/>
								<ScoreDistribution value="turn-left" recordCount="0"/>
								<ScoreDistribution value="turn-right" recordCount="0"/>
							</Node>
						</Node>
						<Node>
							<SimplePredicate field="double(xVelocity)" operator="lessOrEqual" value="-6.024799823760986"/>
							<Node>
								<SimplePredicate field="double(trackLifetime)" operator="lessOrEqual" value="162.5"/>
								<Node score="easy-turn-right" recordCount="118">
									<SimplePredicate field="double(2_yVelocity)" operator="lessOrEqual" value="8.781700134277344"/>
									<ScoreDistribution value="constant-speed" recordCount="0"/>
									<ScoreDistribution value="easy-turn-left" recordCount="0"/>
									<ScoreDistribution value="easy-turn-right" recordCount="85"/>
									<ScoreDistribution value="faster" recordCount="23"/>
									<ScoreDistribution value="slower" recordCount="10"/>
									<ScoreDistribution value="still" recordCount="0"/>
									<ScoreDistribution value="turn-left" recordCount="0"/>
									<ScoreDistribution value="turn-right" recordCount="0"/>
								</Node>
								<Node score="faster" recordCount="4">
									<True/>
									<ScoreDistribution value="constant-speed" recordCount="0"/>
									<ScoreDistribution value="easy-turn-left" recordCount="0"/>
									<ScoreDistribution value="easy-turn-right" recordCount="0"/>
									<ScoreDistribution value="faster" recordCount="4"/>
									<ScoreDistribution value="slower" recordCount="0"/>
									<ScoreDistribution value="still" recordCount="0"/>
									<ScoreDistribution value="turn-left" recordCount="0"/>
									<ScoreDistribution value="turn-right" recordCount="0"/>
								</Node>
							</Node>
							<Node score="easy-turn-right" recordCount="54">
								<SimplePredicate field="double(lonAcceleration)" operator="lessOrEqual" value="0.0859999991953373"/>
								<ScoreDistribution value="constant-speed" recordCount="0"/>
								<ScoreDistribution value="easy-turn-left" recordCount="0"/>
								<ScoreDistribution value="easy-turn-right" recordCount="20"/>
								<ScoreDistribution value="faster" recordCount="19"/>
								<ScoreDistribution value="slower" recordCount="15"/>
								<ScoreDistribution value="still" recordCount="0"/>
								<ScoreDistribution value="turn-left" recordCount="0"/>
								<ScoreDistribution value="turn-right" recordCount="0"/>
							</Node>
							<Node score="slower" recordCount="51">
								<True/>
								<ScoreDistribution value="constant-speed" recordCount="0"/>
								<ScoreDistribution value="easy-turn-left" recordCount="0"/>
								<ScoreDistribution value="easy-turn-right" recordCount="7"/>
								<ScoreDistribution value="faster" recordCount="2"/>
								<ScoreDistribution value="slower" recordCount="42"/>
								<ScoreDistribution value="still" recordCount="0"/>
								<ScoreDistribution value="turn-left" recordCount="0"/>
								<ScoreDistribution value="turn-right" recordCount="0"/>
							</Node>
						</Node>
						<Node>
							<SimplePredicate field="double(lonAcceleration)" operator="lessOrEqual" value="-1.1804500222206116"/>
							<Node score="easy-turn-right" recordCount="5">
								<SimplePredicate field="double(latVelocity)" operator="lessOrEqual" value="-0.3046000003814697"/>
								<ScoreDistribution value="constant-speed" recordCount="0"/>
								<ScoreDistribution value="easy-turn-left" recordCount="0"/>
								<ScoreDistribution value="easy-turn-right" recordCount="4"/>
								<ScoreDistribution value="faster" recordCount="1"/>
								<ScoreDistribution value="slower" recordCount="0"/>
								<ScoreDistribution value="still" recordCount="0"/>
								<ScoreDistribution value="turn-left" recordCount="0"/>
								<ScoreDistribution value="turn-right" recordCount="0"/>
							</Node>
							<Node score="faster" recordCount="20">
								<True/>
								<ScoreDistribution value="constant-speed" recordCount="0"/>
								<ScoreDistribution value="easy-turn-left" recordCount="0"/>
								<ScoreDistribution value="easy-turn-right" recordCount="1"/>
								<ScoreDistribution value="faster" recordCount="19"/>
								<ScoreDistribution value="slower" recordCount="0"/>
								<ScoreDistribution value="still" recordCount="0"/>
								<ScoreDistribution value="turn-left" recordCount="0"/>
								<ScoreDistribution value="turn-right" recordCount="0"/>
							</Node>
						</Node>
						<Node score="easy-turn-right" recordCount="1030">
							<SimplePredicate field="double(latAcceleration)" operator="lessOrEqual" value="-1.6790500283241272"/>
							<ScoreDistribution value="constant-speed" recordCount="0"/>
							<ScoreDistribution value="easy-turn-left" recordCount="0"/>
							<ScoreDistribution value="easy-turn-right" recordCount="904"/>
							<ScoreDistribution value="faster" recordCount="68"/>
							<ScoreDistribution value="slower" recordCount="58"/>
							<ScoreDistribution value="still" recordCount="0"/>
							<ScoreDistribution value="turn-left" recordCount="0"/>
							<ScoreDistribution value="turn-right" recordCount="0"/>
						</Node>
						<Node score="easy-turn-right" recordCount="577">
							<True/>
							<ScoreDistribution value="constant-speed" recordCount="0"/>
							<ScoreDistribution value="easy-turn-left" recordCount="0"/>
							<ScoreDistribution value="easy-turn-right" recordCount="401"/>
							<ScoreDistribution value="faster" recordCount="99"/>
							<ScoreDistribution value="slower" recordCount="77"/>
							<ScoreDistribution value="still" recordCount="0"/>
							<ScoreDistribution value="turn-left" recordCount="0"/>
							<ScoreDistribution value="turn-right" recordCount="0"/>
						</Node>
					</Node>
					<Node>
						<SimplePredicate field="double(yAcceleration)" operator="lessOrEqual" value="-0.19249999523162842"/>
						<Node>
							<SimplePredicate field="double(yCenter)" operator="lessOrEqual" value="-37.902448654174805"/>
							<Node>
								<SimplePredicate field="double(xCenter)" operator="lessOrEqual" value="102.75905227661133"/>
								<Node score="faster" recordCount="19">
									<SimplePredicate field="double(latVelocity)" operator="lessOrEqual" value="-0.07560000196099281"/>
									<ScoreDistribution value="constant-speed" recordCount="0"/>
									<ScoreDistribution value="easy-turn-left" recordCount="0"/>
									<ScoreDistribution value="easy-turn-right" recordCount="0"/>
									<ScoreDistribution value="faster" recordCount="19"/>
									<ScoreDistribution value="slower" recordCount="0"/>
									<ScoreDistribution value="still" recordCount="0"/>
									<ScoreDistribution value="turn-left" recordCount="0"/>
									<ScoreDistribution value="turn-right" recordCount="0"/>
								</Node>
								<Node score="faster" recordCount="4">
									<True/>
									<ScoreDistribution value="constant-speed" recordCount="0"/>
									<ScoreDistribution value="easy-turn-left" recordCount="0"/>
									<ScoreDistribution value="easy-turn-right" recordCount="0"/>
									<ScoreDistribution value="faster" recordCount="3"/>
									<ScoreDistribution value="slower" recordCount="1"/>
									<ScoreDistribution value="still" recordCount="0"/>
									<ScoreDistribution value="turn-left" recordCount="0"/>
									<ScoreDistribution value="turn-right" recordCount="0"/>
								</Node>
							</Node>
							<Node score="faster" recordCount="5">
								<True/>
								<ScoreDistribution value="constant-speed" recordCount="0"/>
								<ScoreDistribution value="easy-turn-left" recordCount="0"/>
								<ScoreDistribution value="easy-turn-right" recordCount="1"/>
								<ScoreDistribution value="faster" recordCount="2"/>
								<ScoreDistribution value="slower" recordCount="2"/>
								<ScoreDistribution value="still" recordCount="0"/>
								<ScoreDistribution value="turn-left" recordCount="0"/>
								<ScoreDistribution value="turn-right" recordCount="0"/>
							</Node>
						</Node>
						<Node score="easy-turn-right" recordCount="4">
							<SimplePredicate field="double(3_xVelocity)" operator="lessOrEqual" value="-6.025949954986572"/>
							<ScoreDistribution value="constant-speed" recordCount="0"/>
							<ScoreDistribution value="easy-turn-left" recordCount="0"/>
							<ScoreDistribution value="easy-turn-right" recordCount="3"/>
							<ScoreDistribution value="faster" recordCount="1"/>
							<ScoreDistribution value="slower" recordCount="0"/>
							<ScoreDistribution value="still" recordCount="0"/>
							<ScoreDistribution value="turn-left" recordCount="0"/>
							<ScoreDistribution value="turn-right" recordCount="0"/>
						</Node>
						<Node score="easy-turn-right" recordCount="7">
							<True/>
							<ScoreDistribution value="constant-speed" recordCount="0"/>
							<ScoreDistribution value="easy-turn-left" recordCount="0"/>
							<ScoreDistribution value="easy-turn-right" recordCount="7"/>
							<ScoreDistribution value="faster" recordCount="0"/>
							<ScoreDistribution value="slower" recordCount="0"/>
							<ScoreDistribution value="still" recordCount="0"/>
							<ScoreDistribution value="turn-left" recordCount="0"/>
							<ScoreDistribution value="turn-right" recordCount="0"/>
						</Node>
					</Node>
					<Node>
						<SimplePredicate field="double(1_yAcceleration)" operator="lessOrEqual" value="1.9064500331878662"/>
						<Node>
							<SimplePredicate field="double(yAcceleration)" operator="lessOrEqual" value="-0.14249999821186066"/>
							<Node score="slower" recordCount="7">
								<SimplePredicate field="double(xCenter)" operator="lessOrEqual" value="101.41934967041016"/>
								<ScoreDistribution value="constant-speed" recordCount="0"/>
								<ScoreDistribution value="easy-turn-left" recordCount="0"/>
