digraph Tree {
node [shape=box, style="filled, rounded", color="black", fontname=helvetica] ;
edge [fontname=helvetica] ;
0 [label="lonVelocity <= 0.0\ngini = 0.704\nsamples = 15878\nvalue = [21, 245, 1826, 3405, 6965, 3320, 36, 60]\nclass = turn-left", fillcolor="#c6e3f8"] ;
1 [label="lonVelocity <= -0.0\ngini = 0.176\nsamples = 3665\nvalue = [12, 1, 1, 53, 244, 3317, 25, 12]\nclass = constant-speed", fillcolor="#674de8"] ;
0 -> 1 [labeldistance=2.5, labelangle=45, headlabel="True"] ;
2 [label="latAcceleration <= 0.258\ngini = 0.457\nsamples = 335\nvalue = [4, 1, 1, 51, 240, 1, 25, 12]\nclass = turn-left", fillcolor="#7bbeee"] ;
1 -> 2 ;
3 [label="latVelocity <= 1.293\ngini = 0.35\nsamples = 302\nvalue = [4, 1, 0, 51, 238, 1, 7, 0]\nclass = turn-left", fillcolor="#6bb6ec"] ;
2 -> 3 ;
4 [label="lonVelocity <= -0.005\ngini = 0.319\nsamples = 295\nvalue = [4, 1, 0, 51, 238, 1, 0, 0]\nclass = turn-left", fillcolor="#67b4eb"] ;
3 -> 4 ;
5 [label="gini = 0.173\nsamples = 210\nvalue = [0, 1, 0, 19, 190, 0, 0, 0]\nclass = turn-left", fillcolor="#4ea7e8"] ;
4 -> 5 ;
6 [label="gini = 0.537\nsamples = 85\nvalue = [4, 0, 0, 32, 48, 1, 0, 0]\nclass = turn-left", fillcolor="#c3e1f7"] ;
4 -> 6 ;
7 [label="gini = 0.0\nsamples = 7\nvalue = [0, 0, 0, 0, 0, 0, 7, 0]\nclass = turn-right", fillcolor="#d739e5"] ;
3 -> 7 ;
8 [label="3_yAcceleration <= -0.013\ngini = 0.566\nsamples = 33\nvalue = [0, 0, 1, 0, 2, 0, 18, 12]\nclass = turn-right", fillcolor="#f4c6f8"] ;
2 -> 8 ;
9 [label="gini = 0.0\nsamples = 18\nvalue = [0, 0, 0, 0, 0, 0, 18, 0]\nclass = turn-right", fillcolor="#d739e5"] ;
8 -> 9 ;
10 [label="yCenter <= -34.338\ngini = 0.338\nsamples = 15\nvalue = [0, 0, 1, 0, 2, 0, 0, 12]\nclass = still", fillcolor="#eb6793"] ;
8 -> 10 ;
11 [label="gini = 0.444\nsamples = 3\nvalue = [0, 0, 1, 0, 2, 0, 0, 0]\nclass = turn-left", fillcolor="#9ccef2"] ;
10 -> 11 ;
12 [label="gini = 0.0\nsamples = 12\nvalue = [0, 0, 0, 0, 0, 0, 0, 12]\nclass = still", fillcolor="#e53972"] ;
10 -> 12 ;
13 [label="lonAcceleration <= 0.0\ngini = 0.008\nsamples = 3330\nvalue = [8, 0, 0, 2, 4, 3316, 0, 0]\nclass = constant-speed", fillcolor="#573ae5"] ;
1 -> 13 ;
14 [label="yAcceleration <= -0.0\ngini = 0.005\nsamples = 3323\nvalue = [4, 0, 0, 2, 2, 3315, 0, 0]\nclass = constant-speed", fillcolor="#5639e5"] ;
13 -> 14 ;
15 [label="gini = 0.0\nsamples = 2\nvalue = [0, 0, 0, 2, 0, 0, 0, 0]\nclass = easy-turn-right", fillcolor="#39e5ac"] ;
14 -> 15 ;
16 [label="2_yVelocity <= -8.885\ngini = 0.004\nsamples = 3321\nvalue = [4, 0, 0, 0, 2, 3315, 0, 0]\nclass = constant-speed", fillcolor="#5639e5"] ;
14 -> 16 ;
17 [label="gini = 0.298\nsamples = 22\nvalue = [4, 0, 0, 0, 0, 18, 0, 0]\nclass = constant-speed", fillcolor="#7c65eb"] ;
16 -> 17 ;
18 [label="gini = 0.001\nsamples = 3299\nvalue = [0, 0, 0, 0, 2, 3297, 0, 0]\nclass = constant-speed", fillcolor="#5639e5"] ;
16 -> 18 ;
19 [label="1_xVelocity <= -9.255\ngini = 0.571\nsamples = 7\nvalue = [4, 0, 0, 0, 2, 1, 0, 0]\nclass = slower", fillcolor="#f5cdb0"] ;
13 -> 19 ;
20 [label="gini = 0.0\nsamples = 4\nvalue = [4, 0, 0, 0, 0, 0, 0, 0]\nclass = slower", fillcolor="#e58139"] ;
19 -> 20 ;
21 [label="gini = 0.444\nsamples = 3\nvalue = [0, 0, 0, 0, 2, 1, 0, 0]\nclass = turn-left", fillcolor="#9ccef2"] ;
19 -> 21 ;
22 [label="lonAcceleration <= 0.023\ngini = 0.599\nsamples = 12213\nvalue = [9, 244, 1825, 3352, 6721, 3, 11, 48]\nclass = turn-left", fillcolor="#b4daf5"] ;
0 -> 22 [labeldistance=2.5, labelangle=-45, headlabel="False"] ;
23 [label="latAcceleration <= -1.512\ngini = 0.577\nsamples = 4686\nvalue = [5, 83, 868, 2769, 923, 3, 11, 24]\nclass = easy-turn-right", fillcolor="#9ef2d6"] ;
22 -> 23 ;
24 [label="3_yCenter <= -97.088\ngini = 0.284\nsamples = 928\nvalue = [0, 0, 780, 75, 49, 0, 0, 24]\nclass = easy-turn-left", fillcolor="#67ea5b"] ;
23 -> 24 ;
25 [label="gini = 0.0\nsamples = 24\nvalue = [0, 0, 0, 0, 0, 0, 0, 24]\nclass = still", fillcolor="#e53972"] ;
24 -> 25 ;
26 [label="latAcceleration <= -1.703\ngini = 0.246\nsamples = 904\nvalue = [0, 0, 780, 75, 49, 0, 0, 0]\nclass = easy-turn-left", fillcolor="#63e957"] ;
24 -> 26 ;
27 [label="gini = 0.149\nsamples = 696\nvalue = [0, 0, 641, 30, 25, 0, 0, 0]\nclass = easy-turn-left", fillcolor="#56e749"] ;
26 -> 27 ;
28 [label="gini = 0.493\nsamples = 208\nvalue = [0, 0, 139, 45, 24, 0, 0, 0]\nclass = easy-turn-left", fillcolor="#95f08d"] ;
26 -> 28 ;
29 [label="lonAcceleration <= -0.279\ngini = 0.431\nsamples = 3758\nvalue = [5, 83, 88, 2694, 874, 3, 11, 0]\nclass = easy-turn-right", fillcolor="#82efcb"] ;
23 -> 29 ;
30 [label="latAcceleration <= 2.1\ngini = 0.223\nsamples = 1968\nvalue = [2, 53, 22, 1727, 158, 0, 6, 0]\nclass = easy-turn-right", fillcolor="#53e8b7"] ;
29 -> 30 ;
31 [label="gini = 0.194\nsamples = 1909\nvalue = [2, 23, 22, 1707, 155, 0, 0, 0]\nclass = easy-turn-right", fillcolor="#50e8b6"] ;
30 -> 31 ;
32 [label="gini = 0.614\nsamples = 59\nvalue = [0, 30, 0, 20, 3, 0, 6, 0]\nclass = faster", fillcolor="#f1f8cc"] ;
30 -> 32 ;
33 [label="latAcceleration <= 0.998\ngini = 0.547\nsamples = 1790\nvalue = [3, 30, 66, 967, 716, 3, 5, 0]\nclass = easy-turn-right", fillcolor="#d1f9ec"] ;
29 -> 33 ;
34 [label="gini = 0.518\nsamples = 1552\nvalue = [3, 1, 66, 918, 561, 3, 0, 0]\nclass = easy-turn-right", fillcolor="#b8f6e1"] ;
33 -> 34 ;
35 [label="gini = 0.518\nsamples = 238\nvalue = [0, 29, 0, 49, 155, 0, 5, 0]\nclass = turn-left", fillcolor="#90c8f0"] ;
33 -> 35 ;
36 [label="latAcceleration <= -1.461\ngini = 0.384\nsamples = 7527\nvalue = [4, 161, 957, 583, 5798, 0, 0, 24]\nclass = turn-left", fillcolor="#6db7ec"] ;
22 -> 36 ;
37 [label="heading <= 22.531\ngini = 0.459\nsamples = 1333\nvalue = [0, 0, 884, 15, 424, 0, 0, 10]\nclass = easy-turn-left", fillcolor="#a2f29b"] ;
36 -> 37 ;
38 [label="yCenter <= -67.683\ngini = 0.295\nsamples = 118\nvalue = [0, 0, 20, 1, 97, 0, 0, 0]\nclass = turn-left", fillcolor="#63b2eb"] ;
37 -> 38 ;
39 [label="gini = 0.444\nsamples = 15\nvalue = [0, 0, 10, 0, 5, 0, 0, 0]\nclass = easy-turn-left", fillcolor="#a3f29c"] ;
38 -> 39 ;
40 [label="gini = 0.193\nsamples = 103\nvalue = [0, 0, 10, 1, 92, 0, 0, 0]\nclass = turn-left", fillcolor="#50a9e8"] ;
38 -> 40 ;
41 [label="latAcceleration <= -1.799\ngini = 0.422\nsamples = 1215\nvalue = [0, 0, 864, 14, 327, 0, 0, 10]\nclass = easy-turn-left", fillcolor="#90ef87"] ;
37 -> 41 ;
42 [label="gini = 0.301\nsamples = 732\nvalue = [0, 0, 601, 6, 115, 0, 0, 10]\nclass = easy-turn-left", fillcolor="#6eeb63"] ;
41 -> 42 ;
43 [label="gini = 0.511\nsamples = 483\nvalue = [0, 0, 263, 8, 212, 0, 0, 0]\nclass = easy-turn-left", fillcolor="#dcfada"] ;
41 -> 43 ;
44 [label="lonAcceleration <= 0.387\ngini = 0.238\nsamples = 6194\nvalue = [4, 161, 73, 568, 5374, 0, 0, 14]\nclass = turn-left", fillcolor="#56abe9"] ;
36 -> 44 ;
45 [label="trackLifetime <= 12.5\ngini = 0.37\nsamples = 2425\nvalue = [4, 64, 48, 417, 1878, 0, 0, 14]\nclass = turn-left", fillcolor="#6fb8ec"] ;
44 -> 45 ;
46 [label="gini = 0.458\nsamples = 161\nvalue = [0, 1, 0, 113, 33, 0, 0, 14]\nclass = easy-turn-right", fillcolor="#83efcb"] ;
45 -> 46 ;
47 [label="gini = 0.317\nsamples = 2264\nvalue = [4, 63, 48, 304, 1845, 0, 0, 0]\nclass = turn-left", fillcolor="#63b2eb"] ;
45 -> 47 ;
48 [label="latAcceleration <= 2.163\ngini = 0.137\nsamples = 3769\nvalue = [0, 97, 25, 151, 3496, 0, 0, 0]\nclass = turn-left", fillcolor="#48a4e7"] ;
44 -> 48 ;
49 [label="gini = 0.114\nsamples = 3639\nvalue = [0, 43, 25, 149, 3422, 0, 0, 0]\nclass = turn-left", fillcolor="#45a3e7"] ;
48 -> 49 ;
50 [label="gini = 0.503\nsamples = 130\nvalue = [0, 54, 0, 2, 74, 0, 0, 0]\nclass = turn-left", fillcolor="#cbe5f8"] ;
48 -> 50 ;
}